<?xml version="1.0"?>
<MethodSetup Method="BDT::BDTG">
  <GeneralInfo>
    <Info name="TMVA Release" value="4.2.0 [262656]"/>
    <Info name="ROOT Release" value="5.34/34 [336418]"/>
    <Info name="Creator" value="satoshi"/>
    <Info name="Date" value="Fri Apr 29 09:59:17 2016"/>
    <Info name="Host" value="Darwin macphsft14.cern.ch 13.4.0 Darwin Kernel Version 13.4.0: Wed Mar 18 16:20:14 PDT 2015; root:xnu-2422.115.14~1/RELEASE_X86_64 x86_64"/>
    <Info name="Dir" value="/Users/satoshi/work/TMVA/TMVA-v4.2.0/test"/>
    <Info name="Training events" value="36139"/>
    <Info name="TrainingTime" value="3.89612871e+02"/>
    <Info name="AnalysisType" value="Classification"/>
  </GeneralInfo>
  <Options>
    <Option name="V" modified="Yes">False</Option>
    <Option name="VerbosityLevel" modified="No">Default</Option>
    <Option name="VarTransform" modified="No">None</Option>
    <Option name="H" modified="Yes">False</Option>
    <Option name="CreateMVAPdfs" modified="No">False</Option>
    <Option name="IgnoreNegWeightsInTraining" modified="No">False</Option>
    <Option name="NTrees" modified="Yes">1000</Option>
    <Option name="MaxDepth" modified="Yes">2</Option>
    <Option name="MinNodeSize" modified="Yes">1.5%</Option>
    <Option name="nCuts" modified="Yes">20</Option>
    <Option name="BoostType" modified="Yes">Grad</Option>
    <Option name="AdaBoostR2Loss" modified="No">quadratic</Option>
    <Option name="UseBaggedBoost" modified="Yes">True</Option>
    <Option name="Shrinkage" modified="Yes">1.000000e-01</Option>
    <Option name="AdaBoostBeta" modified="No">5.000000e-01</Option>
    <Option name="UseRandomisedTrees" modified="No">False</Option>
    <Option name="UseNvars" modified="No">5</Option>
    <Option name="UsePoissonNvars" modified="No">True</Option>
    <Option name="BaggedSampleFraction" modified="Yes">5.000000e-01</Option>
    <Option name="UseYesNoLeaf" modified="No">True</Option>
    <Option name="NegWeightTreatment" modified="No">ignorenegweightsintraining</Option>
    <Option name="Css" modified="No">1.000000e+00</Option>
    <Option name="Cts_sb" modified="No">1.000000e+00</Option>
    <Option name="Ctb_ss" modified="No">1.000000e+00</Option>
    <Option name="Cbb" modified="No">1.000000e+00</Option>
    <Option name="NodePurityLimit" modified="No">5.000000e-01</Option>
    <Option name="SeparationType" modified="No">giniindex</Option>
    <Option name="DoBoostMonitor" modified="No">False</Option>
    <Option name="UseFisherCuts" modified="No">False</Option>
    <Option name="MinLinCorrForFisher" modified="No">8.000000e-01</Option>
    <Option name="UseExclusiveVars" modified="No">False</Option>
    <Option name="DoPreselection" modified="No">False</Option>
    <Option name="SigToBkgFraction" modified="No">1.000000e+00</Option>
    <Option name="PruneMethod" modified="No">nopruning</Option>
    <Option name="PruneStrength" modified="No">0.000000e+00</Option>
    <Option name="PruningValFraction" modified="No">5.000000e-01</Option>
    <Option name="nEventsMin" modified="No">0</Option>
    <Option name="UseBaggedGrad" modified="No">False</Option>
    <Option name="GradBaggingFraction" modified="No">5.000000e-01</Option>
    <Option name="UseNTrainEvents" modified="No">0</Option>
    <Option name="NNodesMax" modified="No">0</Option>
  </Options>
  <Variables NVar="27">
    <Variable VarIndex="0" Expression="lepton_eta" Label="lepton_eta" Title="Lepton Eta" Unit="" Internal="lepton_eta" Type="F" Min="-2.09886456e+00" Max="2.09823895e+00"/>
    <Variable VarIndex="1" Expression="lepton_pt" Label="lepton_pt" Title="Lepton PT" Unit="GeV" Internal="lepton_pt" Type="F" Min="2.50000076e+01" Max="6.24632202e+02"/>
    <Variable VarIndex="2" Expression="lepton_phi" Label="lepton_phi" Title="Lepton Phi" Unit="" Internal="lepton_phi" Type="F" Min="-3.14157534e+00" Max="3.14159203e+00"/>
    <Variable VarIndex="3" Expression="jet_1_eta" Label="jet_1_eta" Title="Jet 1 Eta" Unit="" Internal="jet_1_eta" Type="F" Min="-2.39962769e+00" Max="2.39899659e+00"/>
    <Variable VarIndex="4" Expression="jet_2_eta" Label="jet_2_eta" Title="Jet 2 Eta" Unit="" Internal="jet_2_eta" Type="F" Min="-2.39965940e+00" Max="2.39980054e+00"/>
    <Variable VarIndex="5" Expression="jet_3_eta" Label="jet_3_eta" Title="Jet 3 Eta" Unit="" Internal="jet_3_eta" Type="F" Min="-2.39883351e+00" Max="2.39989471e+00"/>
    <Variable VarIndex="6" Expression="jet_4_eta" Label="jet_4_eta" Title="Jet 4 Eta" Unit="" Internal="jet_4_eta" Type="F" Min="-2.39978886e+00" Max="2.39969301e+00"/>
    <Variable VarIndex="7" Expression="jet_5_eta" Label="jet_5_eta" Title="Jet 5 Eta" Unit="" Internal="jet_5_eta" Type="F" Min="-2.39996386e+00" Max="2.39999533e+00"/>
    <Variable VarIndex="8" Expression="jet_6_eta" Label="jet_6_eta" Title="Jet 6 Eta" Unit="" Internal="jet_6_eta" Type="F" Min="-2.39999056e+00" Max="2.39982271e+00"/>
    <Variable VarIndex="9" Expression="jet_1_pt" Label="jet_1_pt" Title="Jet 1 PT" Unit="GeV" Internal="jet_1_pt" Type="F" Min="3.95740128e+01" Max="1.55758521e+03"/>
    <Variable VarIndex="10" Expression="jet_2_pt" Label="jet_2_pt" Title="Jet 2 PT" Unit="GeV" Internal="jet_2_pt" Type="F" Min="3.57602463e+01" Max="1.33549927e+03"/>
    <Variable VarIndex="11" Expression="jet_3_pt" Label="jet_3_pt" Title="Jet 3 PT" Unit="GeV" Internal="jet_3_pt" Type="F" Min="3.17764912e+01" Max="6.48433289e+02"/>
    <Variable VarIndex="12" Expression="jet_4_pt" Label="jet_4_pt" Title="Jet 4 PT" Unit="GeV" Internal="jet_4_pt" Type="F" Min="3.09438210e+01" Max="4.00108246e+02"/>
    <Variable VarIndex="13" Expression="jet_5_pt" Label="jet_5_pt" Title="Jet 5 PT" Unit="GeV" Internal="jet_5_pt" Type="F" Min="3.00911827e+01" Max="3.17321777e+02"/>
    <Variable VarIndex="14" Expression="jet_6_pt" Label="jet_6_pt" Title="Jet 6 PT" Unit="GeV" Internal="jet_6_pt" Type="F" Min="3.00005817e+01" Max="2.13826981e+02"/>
    <Variable VarIndex="15" Expression="jet_1_phi" Label="jet_1_phi" Title="Jet 1 Phi" Unit="" Internal="jet_1_phi" Type="F" Min="-3.14121318e+00" Max="3.14125061e+00"/>
    <Variable VarIndex="16" Expression="jet_2_phi" Label="jet_2_phi" Title="Jet 2 Phi" Unit="" Internal="jet_2_phi" Type="F" Min="-3.14153266e+00" Max="3.14151454e+00"/>
    <Variable VarIndex="17" Expression="jet_3_phi" Label="jet_3_phi" Title="Jet 3 Phi" Unit="" Internal="jet_3_phi" Type="F" Min="-3.14157629e+00" Max="3.14155936e+00"/>
    <Variable VarIndex="18" Expression="jet_4_phi" Label="jet_4_phi" Title="Jet 4 Phi" Unit="" Internal="jet_4_phi" Type="F" Min="-3.14139581e+00" Max="3.14129877e+00"/>
    <Variable VarIndex="19" Expression="jet_5_phi" Label="jet_5_phi" Title="Jet 5 Phi" Unit="" Internal="jet_5_phi" Type="F" Min="-3.14142680e+00" Max="3.14142895e+00"/>
    <Variable VarIndex="20" Expression="jet_6_phi" Label="jet_6_phi" Title="Jet 6 Phi" Unit="" Internal="jet_6_phi" Type="F" Min="-3.14153981e+00" Max="3.14101791e+00"/>
    <Variable VarIndex="21" Expression="jet_1_m" Label="jet_1_m" Title="Jet 1 Mass" Unit="GeV" Internal="jet_1_m" Type="F" Min="5.59934881e-03" Max="1.99621460e+02"/>
    <Variable VarIndex="22" Expression="jet_2_m" Label="jet_2_m" Title="Jet 2 Mass" Unit="GeV" Internal="jet_2_m" Type="F" Min="6.01190096e-03" Max="1.84753036e+02"/>
    <Variable VarIndex="23" Expression="jet_3_m" Label="jet_3_m" Title="Jet 3 Mass" Unit="GeV" Internal="jet_3_m" Type="F" Min="3.15021910e-03" Max="1.20693825e+02"/>
    <Variable VarIndex="24" Expression="jet_4_m" Label="jet_4_m" Title="Jet 4 Mass" Unit="GeV" Internal="jet_4_m" Type="F" Min="3.13546183e-03" Max="8.02406693e+01"/>
    <Variable VarIndex="25" Expression="jet_5_m" Label="jet_5_m" Title="Jet 5 Mass" Unit="GeV" Internal="jet_5_m" Type="F" Min="1.90822245e-03" Max="6.64153214e+01"/>
    <Variable VarIndex="26" Expression="jet_6_m" Label="jet_6_m" Title="Jet 6 Mass" Unit="GeV" Internal="jet_6_m" Type="F" Min="2.69739826e-06" Max="4.08835487e+01"/>
  </Variables>
  <Spectators NSpec="0"/>
  <Classes NClass="2">
    <Class Name="Signal" Index="0"/>
    <Class Name="Background" Index="1"/>
  </Classes>
  <Transformations NTransformations="0"/>
  <MVAPdfs/>
  <Weights NTrees="1000" AnalysisType="1">
    <BinaryTree type="DecisionTree" boostWeight="1.0000000000000000e+00" itree="0">
      <Node pos="s" depth="0" NCoef="0" IVar="12" Cut="4.8283546447753906e+01" cType="0" res="-5.0972905009984970e-03" rms="4.9997401237487793e-01" purity="4.9490270018577576e-01" nType="0">
        <Node pos="l" depth="1" NCoef="0" IVar="10" Cut="9.5981620788574219e+01" cType="0" res="2.0119328051805496e-02" rms="4.9959504604339600e-01" purity="5.2011930942535400e-01" nType="0">
          <Node pos="l" depth="2" NCoef="0" IVar="-1" Cut="0.0000000000000000e+00" cType="1" res="8.1244800239801407e-03" rms="4.9809780716896057e-01" purity="5.4357266426086426e-01" nType="-99"/>
          <Node pos="r" depth="2" NCoef="0" IVar="-1" Cut="0.0000000000000000e+00" cType="1" res="-3.9876154623925686e-03" rms="4.9882265925407410e-01" purity="4.6570798754692078e-01" nType="-99"/>
        </Node>
        <Node pos="r" depth="1" NCoef="0" IVar="21" Cut="1.2857828140258789e+01" cType="0" res="-1.1938054114580154e-01" rms="4.8553916811943054e-01" purity="3.8061946630477905e-01" nType="0">
          <Node pos="l" depth="2" NCoef="0" IVar="-1" Cut="0.0000000000000000e+00" cType="1" res="-1.5777777880430222e-02" rms="4.9524173140525818e-01" purity="4.3118402361869812e-01" nType="-99"/>
          <Node pos="r" depth="2" NCoef="0" IVar="-1" Cut="0.0000000000000000e+00" cType="1" res="-2.4404365569353104e-02" rms="4.6889933943748474e-01" purity="3.2641020417213440e-01" nType="-99"/>
        </Node>
      </Node>
    </BinaryTree>
    <BinaryTree type="DecisionTree" boostWeight="1.0000000000000000e+00" itree="1">
      <Node pos="s" depth="0" NCoef="0" IVar="12" Cut="6.6102340698242188e+01" cType="0" res="1.3844239583704621e-04" rms="4.9933642148971558e-01" purity="5.0017392635345459e-01" nType="0">
        <Node pos="l" depth="1" NCoef="0" IVar="6" Cut="1.7119511365890503e+00" cType="1" res="5.8886986225843430e-02" rms="4.9609783291816711e-01" purity="5.6219750642776489e-01" nType="0">
          <Node pos="l" depth="2" NCoef="0" IVar="-1" Cut="0.0000000000000000e+00" cType="1" res="1.0006815195083618e-02" rms="4.9502217769622803e-01" purity="5.7014638185501099e-01" nType="-99"/>
          <Node pos="r" depth="2" NCoef="0" IVar="-1" Cut="0.0000000000000000e+00" cType="1" res="-3.9237029850482941e-03" rms="4.9550500512123108e-01" purity="4.3170216679573059e-01" nType="-99"/>
        </Node>
        <Node pos="r" depth="1" NCoef="0" IVar="13" Cut="4.3713642120361328e+01" cType="0" res="-5.2068408578634262e-02" rms="4.9639609456062317e-01" purity="4.4505673646926880e-01" nType="0">
          <Node pos="l" depth="2" NCoef="0" IVar="-1" Cut="0.0000000000000000e+00" cType="1" res="-1.4550196938216686e-03" rms="4.9975043535232544e-01" purity="4.9559435248374939e-01" nType="-99"/>
          <Node pos="r" depth="2" NCoef="0" IVar="-1" Cut="0.0000000000000000e+00" cType="1" res="-1.5031362883746624e-02" rms="4.8847517371177673e-01" purity="3.9490264654159546e-01" nType="-99"/>
        </Node>
      </Node>
    </BinaryTree>
    <BinaryTree type="DecisionTree" boostWeight="1.0000000000000000e+00" itree="2">
      <Node pos="s" depth="0" NCoef="0" IVar="12" Cut="6.6102340698242188e+01" cType="0" res="3.1389531213790178e-03" rms="4.9883216619491577e-01" purity="5.0310206413269043e-01" nType="0">
        <Node pos="l" depth="1" NCoef="0" IVar="3" Cut="-1.0264899730682373e+00" cType="0" res="5.2131738513708115e-02" rms="4.9629345536231995e-01" purity="5.6004798412322998e-01" nType="0">
          <Node pos="l" depth="2" NCoef="0" IVar="-1" Cut="0.0000000000000000e+00" cType="1" res="9.2646144330501556e-03" rms="4.9466627836227417e-01" purity="5.7229351997375488e-01" nType="-99"/>
          <Node pos="r" depth="2" NCoef="0" IVar="-1" Cut="0.0000000000000000e+00" cType="1" res="4.5234491117298603e-03" rms="4.9981790781021118e-01" purity="5.0665521621704102e-01" nType="-99"/>
        </Node>
        <Node pos="r" depth="1" NCoef="0" IVar="12" Cut="4.7684391021728516e+01" cType="0" res="-4.0255557745695114e-02" rms="4.9705341458320618e-01" purity="4.5266318321228027e-01" nType="0">
          <Node pos="l" depth="2" NCoef="0" IVar="-1" Cut="0.0000000000000000e+00" cType="1" res="-2.8194312471896410e-03" rms="4.9962031841278076e-01" purity="4.8468750715255737e-01" nType="-99"/>
          <Node pos="r" depth="2" NCoef="0" IVar="-1" Cut="0.0000000000000000e+00" cType="1" res="-1.7516488209366798e-02" rms="4.8658117651939392e-01" purity="3.8517338037490845e-01" nType="-99"/>
        </Node>
      </Node>
    </BinaryTree>
    <BinaryTree type="DecisionTree" boostWeight="1.0000000000000000e+00" itree="3">
      <Node pos="s" depth="0" NCoef="0" IVar="11" Cut="6.3591102600097656e+01" cType="0" res="5.0258911214768887e-03" rms="4.9841809272766113e-01" purity="5.0507313013076782e-01" nType="0">
        <Node pos="l" depth="1" NCoef="0" IVar="4" Cut="1.7141634225845337e+00" cType="1" res="2.9182128608226776e-02" rms="4.9812570214271545e-01" purity="5.3422445058822632e-01" nType="0">
          <Node pos="l" depth="2" NCoef="0" IVar="-1" Cut="0.0000000000000000e+00" cType="1" res="5.3735990077257156e-03" rms="4.9755352735519409e-01" purity="5.4145187139511108e-01" nType="-99"/>
          <Node pos="r" depth="2" NCoef="0" IVar="-1" Cut="0.0000000000000000e+00" cType="1" res="-1.4245322905480862e-02" rms="4.9233993887901306e-01" purity="4.1457042098045349e-01" nType="-99"/>
        </Node>
        <Node pos="r" depth="1" NCoef="0" IVar="11" Cut="5.9410041809082031e+01" cType="0" res="-7.2028107941150665e-02" rms="4.9147877097129822e-01" purity="4.1208577156066895e-01" nType="0">
          <Node pos="l" depth="2" NCoef="0" IVar="-1" Cut="0.0000000000000000e+00" cType="1" res="-6.4502581954002380e-03" rms="4.9982693791389465e-01" purity="5.0290960073471069e-01" nType="-99"/>
          <Node pos="r" depth="2" NCoef="0" IVar="-1" Cut="0.0000000000000000e+00" cType="1" res="-1.6925623640418053e-02" rms="4.8506987094879150e-01" purity="3.8014823198318481e-01" nType="-99"/>
        </Node>
      </Node>
    </BinaryTree>
    <BinaryTree type="DecisionTree" boostWeight="1.0000000000000000e+00" itree="4">
      <Node pos="s" depth="0" NCoef="0" IVar="13" Cut="6.6158767700195312e+01" cType="0" res="-4.3611889705061913e-03" rms="4.9780943989753723e-01" purity="4.9548906087875366e-01" nType="0">
        <Node pos="l" depth="1" NCoef="0" IVar="20" Cut="-1.4831916987895966e-01" cType="0" res="7.7596955001354218e-02" rms="4.9133986234664917e-01" purity="5.9221148490905762e-01" nType="0">
          <Node pos="l" depth="2" NCoef="0" IVar="-1" Cut="0.0000000000000000e+00" cType="1" res="1.4374876394867897e-02" rms="4.8455643653869629e-01" purity="6.2292075157165527e-01" nType="-99"/>
          <Node pos="r" depth="2" NCoef="0" IVar="-1" Cut="0.0000000000000000e+00" cType="1" res="8.6171226575970650e-03" rms="4.9649229645729065e-01" purity="5.5855250358581543e-01" nType="-99"/>
        </Node>
        <Node pos="r" depth="1" NCoef="0" IVar="13" Cut="4.5548671722412109e+01" cType="0" res="-2.8562923893332481e-02" rms="4.9712643027305603e-01" purity="4.6692752838134766e-01" nType="0">
          <Node pos="l" depth="2" NCoef="0" IVar="-1" Cut="0.0000000000000000e+00" cType="1" res="2.1486564073711634e-03" rms="4.9953213334083557e-01" purity="5.0796288251876831e-01" nType="-99"/>
          <Node pos="r" depth="2" NCoef="0" IVar="-1" Cut="0.0000000000000000e+00" cType="1" res="-1.0022923350334167e-02" rms="4.9197888374328613e-01" purity="4.2013296484947205e-01" nType="-99"/>
        </Node>
      </Node>
    </BinaryTree>
    <BinaryTree type="DecisionTree" boostWeight="1.0000000000000000e+00" itree="5">
      <Node pos="s" depth="0" NCoef="0" IVar="11" Cut="5.8297046661376953e+01" cType="0" res="-1.8940467853099108e-03" rms="4.9717298150062561e-01" purity="4.9818852543830872e-01" nType="0">
        <Node pos="l" depth="1" NCoef="0" IVar="13" Cut="6.0786071777343750e+01" cType="0" res="1.7947020009160042e-02" rms="4.9798113107681274e-01" purity="5.2398061752319336e-01" nType="0">
          <Node pos="l" depth="2" NCoef="0" IVar="-1" Cut="0.0000000000000000e+00" cType="1" res="9.7570857033133507e-03" rms="4.9304440617561340e-01" purity="5.8168917894363403e-01" nType="-99"/>
          <Node pos="r" depth="2" NCoef="0" IVar="-1" Cut="0.0000000000000000e+00" cType="1" res="-1.0516144102439284e-03" rms="4.9895697832107544e-01" purity="4.9191707372665405e-01" nType="-99"/>
        </Node>
        <Node pos="r" depth="1" NCoef="0" IVar="12" Cut="4.0178432464599609e+01" cType="0" res="-1.0863824933767319e-01" rms="4.7889646887779236e-01" purity="3.5942780971527100e-01" nType="0">
          <Node pos="l" depth="2" NCoef="0" IVar="-1" Cut="0.0000000000000000e+00" cType="1" res="-1.2962720356881618e-02" rms="4.8659315705299377e-01" purity="3.8747844099998474e-01" nType="-99"/>
          <Node pos="r" depth="2" NCoef="0" IVar="-1" Cut="0.0000000000000000e+00" cType="1" res="-2.4874124675989151e-02" rms="4.3636789917945862e-01" purity="2.5603044033050537e-01" nType="-99"/>
        </Node>
      </Node>
    </BinaryTree>
    <BinaryTree type="DecisionTree" boostWeight="1.0000000000000000e+00" itree="6">
      <Node pos="s" depth="0" NCoef="0" IVar="12" Cut="4.8161285400390625e+01" cType="0" res="-2.5507437530905008e-03" rms="4.9692758917808533e-01" purity="4.9749517440795898e-01" nType="0">
        <Node pos="l" depth="1" NCoef="0" IVar="4" Cut="1.2571388483047485e+00" cType="1" res="1.5381544828414917e-02" rms="4.9799597263336182e-01" purity="5.2376079559326172e-01" nType="0">
          <Node pos="l" depth="2" NCoef="0" IVar="-1" Cut="0.0000000000000000e+00" cType="1" res="4.4770939275622368e-03" rms="4.9719601869583130e-01" purity="5.3714781999588013e-01" nType="-99"/>
          <Node pos="r" depth="2" NCoef="0" IVar="-1" Cut="0.0000000000000000e+00" cType="1" res="-8.1767030060291290e-03" rms="4.9506056308746338e-01" purity="4.3588852882385254e-01" nType="-99"/>
        </Node>
        <Node pos="r" depth="1" NCoef="0" IVar="14" Cut="3.7258029937744141e+01" cType="0" res="-8.8195070624351501e-02" rms="4.8268988728523254e-01" purity="3.7205076217651367e-01" nType="0">
          <Node pos="l" depth="2" NCoef="0" IVar="-1" Cut="0.0000000000000000e+00" cType="1" res="-2.9686966445297003e-03" rms="4.9840387701988220e-01" purity="4.6614167094230652e-01" nType="-99"/>
          <Node pos="r" depth="2" NCoef="0" IVar="-1" Cut="0.0000000000000000e+00" cType="1" res="-1.6204576939344406e-02" rms="4.7559288144111633e-01" purity="3.4697443246841431e-01" nType="-99"/>
        </Node>
      </Node>
    </BinaryTree>
    <BinaryTree type="DecisionTree" boostWeight="1.0000000000000000e+00" itree="7">
      <Node pos="s" depth="0" NCoef="0" IVar="12" Cut="4.6438869476318359e+01" cType="0" res="-6.1923880130052567e-03" rms="4.9679845571517944e-01" purity="4.9339947104454041e-01" nType="0">
        <Node pos="l" depth="1" NCoef="0" IVar="3" Cut="1.7128180265426636e+00" cType="1" res="7.1815499104559422e-03" rms="4.9823242425918579e-01" purity="5.1500505208969116e-01" nType="0">
          <Node pos="l" depth="2" NCoef="0" IVar="-1" Cut="0.0000000000000000e+00" cType="1" res="3.0219836626201868e-03" rms="4.9800556898117065e-01" purity="5.2133524417877197e-01" nType="-99"/>
          <Node pos="r" depth="2" NCoef="0" IVar="-1" Cut="0.0000000000000000e+00" cType="1" res="-1.1848405934870243e-02" rms="4.8967811465263367e-01" purity="4.0628859400749207e-01" nType="-99"/>
        </Node>
        <Node pos="r" depth="1" NCoef="0" IVar="6" Cut="-1.4772690534591675e+00" cType="0" res="-8.4470704197883606e-02" rms="4.8091885447502136e-01" purity="3.6694082617759705e-01" nType="0">
          <Node pos="l" depth="2" NCoef="0" IVar="-1" Cut="0.0000000000000000e+00" cType="1" res="-1.1774170212447643e-02" rms="4.8473578691482544e-01" purity="3.8155236840248108e-01" nType="-99"/>
          <Node pos="r" depth="2" NCoef="0" IVar="-1" Cut="0.0000000000000000e+00" cType="1" res="-2.3119596764445305e-02" rms="4.3241876363754272e-01" purity="2.5143998861312866e-01" nType="-99"/>
        </Node>
      </Node>
    </BinaryTree>
    <BinaryTree type="DecisionTree" boostWeight="1.0000000000000000e+00" itree="8">
      <Node pos="s" depth="0" NCoef="0" IVar="11" Cut="5.8297046661376953e+01" cType="0" res="2.1359955426305532e-03" rms="4.9648794531822205e-01" purity="5.0207722187042236e-01" nType="0">
        <Node pos="l" depth="1" NCoef="0" IVar="10" Cut="1.0420623779296875e+02" cType="0" res="1.8923459574580193e-02" rms="4.9771654605865479e-01" purity="5.2753722667694092e-01" nType="0">
          <Node pos="l" depth="2" NCoef="0" IVar="-1" Cut="0.0000000000000000e+00" cType="1" res="5.4388064891099930e-03" rms="4.9580171704292297e-01" purity="5.5708056688308716e-01" nType="-99"/>
          <Node pos="r" depth="2" NCoef="0" IVar="-1" Cut="0.0000000000000000e+00" cType="1" res="-2.6913816109299660e-03" rms="4.9858570098876953e-01" purity="4.7805786132812500e-01" nType="-99"/>
        </Node>
        <Node pos="r" depth="1" NCoef="0" IVar="14" Cut="3.6842769622802734e+01" cType="0" res="-8.8265977799892426e-02" rms="4.7982540726661682e-01" purity="3.6497253179550171e-01" nType="0">
          <Node pos="l" depth="2" NCoef="0" IVar="-1" Cut="0.0000000000000000e+00" cType="1" res="-7.8004584647715092e-03" rms="4.9737069010734558e-01" purity="4.4843256473541260e-01" nType="-99"/>
          <Node pos="r" depth="2" NCoef="0" IVar="-1" Cut="0.0000000000000000e+00" cType="1" res="-1.5232637524604797e-02" rms="4.6896582841873169e-01" purity="3.2888555526733398e-01" nType="-99"/>
        </Node>
      </Node>
    </BinaryTree>
    <BinaryTree type="DecisionTree" boostWeight="1.0000000000000000e+00" itree="9">
      <Node pos="s" depth="0" NCoef="0" IVar="10" Cut="7.8100494384765625e+01" cType="0" res="8.7046349653974175e-04" rms="4.9644774198532104e-01" purity="5.0106918811798096e-01" nType="0">
        <Node pos="l" depth="1" NCoef="0" IVar="13" Cut="5.5273281097412109e+01" cType="0" res="1.7304930835962296e-02" rms="4.9738463759422302e-01" purity="5.2632373571395874e-01" nType="0">
          <Node pos="l" depth="2" NCoef="0" IVar="-1" Cut="0.0000000000000000e+00" cType="1" res="7.1951104328036308e-03" rms="4.9544018507003784e-01" purity="5.6430751085281372e-01" nType="-99"/>
          <Node pos="r" depth="2" NCoef="0" IVar="-1" Cut="0.0000000000000000e+00" cType="1" res="-1.5908173518255353e-03" rms="4.9833491444587708e-01" purity="4.8981377482414246e-01" nType="-99"/>
        </Node>
        <Node pos="r" depth="1" NCoef="0" IVar="7" Cut="1.7144006490707397e+00" cType="1" res="-6.4302861690521240e-02" rms="4.8728764057159424e-01" purity="4.0091857314109802e-01" nType="0">
          <Node pos="l" depth="2" NCoef="0" IVar="-1" Cut="0.0000000000000000e+00" cType="1" res="-9.6645038574934006e-03" rms="4.8967128992080688e-01" purity="4.1406199336051941e-01" nType="-99"/>
          <Node pos="r" depth="2" NCoef="0" IVar="-1" Cut="0.0000000000000000e+00" cType="1" res="-2.3721337318420410e-02" rms="4.3230056762695312e-01" purity="2.5166070461273193e-01" nType="-99"/>
        </Node>
      </Node>
    </BinaryTree>
    <BinaryTree type="DecisionTree" boostWeight="1.0000000000000000e+00" itree="10">
      <Node pos="s" depth="0" NCoef="0" IVar="12" Cut="6.2205135345458984e+01" cType="0" res="-2.0313658751547337e-03" rms="4.9577963352203369e-01" purity="4.9778693914413452e-01" nType="0">
        <Node pos="l" depth="1" NCoef="0" IVar="4" Cut="1.9414427280426025e+00" cType="1" res="3.0006378889083862e-02" rms="4.9618035554885864e-01" purity="5.5366593599319458e-01" nType="0">
          <Node pos="l" depth="2" NCoef="0" IVar="-1" Cut="0.0000000000000000e+00" cType="1" res="5.1382561214268208e-03" rms="4.9569350481033325e-01" purity="5.5928635597229004e-01" nType="-99"/>
          <Node pos="r" depth="2" NCoef="0" IVar="-1" Cut="0.0000000000000000e+00" cType="1" res="-1.4754576608538628e-02" rms="4.8428434133529663e-01" purity="3.7818855047225952e-01" nType="-99"/>
        </Node>
        <Node pos="r" depth="1" NCoef="0" IVar="1" Cut="7.5988243103027344e+01" cType="0" res="-3.8729358464479446e-02" rms="4.9276736378669739e-01" purity="4.3377971649169922e-01" nType="0">
          <Node pos="l" depth="2" NCoef="0" IVar="-1" Cut="0.0000000000000000e+00" cType="1" res="9.3354209093376994e-04" rms="4.9737444519996643e-01" purity="4.7880494594573975e-01" nType="-99"/>
          <Node pos="r" depth="2" NCoef="0" IVar="-1" Cut="0.0000000000000000e+00" cType="1" res="-8.2572670653462410e-03" rms="4.8944833874702454e-01" purity="4.1312339901924133e-01" nType="-99"/>
        </Node>
      </Node>
    </BinaryTree>
    <BinaryTree type="DecisionTree" boostWeight="1.0000000000000000e+00" itree="11">
      <Node pos="s" depth="0" NCoef="0" IVar="12" Cut="8.4040046691894531e+01" cType="0" res="1.1756027815863490e-03" rms="4.9525502324104309e-01" purity="5.0091451406478882e-01" nType="0">
        <Node pos="l" depth="1" NCoef="0" IVar="6" Cut="1.2569591999053955e+00" cType="1" res="6.1983667314052582e-02" rms="4.9039787054061890e-01" purity="5.9482306241989136e-01" nType="0">
          <Node pos="l" depth="2" NCoef="0" IVar="-1" Cut="0.0000000000000000e+00" cType="1" res="9.0051321312785149e-03" rms="4.8737016320228577e-01" purity="6.0926532745361328e-01" nType="-99"/>
          <Node pos="r" depth="2" NCoef="0" IVar="-1" Cut="0.0000000000000000e+00" cType="1" res="-3.9412318728864193e-03" rms="5.0045818090438843e-01" purity="4.9326214194297791e-01" nType="-99"/>
        </Node>
        <Node pos="r" depth="1" NCoef="0" IVar="3" Cut="-1.7142330408096313e+00" cType="0" res="-1.8773155286908150e-02" rms="4.9521422386169434e-01" purity="4.7010678052902222e-01" nType="0">
          <Node pos="l" depth="2" NCoef="0" IVar="-1" Cut="0.0000000000000000e+00" cType="1" res="-1.4212359674274921e-03" rms="4.9555501341819763e-01" purity="4.7874903678894043e-01" nType="-99"/>
          <Node pos="r" depth="2" NCoef="0" IVar="-1" Cut="0.0000000000000000e+00" cType="1" res="-1.7615349963307381e-02" rms="4.6868109703063965e-01" purity="3.3250635862350464e-01" nType="-99"/>
        </Node>
      </Node>
    </BinaryTree>
    <BinaryTree type="DecisionTree" boostWeight="1.0000000000000000e+00" itree="12">
      <Node pos="s" depth="0" NCoef="0" IVar="14" Cut="3.8240509033203125e+01" cType="0" res="-5.4103285074234009e-03" rms="4.9549666047096252e-01" purity="4.9441790580749512e-01" nType="0">
        <Node pos="l" depth="1" NCoef="0" IVar="3" Cut="-1.7136784791946411e+00" cType="0" res="2.6553047820925713e-02" rms="4.9614101648330688e-01" purity="5.4314053058624268e-01" nType="0">
          <Node pos="l" depth="2" NCoef="0" IVar="-1" Cut="0.0000000000000000e+00" cType="1" res="5.0285747274756432e-03" rms="4.9538540840148926e-01" purity="5.5241191387176514e-01" nType="-99"/>
          <Node pos="r" depth="2" NCoef="0" IVar="-1" Cut="0.0000000000000000e+00" cType="1" res="-1.1553344316780567e-02" rms="4.8671376705169678e-01" purity="3.9798900485038757e-01" nType="-99"/>
        </Node>
        <Node pos="r" depth="1" NCoef="0" IVar="5" Cut="1.4840593338012695e+00" cType="1" res="-4.6703610569238663e-02" rms="4.9159583449363708e-01" purity="4.3147355318069458e-01" nType="0">
          <Node pos="l" depth="2" NCoef="0" IVar="-1" Cut="0.0000000000000000e+00" cType="1" res="-4.1233804076910019e-03" rms="4.9285718798637390e-01" purity="4.4077986478805542e-01" nType="-99"/>
          <Node pos="r" depth="2" NCoef="0" IVar="-1" Cut="0.0000000000000000e+00" cType="1" res="-1.7646305263042450e-02" rms="4.7321918606758118e-01" purity="3.4931296110153198e-01" nType="-99"/>
        </Node>
      </Node>
    </BinaryTree>
    <BinaryTree type="DecisionTree" boostWeight="1.0000000000000000e+00" itree="13">
      <Node pos="s" depth="0" NCoef="0" IVar="14" Cut="4.6478534698486328e+01" cType="0" res="-3.7739959079772234e-03" rms="4.9545150995254517e-01" purity="4.9581548571586609e-01" nType="0">
        <Node pos="l" depth="1" NCoef="0" IVar="8" Cut="-1.2563331127166748e+00" cType="0" res="4.7834236174821854e-02" rms="4.9260947108268738e-01" purity="5.7865804433822632e-01" nType="0">
          <Node pos="l" depth="2" NCoef="0" IVar="-1" Cut="0.0000000000000000e+00" cType="1" res="8.2977553829550743e-03" rms="4.9050197005271912e-01" purity="5.9140747785568237e-01" nType="-99"/>
          <Node pos="r" depth="2" NCoef="0" IVar="-1" Cut="0.0000000000000000e+00" cType="1" res="-1.5475241234526038e-03" rms="4.9828767776489258e-01" purity="5.0938189029693604e-01" nType="-99"/>
        </Node>
        <Node pos="r" depth="1" NCoef="0" IVar="9" Cut="1.0428816223144531e+02" cType="0" res="-2.6383670046925545e-02" rms="4.9499940872192383e-01" purity="4.5952197909355164e-01" nType="0">
          <Node pos="l" depth="2" NCoef="0" IVar="-1" Cut="0.0000000000000000e+00" cType="1" res="-8.1978691741824150e-04" rms="4.9772515892982483e-01" purity="4.8409280180931091e-01" nType="-99"/>
          <Node pos="r" depth="2" NCoef="0" IVar="-1" Cut="0.0000000000000000e+00" cType="1" res="-9.6308654174208641e-03" rms="4.8371958732604980e-01" purity="3.8430872559547424e-01" nType="-99"/>
        </Node>
      </Node>
    </BinaryTree>
    <BinaryTree type="DecisionTree" boostWeight="1.0000000000000000e+00" itree="14">
      <Node pos="s" depth="0" NCoef="0" IVar="3" Cut="1.2566238641738892e+00" cType="1" res="-1.9911921117454767e-03" rms="4.9533751606941223e-01" purity="4.9768424034118652e-01" nType="0">
        <Node pos="l" depth="1" NCoef="0" IVar="4" Cut="1.2558103799819946e+00" cType="1" res="7.8073083423078060e-03" rms="4.9506467580795288e-01" purity="5.0766152143478394e-01" nType="0">
          <Node pos="l" depth="2" NCoef="0" IVar="-1" Cut="0.0000000000000000e+00" cType="1" res="2.8217092622071505e-03" rms="4.9472138285636902e-01" purity="5.1886826753616333e-01" nType="-99"/>
          <Node pos="r" depth="2" NCoef="0" IVar="-1" Cut="0.0000000000000000e+00" cType="1" res="-1.1159882880747318e-02" rms="4.9141436815261841e-01" purity="4.2435711622238159e-01" nType="-99"/>
        </Node>
        <Node pos="r" depth="1" NCoef="0" IVar="7" Cut="-7.8867977857589722e-01" cType="0" res="-6.8534947931766510e-02" rms="4.9205103516578674e-01" purity="4.2992648482322693e-01" nType="0">
          <Node pos="l" depth="2" NCoef="0" IVar="-1" Cut="0.0000000000000000e+00" cType="1" res="-3.9210566319525242e-03" rms="4.9471533298492432e-01" purity="4.6532124280929565e-01" nType="-99"/>
          <Node pos="r" depth="2" NCoef="0" IVar="-1" Cut="0.0000000000000000e+00" cType="1" res="-2.4997854605317116e-02" rms="4.4882714748382568e-01" purity="2.7676928043365479e-01" nType="-99"/>
        </Node>
      </Node>
    </BinaryTree>
    <BinaryTree type="DecisionTree" boostWeight="1.0000000000000000e+00" itree="15">
      <Node pos="s" depth="0" NCoef="0" IVar="9" Cut="1.1555091857910156e+02" cType="0" res="-1.4379443600773811e-03" rms="4.9489971995353699e-01" purity="4.9836808443069458e-01" nType="0">
        <Node pos="l" depth="1" NCoef="0" IVar="3" Cut="1.2564669847488403e+00" cType="1" res="1.5395820140838623e-02" rms="4.9620705842971802e-01" purity="5.2702343463897705e-01" nType="0">
          <Node pos="l" depth="2" NCoef="0" IVar="-1" Cut="0.0000000000000000e+00" cType="1" res="3.5439170897006989e-03" rms="4.9547305703163147e-01" purity="5.3709989786148071e-01" nType="-99"/>
          <Node pos="r" depth="2" NCoef="0" IVar="-1" Cut="0.0000000000000000e+00" cType="1" res="-5.6617259979248047e-03" rms="4.9671918153762817e-01" purity="4.5880663394927979e-01" nType="-99"/>
        </Node>
        <Node pos="r" depth="1" NCoef="0" IVar="12" Cut="5.1225223541259766e+01" cType="0" res="-5.0187371671199799e-02" rms="4.8782816529273987e-01" purity="4.1538423299789429e-01" nType="0">
          <Node pos="l" depth="2" NCoef="0" IVar="-1" Cut="0.0000000000000000e+00" cType="1" res="-2.0755117293447256e-03" rms="4.9747270345687866e-01" purity="4.7672373056411743e-01" nType="-99"/>
          <Node pos="r" depth="2" NCoef="0" IVar="-1" Cut="0.0000000000000000e+00" cType="1" res="-1.1892061680555344e-02" rms="4.7365200519561768e-01" purity="3.4520900249481201e-01" nType="-99"/>
        </Node>
      </Node>
    </BinaryTree>
    <BinaryTree type="DecisionTree" boostWeight="1.0000000000000000e+00" itree="16">
      <Node pos="s" depth="0" NCoef="0" IVar="11" Cut="5.9603637695312500e+01" cType="0" res="1.9450281979516149e-04" rms="4.9452331662178040e-01" purity="4.9928525090217590e-01" nType="0">
        <Node pos="l" depth="1" NCoef="0" IVar="4" Cut="1.7133849859237671e+00" cType="1" res="1.4668463729321957e-02" rms="4.9629172682762146e-01" purity="5.2766716480255127e-01" nType="0">
          <Node pos="l" depth="2" NCoef="0" IVar="-1" Cut="0.0000000000000000e+00" cType="1" res="2.6931471657007933e-03" rms="4.9606189131736755e-01" purity="5.3471016883850098e-01" nType="-99"/>
          <Node pos="r" depth="2" NCoef="0" IVar="-1" Cut="0.0000000000000000e+00" cType="1" res="-1.2295046821236610e-02" rms="4.8998737335205078e-01" purity="4.0545743703842163e-01" nType="-99"/>
        </Node>
        <Node pos="r" depth="1" NCoef="0" IVar="11" Cut="4.8829067230224609e+01" cType="0" res="-6.5874345600605011e-02" rms="4.8086774349212646e-01" purity="3.6973097920417786e-01" nType="0">
          <Node pos="l" depth="2" NCoef="0" IVar="-1" Cut="0.0000000000000000e+00" cType="1" res="-6.0250321403145790e-03" rms="4.9032595753669739e-01" purity="4.0378639101982117e-01" nType="-99"/>
          <Node pos="r" depth="2" NCoef="0" IVar="-1" Cut="0.0000000000000000e+00" cType="1" res="-1.5607423149049282e-02" rms="4.5390072464942932e-01" purity="2.9278168082237244e-01" nType="-99"/>
        </Node>
      </Node>
    </BinaryTree>
    <BinaryTree type="DecisionTree" boostWeight="1.0000000000000000e+00" itree="17">
      <Node pos="s" depth="0" NCoef="0" IVar="7" Cut="-1.0270781517028809e+00" cType="0" res="7.3892984073609114e-04" rms="4.9509918689727783e-01" purity="5.0072205066680908e-01" nType="0">
        <Node pos="l" depth="1" NCoef="0" IVar="5" Cut="-1.4842162132263184e+00" cType="0" res="1.3513793237507343e-02" rms="4.9477973580360413e-01" purity="5.1388603448867798e-01" nType="0">
          <Node pos="l" depth="2" NCoef="0" IVar="-1" Cut="0.0000000000000000e+00" cType="1" res="2.2925951052457094e-03" rms="4.9460926651954651e-01" purity="5.2234750986099243e-01" nType="-99"/>
          <Node pos="r" depth="2" NCoef="0" IVar="-1" Cut="0.0000000000000000e+00" cType="1" res="-9.4787199050188065e-03" rms="4.8780283331871033e-01" purity="4.2143917083740234e-01" nType="-99"/>
        </Node>
        <Node pos="r" depth="1" NCoef="0" IVar="6" Cut="5.4610407352447510e-01" cType="1" res="-5.1476616412401199e-02" rms="4.9297279119491577e-01" purity="4.4691586494445801e-01" nType="0">
          <Node pos="l" depth="2" NCoef="0" IVar="-1" Cut="0.0000000000000000e+00" cType="1" res="-1.4262086478993297e-03" rms="4.9639883637428284e-01" purity="4.8361402750015259e-01" nType="-99"/>
          <Node pos="r" depth="2" NCoef="0" IVar="-1" Cut="0.0000000000000000e+00" cType="1" res="-1.9284717738628387e-02" rms="4.6597054600715637e-01" purity="3.3299216628074646e-01" nType="-99"/>
        </Node>
      </Node>
    </BinaryTree>
    <BinaryTree type="DecisionTree" boostWeight="1.0000000000000000e+00" itree="18">
      <Node pos="s" depth="0" NCoef="0" IVar="13" Cut="4.9005851745605469e+01" cType="0" res="4.5829378068447113e-03" rms="4.9421408772468567e-01" purity="5.0490581989288330e-01" nType="0">
        <Node pos="l" depth="1" NCoef="0" IVar="4" Cut="1.2462880611419678e+00" cType="1" res="3.0390102416276932e-02" rms="4.9471485614776611e-01" purity="5.5876362323760986e-01" nType="0">
          <Node pos="l" depth="2" NCoef="0" IVar="-1" Cut="0.0000000000000000e+00" cType="1" res="4.9903243780136108e-03" rms="4.9361860752105713e-01" purity="5.7205945253372192e-01" nType="-99"/>
          <Node pos="r" depth="2" NCoef="0" IVar="-1" Cut="0.0000000000000000e+00" cType="1" res="-5.4918788373470306e-03" rms="4.9621474742889404e-01" purity="4.6705329418182373e-01" nType="-99"/>
        </Node>
        <Node pos="r" depth="1" NCoef="0" IVar="13" Cut="3.5495155334472656e+01" cType="0" res="-2.6779239997267723e-02" rms="4.9178531765937805e-01" purity="4.3945506215095520e-01" nType="0">
          <Node pos="l" depth="2" NCoef="0" IVar="-1" Cut="0.0000000000000000e+00" cType="1" res="-2.7974371332675219e-03" rms="4.9455094337463379e-01" purity="4.5916539430618286e-01" nType="-99"/>
          <Node pos="r" depth="2" NCoef="0" IVar="-1" Cut="0.0000000000000000e+00" cType="1" res="-1.3480628840625286e-02" rms="4.6854129433631897e-01" purity="3.3361631631851196e-01" nType="-99"/>
        </Node>
      </Node>
    </BinaryTree>
    <BinaryTree type="DecisionTree" boostWeight="1.0000000000000000e+00" itree="19">
      <Node pos="s" depth="0" NCoef="0" IVar="13" Cut="4.8143062591552734e+01" cType="0" res="-3.5196500830352306e-03" rms="4.9423977732658386e-01" purity="4.9608963727951050e-01" nType="0">
        <Node pos="l" depth="1" NCoef="0" IVar="3" Cut="-1.2573078870773315e+00" cType="0" res="2.2114535793662071e-02" rms="4.9504131078720093e-01" purity="5.5064320564270020e-01" nType="0">
          <Node pos="l" depth="2" NCoef="0" IVar="-1" Cut="0.0000000000000000e+00" cType="1" res="4.1640871204435825e-03" rms="4.9368375539779663e-01" purity="5.6336504220962524e-01" nType="-99"/>
          <Node pos="r" depth="2" NCoef="0" IVar="-1" Cut="0.0000000000000000e+00" cType="1" res="-2.2451083641499281e-03" rms="4.9666997790336609e-01" purity="4.6817180514335632e-01" nType="-99"/>
        </Node>
        <Node pos="r" depth="1" NCoef="0" IVar="1" Cut="9.2098312377929688e+01" cType="0" res="-3.6958821117877960e-02" rms="4.9118554592132568e-01" purity="4.2492592334747314e-01" nType="0">
          <Node pos="l" depth="2" NCoef="0" IVar="-1" Cut="0.0000000000000000e+00" cType="1" res="4.4155991636216640e-03" rms="4.9617838859558105e-01" purity="4.8938336968421936e-01" nType="-99"/>
          <Node pos="r" depth="2" NCoef="0" IVar="-1" Cut="0.0000000000000000e+00" cType="1" res="-6.8466197699308395e-03" rms="4.8886585235595703e-01" purity="4.0757063031196594e-01" nType="-99"/>
        </Node>
      </Node>
    </BinaryTree>
    <BinaryTree type="DecisionTree" boostWeight="1.0000000000000000e+00" itree="20">
      <Node pos="s" depth="0" NCoef="0" IVar="3" Cut="1.2557814121246338e+00" cType="1" res="-3.2708328217267990e-03" rms="4.9479562044143677e-01" purity="4.9725189805030823e-01" nType="0">
        <Node pos="l" depth="1" NCoef="0" IVar="6" Cut="1.2564183473587036e+00" cType="1" res="6.3553517684340477e-03" rms="4.9463656544685364e-01" purity="5.0804084539413452e-01" nType="0">
          <Node pos="l" depth="2" NCoef="0" IVar="-1" Cut="0.0000000000000000e+00" cType="1" res="2.3719272576272488e-03" rms="4.9436333775520325e-01" purity="5.1817321777343750e-01" nType="-99"/>
          <Node pos="r" depth="2" NCoef="0" IVar="-1" Cut="0.0000000000000000e+00" cType="1" res="-8.4492750465869904e-03" rms="4.9244672060012817e-01" purity="4.3940559029579163e-01" nType="-99"/>
        </Node>
        <Node pos="r" depth="1" NCoef="0" IVar="6" Cut="-1.1723433434963226e-01" cType="0" res="-7.0086389780044556e-02" rms="4.9072140455245972e-01" purity="4.2236581444740295e-01" nType="0">
          <Node pos="l" depth="2" NCoef="0" IVar="-1" Cut="0.0000000000000000e+00" cType="1" res="-6.0894392663612962e-04" rms="4.9577528238296509e-01" purity="4.6246746182441711e-01" nType="-99"/>
          <Node pos="r" depth="2" NCoef="0" IVar="-1" Cut="0.0000000000000000e+00" cType="1" res="-1.9212845712900162e-02" rms="4.6852549910545349e-01" purity="3.3956411480903625e-01" nType="-99"/>
        </Node>
      </Node>
    </BinaryTree>
    <BinaryTree type="DecisionTree" boostWeight="1.0000000000000000e+00" itree="21">
      <Node pos="s" depth="0" NCoef="0" IVar="1" Cut="1.1066175079345703e+02" cType="0" res="-5.0625754520297050e-03" rms="4.9442830681800842e-01" purity="4.9514696002006531e-01" nType="0">
        <Node pos="l" depth="1" NCoef="0" IVar="7" Cut="1.4845703840255737e+00" cType="1" res="4.5106664299964905e-02" rms="4.9239873886108398e-01" purity="5.6118988990783691e-01" nType="0">
          <Node pos="l" depth="2" NCoef="0" IVar="-1" Cut="0.0000000000000000e+00" cType="1" res="8.8895447552204132e-03" rms="4.9095377326011658e-01" purity="5.7363510131835938e-01" nType="-99"/>
          <Node pos="r" depth="2" NCoef="0" IVar="-1" Cut="0.0000000000000000e+00" cType="1" res="-4.8062956193462014e-04" rms="4.9404352903366089e-01" purity="4.6060249209403992e-01" nType="-99"/>
        </Node>
        <Node pos="r" depth="1" NCoef="0" IVar="6" Cut="1.9425995349884033e+00" cType="1" res="-1.5400703996419907e-02" rms="4.9421304464340210e-01" purity="4.8153784871101379e-01" nType="0">
          <Node pos="l" depth="2" NCoef="0" IVar="-1" Cut="0.0000000000000000e+00" cType="1" res="-1.0306829353794456e-03" rms="4.9448165297508240e-01" purity="4.8710608482360840e-01" nType="-99"/>
          <Node pos="r" depth="2" NCoef="0" IVar="-1" Cut="0.0000000000000000e+00" cType="1" res="-1.5511451289057732e-02" rms="4.6650218963623047e-01" purity="3.3000165224075317e-01" nType="-99"/>
        </Node>
      </Node>
    </BinaryTree>
    <BinaryTree type="DecisionTree" boostWeight="1.0000000000000000e+00" itree="22">
      <Node pos="s" depth="0" NCoef="0" IVar="11" Cut="8.2308250427246094e+01" cType="0" res="7.0795137435197830e-04" rms="4.9402600526809692e-01" purity="5.0058245658874512e-01" nType="0">
        <Node pos="l" depth="1" NCoef="0" IVar="6" Cut="1.4805797338485718e+00" cType="1" res="2.5612415745854378e-02" rms="4.9462601542472839e-01" purity="5.5609321594238281e-01" nType="0">
          <Node pos="l" depth="2" NCoef="0" IVar="-1" Cut="0.0000000000000000e+00" cType="1" res="4.4002053327858448e-03" rms="4.9354386329650879e-01" purity="5.6706136465072632e-01" nType="-99"/>
          <Node pos="r" depth="2" NCoef="0" IVar="-1" Cut="0.0000000000000000e+00" cType="1" res="-8.9744441211223602e-03" rms="4.9460136890411377e-01" purity="4.3984851241111755e-01" nType="-99"/>
        </Node>
        <Node pos="r" depth="1" NCoef="0" IVar="13" Cut="3.7352287292480469e+01" cType="0" res="-2.4641051888465881e-02" rms="4.9212196469306946e-01" purity="4.4408079981803894e-01" nType="0">
          <Node pos="l" depth="2" NCoef="0" IVar="-1" Cut="0.0000000000000000e+00" cType="1" res="-1.4345152303576469e-03" rms="4.9558195471763611e-01" purity="4.6878242492675781e-01" nType="-99"/>
          <Node pos="r" depth="2" NCoef="0" IVar="-1" Cut="0.0000000000000000e+00" cType="1" res="-1.1613213457167149e-02" rms="4.7386693954467773e-01" purity="3.4549722075462341e-01" nType="-99"/>
        </Node>
      </Node>
    </BinaryTree>
    <BinaryTree type="DecisionTree" boostWeight="1.0000000000000000e+00" itree="23">
      <Node pos="s" depth="0" NCoef="0" IVar="11" Cut="5.8297046661376953e+01" cType="0" res="6.1531043611466885e-03" rms="4.9410444498062134e-01" purity="5.0603300333023071e-01" nType="0">
        <Node pos="l" depth="1" NCoef="0" IVar="3" Cut="-1.4855910539627075e+00" cType="0" res="1.5827694907784462e-02" rms="4.9585741758346558e-01" purity="5.3020608425140381e-01" nType="0">
          <Node pos="l" depth="2" NCoef="0" IVar="-1" Cut="0.0000000000000000e+00" cType="1" res="2.1919026039540768e-03" rms="4.9558663368225098e-01" purity="5.3833323717117310e-01" nType="-99"/>
          <Node pos="r" depth="2" NCoef="0" IVar="-1" Cut="0.0000000000000000e+00" cType="1" res="-7.5872698798775673e-03" rms="4.9232822656631470e-01" purity="4.4649788737297058e-01" nType="-99"/>
        </Node>
        <Node pos="r" depth="1" NCoef="0" IVar="17" Cut="4.5111283659934998e-01" cType="1" res="-4.6756107360124588e-02" rms="4.8097547888755798e-01" purity="3.7383323907852173e-01" nType="0">
          <Node pos="l" depth="2" NCoef="0" IVar="-1" Cut="0.0000000000000000e+00" cType="1" res="-5.6586177088320255e-03" rms="4.8753070831298828e-01" purity="4.0484389662742615e-01" nType="-99"/>
          <Node pos="r" depth="2" NCoef="0" IVar="-1" Cut="0.0000000000000000e+00" cType="1" res="-9.1127455234527588e-03" rms="4.6988672018051147e-01" purity="3.3503669500350952e-01" nType="-99"/>
        </Node>
      </Node>
    </BinaryTree>
    <BinaryTree type="DecisionTree" boostWeight="1.0000000000000000e+00" itree="24">
      <Node pos="s" depth="0" NCoef="0" IVar="5" Cut="1.2532708644866943e+00" cType="1" res="-1.3895776355639100e-03" rms="4.9394831061363220e-01" purity="4.9828064441680908e-01" nType="0">
        <Node pos="l" depth="1" NCoef="0" IVar="4" Cut="1.9426879882812500e+00" cType="1" res="7.8605907037854195e-03" rms="4.9390581250190735e-01" purity="5.0897109508514404e-01" nType="0">
          <Node pos="l" depth="2" NCoef="0" IVar="-1" Cut="0.0000000000000000e+00" cType="1" res="1.7614575335755944e-03" rms="4.9400413036346436e-01" purity="5.1483249664306641e-01" nType="-99"/>
          <Node pos="r" depth="2" NCoef="0" IVar="-1" Cut="0.0000000000000000e+00" cType="1" res="-1.5078999102115631e-02" rms="4.6197026968002319e-01" purity="3.1142070889472961e-01" nType="-99"/>
        </Node>
        <Node pos="r" depth="1" NCoef="0" IVar="3" Cut="-3.3382722735404968e-01" cType="0" res="-6.0107734054327011e-02" rms="4.9016359448432922e-01" purity="4.3041968345642090e-01" nType="0">
          <Node pos="l" depth="2" NCoef="0" IVar="-1" Cut="0.0000000000000000e+00" cType="1" res="-2.0289025269448757e-03" rms="4.9392768740653992e-01" purity="4.8399823904037476e-01" nType="-99"/>
          <Node pos="r" depth="2" NCoef="0" IVar="-1" Cut="0.0000000000000000e+00" cType="1" res="-2.3286625742912292e-02" rms="4.5792728662490845e-01" purity="3.1102475523948669e-01" nType="-99"/>
        </Node>
      </Node>
    </BinaryTree>
    <BinaryTree type="DecisionTree" boostWeight="1.0000000000000000e+00" itree="25">
      <Node pos="s" depth="0" NCoef="0" IVar="8" Cut="-1.4826191663742065e+00" cType="0" res="-6.5446496009826660e-03" rms="4.9385017156600952e-01" purity="4.9341475963592529e-01" nType="0">
        <Node pos="l" depth="1" NCoef="0" IVar="8" Cut="1.2897169589996338e+00" cType="1" res="2.0324981305748224e-03" rms="4.9373769760131836e-01" purity="5.0240492820739746e-01" nType="0">
          <Node pos="l" depth="2" NCoef="0" IVar="-1" Cut="0.0000000000000000e+00" cType="1" res="2.1606939844787121e-03" rms="4.9302634596824646e-01" purity="5.1331257820129395e-01" nType="-99"/>
          <Node pos="r" depth="2" NCoef="0" IVar="-1" Cut="0.0000000000000000e+00" cType="1" res="-4.1900239884853363e-03" rms="4.9424844980239868e-01" purity="4.5001855492591858e-01" nType="-99"/>
        </Node>
        <Node pos="r" depth="1" NCoef="0" IVar="6" Cut="7.9594904184341431e-01" cType="1" res="-6.7391186952590942e-02" rms="4.9035888910293579e-01" purity="4.2963775992393494e-01" nType="0">
          <Node pos="l" depth="2" NCoef="0" IVar="-1" Cut="0.0000000000000000e+00" cType="1" res="-4.6606059186160564e-03" rms="4.9460956454277039e-01" purity="4.5819035172462463e-01" nType="-99"/>
          <Node pos="r" depth="2" NCoef="0" IVar="-1" Cut="0.0000000000000000e+00" cType="1" res="-2.1533574908971786e-02" rms="4.4764801859855652e-01" purity="2.8892377018928528e-01" nType="-99"/>
        </Node>
      </Node>
    </BinaryTree>
    <BinaryTree type="DecisionTree" boostWeight="1.0000000000000000e+00" itree="26">
      <Node pos="s" depth="0" NCoef="0" IVar="5" Cut="1.4852792024612427e+00" cType="1" res="-1.3322802260518074e-03" rms="4.9372601509094238e-01" purity="4.9904084205627441e-01" nType="0">
        <Node pos="l" depth="1" NCoef="0" IVar="5" Cut="-1.8414740562438965e+00" cType="0" res="5.6189703755080700e-03" rms="4.9356883764266968e-01" purity="5.0716429948806763e-01" nType="0">
          <Node pos="l" depth="2" NCoef="0" IVar="-1" Cut="0.0000000000000000e+00" cType="1" res="1.6029794933274388e-03" rms="4.9348551034927368e-01" purity="5.1246815919876099e-01" nType="-99"/>
          <Node pos="r" depth="2" NCoef="0" IVar="-1" Cut="0.0000000000000000e+00" cType="1" res="-1.0783734731376171e-02" rms="4.8532217741012573e-01" purity="4.0397924184799194e-01" nType="-99"/>
        </Node>
        <Node pos="r" depth="1" NCoef="0" IVar="8" Cut="-3.3687964081764221e-01" cType="0" res="-6.6125094890594482e-02" rms="4.9047258496284485e-01" purity="4.2332193255424500e-01" nType="0">
          <Node pos="l" depth="2" NCoef="0" IVar="-1" Cut="0.0000000000000000e+00" cType="1" res="-3.8795068394392729e-03" rms="4.9450659751892090e-01" purity="4.6269756555557251e-01" nType="-99"/>
          <Node pos="r" depth="2" NCoef="0" IVar="-1" Cut="0.0000000000000000e+00" cType="1" res="-2.0582607015967369e-02" rms="4.6764346957206726e-01" purity="3.3030059933662415e-01" nType="-99"/>
        </Node>
      </Node>
    </BinaryTree>
    <BinaryTree type="DecisionTree" boostWeight="1.0000000000000000e+00" itree="27">
      <Node pos="s" depth="0" NCoef="0" IVar="14" Cut="4.6480144500732422e+01" cType="0" res="-3.8068470894359052e-04" rms="4.9363884329795837e-01" purity="5.0001657009124756e-01" nType="0">
        <Node pos="l" depth="1" NCoef="0" IVar="8" Cut="-1.7114875316619873e+00" cType="0" res="3.9830766618251801e-02" rms="4.9174407124519348e-01" purity="5.8125549554824829e-01" nType="0">
          <Node pos="l" depth="2" NCoef="0" IVar="-1" Cut="0.0000000000000000e+00" cType="1" res="6.1367256566882133e-03" rms="4.9023196101188660e-01" purity="5.8926385641098022e-01" nType="-99"/>
          <Node pos="r" depth="2" NCoef="0" IVar="-1" Cut="0.0000000000000000e+00" cType="1" res="-9.2334570363163948e-03" rms="5.0137013196945190e-01" purity="4.7202408313751221e-01" nType="-99"/>
        </Node>
        <Node pos="r" depth="1" NCoef="0" IVar="5" Cut="1.4849020242691040e+00" cType="1" res="-1.8531836569309235e-02" rms="4.9341943860054016e-01" purity="4.6334597468376160e-01" nType="0">
          <Node pos="l" depth="2" NCoef="0" IVar="-1" Cut="0.0000000000000000e+00" cType="1" res="-1.2763012200593948e-03" rms="4.9421733617782593e-01" purity="4.7257754206657410e-01" nType="-99"/>
          <Node pos="r" depth="2" NCoef="0" IVar="-1" Cut="0.0000000000000000e+00" cType="1" res="-1.1269954964518547e-02" rms="4.8118928074836731e-01" purity="3.7818515300750732e-01" nType="-99"/>
        </Node>
      </Node>
    </BinaryTree>
    <BinaryTree type="DecisionTree" boostWeight="1.0000000000000000e+00" itree="28">
      <Node pos="s" depth="0" NCoef="0" IVar="1" Cut="9.9896980285644531e+01" cType="0" res="-1.7855402547866106e-03" rms="4.9365627765655518e-01" purity="4.9814710021018982e-01" nType="0">
        <Node pos="l" depth="1" NCoef="0" IVar="7" Cut="-1.2564294338226318e+00" cType="0" res="4.4970296323299408e-02" rms="4.9092611670494080e-01" purity="5.6365627050399780e-01" nType="0">
          <Node pos="l" depth="2" NCoef="0" IVar="-1" Cut="0.0000000000000000e+00" cType="1" res="6.9933524355292320e-03" rms="4.9074405431747437e-01" purity="5.7565319538116455e-01" nType="-99"/>
          <Node pos="r" depth="2" NCoef="0" IVar="-1" Cut="0.0000000000000000e+00" cType="1" res="-3.2860497012734413e-03" rms="4.8653128743171692e-01" purity="4.9230533838272095e-01" nType="-99"/>
        </Node>
        <Node pos="r" depth="1" NCoef="0" IVar="4" Cut="-1.4854764938354492e+00" cType="0" res="-1.4722617343068123e-02" rms="4.9362742900848389e-01" purity="4.8002105951309204e-01" nType="0">
          <Node pos="l" depth="2" NCoef="0" IVar="-1" Cut="0.0000000000000000e+00" cType="1" res="-5.8944412739947438e-04" rms="4.9396523833274841e-01" purity="4.8826581239700317e-01" nType="-99"/>
          <Node pos="r" depth="2" NCoef="0" IVar="-1" Cut="0.0000000000000000e+00" cType="1" res="-1.0394241660833359e-02" rms="4.8161539435386658e-01" purity="3.9329415559768677e-01" nType="-99"/>
        </Node>
      </Node>
    </BinaryTree>
    <BinaryTree type="DecisionTree" boostWeight="1.0000000000000000e+00" itree="29">
      <Node pos="s" depth="0" NCoef="0" IVar="14" Cut="3.6607154846191406e+01" cType="0" res="3.8382101338356733e-03" rms="4.9362078309059143e-01" purity="5.0348454713821411e-01" nType="0">
        <Node pos="l" depth="1" NCoef="0" IVar="4" Cut="-1.9427256584167480e+00" cType="0" res="2.1837918087840080e-02" rms="4.9483025074005127e-01" purity="5.4247432947158813e-01" nType="0">
          <Node pos="l" depth="2" NCoef="0" IVar="-1" Cut="0.0000000000000000e+00" cType="1" res="2.6508870068937540e-03" rms="4.9455231428146362e-01" purity="5.4670000076293945e-01" nType="-99"/>
          <Node pos="r" depth="2" NCoef="0" IVar="-1" Cut="0.0000000000000000e+00" cType="1" res="-1.1157219298183918e-02" rms="4.8715564608573914e-01" purity="4.1669577360153198e-01" nType="-99"/>
        </Node>
        <Node pos="r" depth="1" NCoef="0" IVar="6" Cut="-5.7328265905380249e-01" cType="0" res="-2.7565049007534981e-02" rms="4.8992279171943665e-01" purity="4.3546086549758911e-01" nType="0">
          <Node pos="l" depth="2" NCoef="0" IVar="-1" Cut="0.0000000000000000e+00" cType="1" res="-2.1729366853833199e-03" rms="4.9334043264389038e-01" purity="4.5891863107681274e-01" nType="-99"/>
          <Node pos="r" depth="2" NCoef="0" IVar="-1" Cut="0.0000000000000000e+00" cType="1" res="-7.9355398193001747e-03" rms="4.7919741272926331e-01" purity="3.8711461424827576e-01" nType="-99"/>
        </Node>
      </Node>
    </BinaryTree>
    <BinaryTree type="DecisionTree" boostWeight="1.0000000000000000e+00" itree="30">
      <Node pos="s" depth="0" NCoef="0" IVar="8" Cut="1.9417506456375122e+00" cType="1" res="-4.2848776502069086e-05" rms="4.9340862035751343e-01" purity="4.9996662139892578e-01" nType="0">
        <Node pos="l" depth="1" NCoef="0" IVar="4" Cut="1.2562755346298218e+00" cType="1" res="5.0568068400025368e-03" rms="4.9332225322723389e-01" purity="5.0536882877349854e-01" nType="0">
          <Node pos="l" depth="2" NCoef="0" IVar="-1" Cut="0.0000000000000000e+00" cType="1" res="1.6566388076171279e-03" rms="4.9335691332817078e-01" purity="5.1739758253097534e-01" nType="-99"/>
          <Node pos="r" depth="2" NCoef="0" IVar="-1" Cut="0.0000000000000000e+00" cType="1" res="-7.3776021599769592e-03" rms="4.8865830898284912e-01" purity="4.2170870304107666e-01" nType="-99"/>
        </Node>
        <Node pos="r" depth="1" NCoef="0" IVar="4" Cut="3.4749650955200195e-01" cType="0" res="-1.0076075047254562e-01" rms="4.8422887921333313e-01" purity="3.9327284693717957e-01" nType="0">
          <Node pos="l" depth="2" NCoef="0" IVar="-1" Cut="0.0000000000000000e+00" cType="1" res="-4.8639047890901566e-03" rms="4.9085846543312073e-01" purity="4.3189689517021179e-01" nType="-99"/>
          <Node pos="r" depth="2" NCoef="0" IVar="-1" Cut="0.0000000000000000e+00" cType="1" res="-1.6960598528385162e-02" rms="4.7180876135826111e-01" purity="3.4925282001495361e-01" nType="-99"/>
        </Node>
      </Node>
    </BinaryTree>
    <BinaryTree type="DecisionTree" boostWeight="1.0000000000000000e+00" itree="31">
      <Node pos="s" depth="0" NCoef="0" IVar="4" Cut="-7.9750388860702515e-01" cType="0" res="-2.2969968267716467e-04" rms="4.9292114377021790e-01" purity="4.9973222613334656e-01" nType="0">
        <Node pos="l" depth="1" NCoef="0" IVar="12" Cut="6.5113708496093750e+01" cType="0" res="1.2268231250345707e-02" rms="4.9276354908943176e-01" purity="5.1221805810928345e-01" nType="0">
          <Node pos="l" depth="2" NCoef="0" IVar="-1" Cut="0.0000000000000000e+00" cType="1" res="3.6250613629817963e-03" rms="4.9172502756118774e-01" purity="5.7392877340316772e-01" nType="-99"/>
          <Node pos="r" depth="2" NCoef="0" IVar="-1" Cut="0.0000000000000000e+00" cType="1" res="-1.2651399010792375e-03" rms="4.9276652932167053e-01" purity="4.5205795764923096e-01" nType="-99"/>
        </Node>
        <Node pos="r" depth="1" NCoef="0" IVar="3" Cut="5.6094235181808472e-01" cType="1" res="-3.9423942565917969e-02" rms="4.9135768413543701e-01" purity="4.6057572960853577e-01" nType="0">
          <Node pos="l" depth="2" NCoef="0" IVar="-1" Cut="0.0000000000000000e+00" cType="1" res="4.6748112072236836e-04" rms="4.9361735582351685e-01" purity="4.9585813283920288e-01" nType="-99"/>
          <Node pos="r" depth="2" NCoef="0" IVar="-1" Cut="0.0000000000000000e+00" cType="1" res="-1.7637541517615318e-02" rms="4.6642369031906128e-01" purity="3.4591785073280334e-01" nType="-99"/>
        </Node>
      </Node>
    </BinaryTree>
    <BinaryTree type="DecisionTree" boostWeight="1.0000000000000000e+00" itree="32">
      <Node pos="s" depth="0" NCoef="0" IVar="7" Cut="-1.7135946750640869e+00" cType="0" res="1.2304812669754028e-02" rms="4.9272677302360535e-01" purity="5.1202732324600220e-01" nType="0">
        <Node pos="l" depth="1" NCoef="0" IVar="8" Cut="-1.4858834743499756e+00" cType="0" res="1.9558181986212730e-02" rms="4.9251025915145874e-01" purity="5.1991909742355347e-01" nType="0">
          <Node pos="l" depth="2" NCoef="0" IVar="-1" Cut="0.0000000000000000e+00" cType="1" res="1.7201923765242100e-03" rms="4.9224847555160522e-01" purity="5.2937984466552734e-01" nType="-99"/>
          <Node pos="r" depth="2" NCoef="0" IVar="-1" Cut="0.0000000000000000e+00" cType="1" res="-6.7619555629789829e-03" rms="4.8993238806724548e-01" purity="4.4712069630622864e-01" nType="-99"/>
        </Node>
        <Node pos="r" depth="1" NCoef="0" IVar="3" Cut="5.6223428249359131e-01" cType="1" res="-7.8607894480228424e-02" rms="4.8634237051010132e-01" purity="4.1311243176460266e-01" nType="0">
          <Node pos="l" depth="2" NCoef="0" IVar="-1" Cut="0.0000000000000000e+00" cType="1" res="-4.3899905867874622e-03" rms="4.9214339256286621e-01" purity="4.4897192716598511e-01" nType="-99"/>
          <Node pos="r" depth="2" NCoef="0" IVar="-1" Cut="0.0000000000000000e+00" cType="1" res="-2.7933096513152122e-02" rms="4.5070916414260864e-01" purity="2.9637771844863892e-01" nType="-99"/>
        </Node>
      </Node>
    </BinaryTree>
    <BinaryTree type="DecisionTree" boostWeight="1.0000000000000000e+00" itree="33">
      <Node pos="s" depth="0" NCoef="0" IVar="14" Cut="3.8754978179931641e+01" cType="0" res="1.4868851285427809e-03" rms="4.9226024746894836e-01" purity="5.0105804204940796e-01" nType="0">
        <Node pos="l" depth="1" NCoef="0" IVar="7" Cut="1.7143493890762329e+00" cType="1" res="2.3321801796555519e-02" rms="4.9273976683616638e-01" purity="5.5081659555435181e-01" nType="0">
          <Node pos="l" depth="2" NCoef="0" IVar="-1" Cut="0.0000000000000000e+00" cType="1" res="2.9121236875653267e-03" rms="4.9201676249504089e-01" purity="5.5775475502014160e-01" nType="-99"/>
          <Node pos="r" depth="2" NCoef="0" IVar="-1" Cut="0.0000000000000000e+00" cType="1" res="-5.2658733911812305e-03" rms="4.9413579702377319e-01" purity="4.5640566945075989e-01" nType="-99"/>
        </Node>
        <Node pos="r" depth="1" NCoef="0" IVar="6" Cut="-1.4847667217254639e+00" cType="0" res="-2.4658676236867905e-02" rms="4.9040806293487549e-01" purity="4.4147631525993347e-01" nType="0">
          <Node pos="l" depth="2" NCoef="0" IVar="-1" Cut="0.0000000000000000e+00" cType="1" res="-1.9937483593821526e-03" rms="4.9117675423622131e-01" purity="4.4938653707504272e-01" nType="-99"/>
          <Node pos="r" depth="2" NCoef="0" IVar="-1" Cut="0.0000000000000000e+00" cType="1" res="-1.0806982405483723e-02" rms="4.7882694005966187e-01" purity="3.7154445052146912e-01" nType="-99"/>
        </Node>
      </Node>
    </BinaryTree>
    <BinaryTree type="DecisionTree" boostWeight="1.0000000000000000e+00" itree="34">
      <Node pos="s" depth="0" NCoef="0" IVar="5" Cut="1.4824653863906860e+00" cType="1" res="2.5364102330058813e-03" rms="4.9311628937721252e-01" purity="5.0243121385574341e-01" nType="0">
        <Node pos="l" depth="1" NCoef="0" IVar="6" Cut="1.4847370386123657e+00" cType="1" res="8.3899907767772675e-03" rms="4.9344900250434875e-01" purity="5.1086461544036865e-01" nType="0">
          <Node pos="l" depth="2" NCoef="0" IVar="-1" Cut="0.0000000000000000e+00" cType="1" res="1.7915251664817333e-03" rms="4.9327564239501953e-01" purity="5.1888906955718994e-01" nType="-99"/>
          <Node pos="r" depth="2" NCoef="0" IVar="-1" Cut="0.0000000000000000e+00" cType="1" res="-8.8845165446400642e-03" rms="4.9155038595199585e-01" purity="4.3346405029296875e-01" nType="-99"/>
        </Node>
        <Node pos="r" depth="1" NCoef="0" IVar="7" Cut="-5.5366498231887817e-01" cType="0" res="-5.0277985632419586e-02" rms="4.8693275451660156e-01" purity="4.2634034156799316e-01" nType="0">
          <Node pos="l" depth="2" NCoef="0" IVar="-1" Cut="0.0000000000000000e+00" cType="1" res="-3.2543081324547529e-03" rms="4.9228170514106750e-01" purity="4.6081572771072388e-01" nType="-99"/>
          <Node pos="r" depth="2" NCoef="0" IVar="-1" Cut="0.0000000000000000e+00" cType="1" res="-2.1190932020545006e-02" rms="4.5731869339942932e-01" purity="3.1968158483505249e-01" nType="-99"/>
        </Node>
      </Node>
    </BinaryTree>
    <BinaryTree type="DecisionTree" boostWeight="1.0000000000000000e+00" itree="35">
      <Node pos="s" depth="0" NCoef="0" IVar="10" Cut="8.3448486328125000e+01" cType="0" res="6.8213278427720070e-04" rms="4.9178996682167053e-01" purity="5.0133591890335083e-01" nType="0">
        <Node pos="l" depth="1" NCoef="0" IVar="4" Cut="1.2573170661926270e+00" cType="1" res="1.6258439049124718e-02" rms="4.9355787038803101e-01" purity="5.3519147634506226e-01" nType="0">
          <Node pos="l" depth="2" NCoef="0" IVar="-1" Cut="0.0000000000000000e+00" cType="1" res="2.6240232400596142e-03" rms="4.9294856190681458e-01" purity="5.4596430063247681e-01" nType="-99"/>
          <Node pos="r" depth="2" NCoef="0" IVar="-1" Cut="0.0000000000000000e+00" cType="1" res="-5.2700508385896683e-03" rms="4.9506253004074097e-01" purity="4.5976758003234863e-01" nType="-99"/>
        </Node>
        <Node pos="r" depth="1" NCoef="0" IVar="4" Cut="-1.0189694166183472e+00" cType="0" res="-4.7620087862014771e-02" rms="4.8308384418487549e-01" purity="3.9634966850280762e-01" nType="0">
          <Node pos="l" depth="2" NCoef="0" IVar="-1" Cut="0.0000000000000000e+00" cType="1" res="-3.5271227825433016e-03" rms="4.8655056953430176e-01" purity="4.1423040628433228e-01" nType="-99"/>
          <Node pos="r" depth="2" NCoef="0" IVar="-1" Cut="0.0000000000000000e+00" cType="1" res="-1.0368602350354195e-02" rms="4.6017146110534668e-01" purity="3.1838670372962952e-01" nType="-99"/>
        </Node>
      </Node>
    </BinaryTree>
    <BinaryTree type="DecisionTree" boostWeight="1.0000000000000000e+00" itree="36">
      <Node pos="s" depth="0" NCoef="0" IVar="3" Cut="1.7134810686111450e+00" cType="1" res="4.7432752326130867e-03" rms="4.9249690771102905e-01" purity="5.0468158721923828e-01" nType="0">
        <Node pos="l" depth="1" NCoef="0" IVar="12" Cut="4.6252830505371094e+01" cType="0" res="1.0514360852539539e-02" rms="4.9253290891647339e-01" purity="5.1148539781570435e-01" nType="0">
          <Node pos="l" depth="2" NCoef="0" IVar="-1" Cut="0.0000000000000000e+00" cType="1" res="1.5461939619854093e-03" rms="4.9422359466552734e-01" purity="5.3501385450363159e-01" nType="-99"/>
          <Node pos="r" depth="2" NCoef="0" IVar="-1" Cut="0.0000000000000000e+00" cType="1" res="-4.7898991033434868e-03" rms="4.7900637984275818e-01" purity="3.6806809902191162e-01" nType="-99"/>
        </Node>
        <Node pos="r" depth="1" NCoef="0" IVar="0" Cut="4.9848395586013794e-01" cType="0" res="-8.8389702141284943e-02" rms="4.8246186971664429e-01" purity="3.9488273859024048e-01" nType="0">
          <Node pos="l" depth="2" NCoef="0" IVar="-1" Cut="0.0000000000000000e+00" cType="1" res="-3.9578718133270741e-03" rms="4.9108120799064636e-01" purity="4.6943858265876770e-01" nType="-99"/>
          <Node pos="r" depth="2" NCoef="0" IVar="-1" Cut="0.0000000000000000e+00" cType="1" res="-1.6848331317305565e-02" rms="4.6885237097740173e-01" purity="3.4126311540603638e-01" nType="-99"/>
        </Node>
      </Node>
    </BinaryTree>
    <BinaryTree type="DecisionTree" boostWeight="1.0000000000000000e+00" itree="37">
      <Node pos="s" depth="0" NCoef="0" IVar="3" Cut="-1.7141098976135254e+00" cType="0" res="2.3253781255334616e-03" rms="4.9276736378669739e-01" purity="5.0233560800552368e-01" nType="0">
        <Node pos="l" depth="1" NCoef="0" IVar="5" Cut="-7.9972481727600098e-01" cType="0" res="7.3883347213268280e-03" rms="4.9292394518852234e-01" purity="5.0817179679870605e-01" nType="0">
          <Node pos="l" depth="2" NCoef="0" IVar="-1" Cut="0.0000000000000000e+00" cType="1" res="1.9019223982468247e-03" rms="4.9266362190246582e-01" purity="5.2029365301132202e-01" nType="-99"/>
          <Node pos="r" depth="2" NCoef="0" IVar="-1" Cut="0.0000000000000000e+00" cType="1" res="-3.1522305216640234e-03" rms="4.9171078205108643e-01" purity="4.6773964166641235e-01" nType="-99"/>
        </Node>
        <Node pos="r" depth="1" NCoef="0" IVar="5" Cut="3.5065379738807678e-01" cType="1" res="-8.2272648811340332e-02" rms="4.8234382271766663e-01" purity="4.0481770038604736e-01" nType="0">
          <Node pos="l" depth="2" NCoef="0" IVar="-1" Cut="0.0000000000000000e+00" cType="1" res="-6.2794405966997147e-03" rms="4.9103945493698120e-01" purity="4.5335230231285095e-01" nType="-99"/>
          <Node pos="r" depth="2" NCoef="0" IVar="-1" Cut="0.0000000000000000e+00" cType="1" res="-2.6105213910341263e-02" rms="4.4164922833442688e-01" purity="2.8649812936782837e-01" nType="-99"/>
        </Node>
      </Node>
    </BinaryTree>
    <BinaryTree type="DecisionTree" boostWeight="1.0000000000000000e+00" itree="38">
      <Node pos="s" depth="0" NCoef="0" IVar="11" Cut="9.3004798889160156e+01" cType="0" res="-1.0114676551893353e-03" rms="4.9261781573295593e-01" purity="4.9959275126457214e-01" nType="0">
        <Node pos="l" depth="1" NCoef="0" IVar="16" Cut="-2.2439227104187012e+00" cType="0" res="2.3795889690518379e-02" rms="4.9206027388572693e-01" purity="5.6525075435638428e-01" nType="0">
          <Node pos="l" depth="2" NCoef="0" IVar="-1" Cut="0.0000000000000000e+00" cType="1" res="3.1925605144351721e-03" rms="4.9042603373527527e-01" purity="5.7524174451828003e-01" nType="-99"/>
          <Node pos="r" depth="2" NCoef="0" IVar="-1" Cut="0.0000000000000000e+00" cType="1" res="-1.4619724242947996e-04" rms="4.9743834137916565e-01" purity="5.0920945405960083e-01" nType="-99"/>
        </Node>
        <Node pos="r" depth="1" NCoef="0" IVar="1" Cut="1.0390025329589844e+02" cType="0" res="-1.6413448378443718e-02" rms="4.9233511090278625e-01" purity="4.5882806181907654e-01" nType="0">
          <Node pos="l" depth="2" NCoef="0" IVar="-1" Cut="0.0000000000000000e+00" cType="1" res="5.8436421677470207e-03" rms="4.9512532353401184e-01" purity="5.3258198499679565e-01" nType="-99"/>
          <Node pos="r" depth="2" NCoef="0" IVar="-1" Cut="0.0000000000000000e+00" cType="1" res="-2.9735043644905090e-03" rms="4.9118912220001221e-01" purity="4.4526386260986328e-01" nType="-99"/>
        </Node>
      </Node>
    </BinaryTree>
    <BinaryTree type="DecisionTree" boostWeight="1.0000000000000000e+00" itree="39">
      <Node pos="s" depth="0" NCoef="0" IVar="7" Cut="-1.2565290927886963e+00" cType="0" res="-7.5986357405781746e-03" rms="4.9238723516464233e-01" purity="4.9314591288566589e-01" nType="0">
        <Node pos="l" depth="1" NCoef="0" IVar="5" Cut="-1.2557482719421387e+00" cType="0" res="8.4685522597283125e-04" rms="4.9274262785911560e-01" purity="5.0303006172180176e-01" nType="0">
          <Node pos="l" depth="2" NCoef="0" IVar="-1" Cut="0.0000000000000000e+00" cType="1" res="2.1329564042389393e-03" rms="4.9274227023124695e-01" purity="5.1188868284225464e-01" nType="-99"/>
          <Node pos="r" depth="2" NCoef="0" IVar="-1" Cut="0.0000000000000000e+00" cType="1" res="-7.0581738837063313e-03" rms="4.8868414759635925e-01" purity="4.3550604581832886e-01" nType="-99"/>
        </Node>
        <Node pos="r" depth="1" NCoef="0" IVar="24" Cut="1.4301065444946289e+01" cType="0" res="-5.5887352675199509e-02" rms="4.8754870891571045e-01" purity="4.3663114309310913e-01" nType="0">
          <Node pos="l" depth="2" NCoef="0" IVar="-1" Cut="0.0000000000000000e+00" cType="1" res="2.4011491332203150e-03" rms="4.8327955603599548e-01" purity="5.9899955987930298e-01" nType="-99"/>
          <Node pos="r" depth="2" NCoef="0" IVar="-1" Cut="0.0000000000000000e+00" cType="1" res="-6.9275642745196819e-03" rms="4.8637166619300842e-01" purity="4.1748067736625671e-01" nType="-99"/>
        </Node>
      </Node>
    </BinaryTree>
    <BinaryTree type="DecisionTree" boostWeight="1.0000000000000000e+00" itree="40">
      <Node pos="s" depth="0" NCoef="0" IVar="4" Cut="1.4856176376342773e+00" cType="1" res="2.2137826308608055e-03" rms="4.9242234230041504e-01" purity="5.0189876556396484e-01" nType="0">
        <Node pos="l" depth="1" NCoef="0" IVar="4" Cut="-7.3467683792114258e-01" cType="0" res="8.4535041823983192e-03" rms="4.9248936772346497e-01" purity="5.1123529672622681e-01" nType="0">
          <Node pos="l" depth="2" NCoef="0" IVar="-1" Cut="0.0000000000000000e+00" cType="1" res="1.8112522084265947e-03" rms="4.9208256602287292e-01" purity="5.2696812152862549e-01" nType="-99"/>
          <Node pos="r" depth="2" NCoef="0" IVar="-1" Cut="0.0000000000000000e+00" cType="1" res="-2.4448460899293423e-03" rms="4.9185013771057129e-01" purity="4.7111412882804871e-01" nType="-99"/>
        </Node>
        <Node pos="r" depth="1" NCoef="0" IVar="5" Cut="-1.1565910279750824e-01" cType="0" res="-6.2195356935262680e-02" rms="4.8708102107048035e-01" purity="4.0552258491516113e-01" nType="0">
          <Node pos="l" depth="2" NCoef="0" IVar="-1" Cut="0.0000000000000000e+00" cType="1" res="-1.2348335003480315e-03" rms="4.9511680006980896e-01" purity="4.5667892694473267e-01" nType="-99"/>
          <Node pos="r" depth="2" NCoef="0" IVar="-1" Cut="0.0000000000000000e+00" cType="1" res="-1.5901280567049980e-02" rms="4.5581299066543579e-01" purity="3.0972570180892944e-01" nType="-99"/>
        </Node>
      </Node>
    </BinaryTree>
    <BinaryTree type="DecisionTree" boostWeight="1.0000000000000000e+00" itree="41">
      <Node pos="s" depth="0" NCoef="0" IVar="4" Cut="-1.0281229019165039e+00" cType="0" res="-8.3159403875470161e-03" rms="4.9275100231170654e-01" purity="4.9130672216415405e-01" nType="0">
        <Node pos="l" depth="1" NCoef="0" IVar="3" Cut="-1.7142466306686401e+00" cType="0" res="1.6803330508992076e-03" rms="4.9277478456497192e-01" purity="5.0203979015350342e-01" nType="0">
          <Node pos="l" depth="2" NCoef="0" IVar="-1" Cut="0.0000000000000000e+00" cType="1" res="1.8273434834554791e-03" rms="4.9281471967697144e-01" purity="5.0861638784408569e-01" nType="-99"/>
          <Node pos="r" depth="2" NCoef="0" IVar="-1" Cut="0.0000000000000000e+00" cType="1" res="-1.4186332933604717e-02" rms="4.8379951715469360e-01" purity="3.9295595884323120e-01" nType="-99"/>
        </Node>
        <Node pos="r" depth="1" NCoef="0" IVar="8" Cut="3.4092107415199280e-01" cType="1" res="-5.5954154580831528e-02" rms="4.8984310030937195e-01" purity="4.4015705585479736e-01" nType="0">
          <Node pos="l" depth="2" NCoef="0" IVar="-1" Cut="0.0000000000000000e+00" cType="1" res="1.5924882609397173e-04" rms="4.9387770891189575e-01" purity="4.7371235489845276e-01" nType="-99"/>
          <Node pos="r" depth="2" NCoef="0" IVar="-1" Cut="0.0000000000000000e+00" cType="1" res="-1.6242165118455887e-02" rms="4.7142267227172852e-01" purity="3.6354777216911316e-01" nType="-99"/>
        </Node>
      </Node>
    </BinaryTree>
    <BinaryTree type="DecisionTree" boostWeight="1.0000000000000000e+00" itree="42">
      <Node pos="s" depth="0" NCoef="0" IVar="4" Cut="-1.7119371891021729e+00" cType="0" res="4.4999243691563606e-03" rms="4.9256095290184021e-01" purity="5.0417327880859375e-01" nType="0">
        <Node pos="l" depth="1" NCoef="0" IVar="14" Cut="4.6479602813720703e+01" cType="0" res="8.9175458997488022e-03" rms="4.9242216348648071e-01" purity="5.0941932201385498e-01" nType="0">
          <Node pos="l" depth="2" NCoef="0" IVar="-1" Cut="0.0000000000000000e+00" cType="1" res="4.4755567796528339e-03" rms="4.9070212244987488e-01" purity="5.8502149581909180e-01" nType="-99"/>
          <Node pos="r" depth="2" NCoef="0" IVar="-1" Cut="0.0000000000000000e+00" cType="1" res="-1.2574380962178111e-03" rms="4.9268019199371338e-01" purity="4.7601190209388733e-01" nType="-99"/>
        </Node>
        <Node pos="r" depth="1" NCoef="0" IVar="0" Cut="-5.2559792995452881e-01" cType="1" res="-6.8912431597709656e-02" rms="4.8905453085899353e-01" purity="4.1699358820915222e-01" nType="0">
          <Node pos="l" depth="2" NCoef="0" IVar="-1" Cut="0.0000000000000000e+00" cType="1" res="-5.9955421602353454e-04" rms="4.9931389093399048e-01" purity="4.7946673631668091e-01" nType="-99"/>
          <Node pos="r" depth="2" NCoef="0" IVar="-1" Cut="0.0000000000000000e+00" cType="1" res="-1.5234461054205894e-02" rms="4.7392860054969788e-01" purity="3.6503890156745911e-01" nType="-99"/>
        </Node>
      </Node>
    </BinaryTree>
    <BinaryTree type="DecisionTree" boostWeight="1.0000000000000000e+00" itree="43">
      <Node pos="s" depth="0" NCoef="0" IVar="8" Cut="-1.7134160995483398e+00" cType="0" res="4.2245239019393921e-03" rms="4.9198755621910095e-01" purity="5.0449091196060181e-01" nType="0">
        <Node pos="l" depth="1" NCoef="0" IVar="7" Cut="-1.7114210128784180e+00" cType="0" res="1.3548907823860645e-02" rms="4.9193421006202698e-01" purity="5.1510107517242432e-01" nType="0">
          <Node pos="l" depth="2" NCoef="0" IVar="-1" Cut="0.0000000000000000e+00" cType="1" res="1.3119399081915617e-03" rms="4.9181270599365234e-01" purity="5.2217239141464233e-01" nType="-99"/>
          <Node pos="r" depth="2" NCoef="0" IVar="-1" Cut="0.0000000000000000e+00" cType="1" res="-8.3395736292004585e-03" rms="4.8687165975570679e-01" purity="4.2248743772506714e-01" nType="-99"/>
        </Node>
        <Node pos="r" depth="1" NCoef="0" IVar="7" Cut="3.3734029531478882e-01" cType="1" res="-1.0216435790061951e-01" rms="4.7993776202201843e-01" purity="3.8343206048011780e-01" nType="0">
          <Node pos="l" depth="2" NCoef="0" IVar="-1" Cut="0.0000000000000000e+00" cType="1" res="-2.3563052527606487e-03" rms="4.8687657713890076e-01" purity="4.2121776938438416e-01" nType="-99"/>
          <Node pos="r" depth="2" NCoef="0" IVar="-1" Cut="0.0000000000000000e+00" cType="1" res="-1.7846368253231049e-02" rms="4.5411103963851929e-01" purity="3.0072468519210815e-01" nType="-99"/>
        </Node>
      </Node>
    </BinaryTree>
    <BinaryTree type="DecisionTree" boostWeight="1.0000000000000000e+00" itree="44">
      <Node pos="s" depth="0" NCoef="0" IVar="12" Cut="7.3934951782226562e+01" cType="0" res="1.7772662686184049e-03" rms="4.9140587449073792e-01" purity="5.0157576799392700e-01" nType="0">
        <Node pos="l" depth="1" NCoef="0" IVar="16" Cut="-2.5413637161254883e+00" cType="0" res="3.2502982765436172e-02" rms="4.9045521020889282e-01" purity="5.8216536045074463e-01" nType="0">
          <Node pos="l" depth="2" NCoef="0" IVar="-1" Cut="0.0000000000000000e+00" cType="1" res="3.2155942171812057e-03" rms="4.8929390311241150e-01" purity="5.8984559774398804e-01" nType="-99"/>
          <Node pos="r" depth="2" NCoef="0" IVar="-1" Cut="0.0000000000000000e+00" cType="1" res="-9.6203235443681479e-04" rms="4.9591240286827087e-01" purity="5.0652074813842773e-01" nType="-99"/>
        </Node>
        <Node pos="r" depth="1" NCoef="0" IVar="14" Cut="4.6757865905761719e+01" cType="0" res="-1.4943325892090797e-02" rms="4.9111539125442505e-01" purity="4.5771992206573486e-01" nType="0">
          <Node pos="l" depth="2" NCoef="0" IVar="-1" Cut="0.0000000000000000e+00" cType="1" res="4.4623808935284615e-03" rms="4.9304002523422241e-01" purity="5.6751835346221924e-01" nType="-99"/>
          <Node pos="r" depth="2" NCoef="0" IVar="-1" Cut="0.0000000000000000e+00" cType="1" res="-2.5569216813892126e-03" rms="4.9023082852363586e-01" purity="4.3961957097053528e-01" nType="-99"/>
        </Node>
      </Node>
    </BinaryTree>
    <BinaryTree type="DecisionTree" boostWeight="1.0000000000000000e+00" itree="45">
      <Node pos="s" depth="0" NCoef="0" IVar="7" Cut="-1.0286118984222412e+00" cType="0" res="-1.8085100455209613e-03" rms="4.9251794815063477e-01" purity="4.9716278910636902e-01" nType="0">
        <Node pos="l" depth="1" NCoef="0" IVar="7" Cut="1.5835150480270386e+00" cType="1" res="7.1798763237893581e-03" rms="4.9317136406898499e-01" purity="5.0935614109039307e-01" nType="0">
          <Node pos="l" depth="2" NCoef="0" IVar="-1" Cut="0.0000000000000000e+00" cType="1" res="1.7746442463248968e-03" rms="4.9297088384628296e-01" purity="5.1927447319030762e-01" nType="-99"/>
          <Node pos="r" depth="2" NCoef="0" IVar="-1" Cut="0.0000000000000000e+00" cType="1" res="-5.5663343518972397e-03" rms="4.9012815952301025e-01" purity="4.3700897693634033e-01" nType="-99"/>
        </Node>
        <Node pos="r" depth="1" NCoef="0" IVar="3" Cut="5.7155334949493408e-01" cType="1" res="-3.7712924182415009e-02" rms="4.8825129866600037e-01" purity="4.4845584034919739e-01" nType="0">
          <Node pos="l" depth="2" NCoef="0" IVar="-1" Cut="0.0000000000000000e+00" cType="1" res="2.5399946025572717e-04" rms="4.9041041731834412e-01" purity="4.7619920969009399e-01" nType="-99"/>
          <Node pos="r" depth="2" NCoef="0" IVar="-1" Cut="0.0000000000000000e+00" cType="1" res="-1.7486019060015678e-02" rms="4.7172504663467407e-01" purity="3.5594108700752258e-01" nType="-99"/>
        </Node>
      </Node>
    </BinaryTree>
    <BinaryTree type="DecisionTree" boostWeight="1.0000000000000000e+00" itree="46">
      <Node pos="s" depth="0" NCoef="0" IVar="7" Cut="-1.2566412687301636e+00" cType="0" res="-2.1430558990687132e-03" rms="4.9209448695182800e-01" purity="4.9771791696548462e-01" nType="0">
        <Node pos="l" depth="1" NCoef="0" IVar="4" Cut="-1.7131432294845581e+00" cType="0" res="5.3180344402790070e-03" rms="4.9248290061950684e-01" purity="5.0812119245529175e-01" nType="0">
          <Node pos="l" depth="2" NCoef="0" IVar="-1" Cut="0.0000000000000000e+00" cType="1" res="1.3284771703183651e-03" rms="4.9243032932281494e-01" purity="5.1372975111007690e-01" nType="-99"/>
          <Node pos="r" depth="2" NCoef="0" IVar="-1" Cut="0.0000000000000000e+00" cType="1" res="-8.7852953001856804e-03" rms="4.8518499732017517e-01" purity="4.0137657523155212e-01" nType="-99"/>
        </Node>
        <Node pos="r" depth="1" NCoef="0" IVar="6" Cut="-1.1538419127464294e-01" cType="1" res="-4.4916853308677673e-02" rms="4.8766365647315979e-01" purity="4.3807670474052429e-01" nType="0">
          <Node pos="l" depth="2" NCoef="0" IVar="-1" Cut="0.0000000000000000e+00" cType="1" res="7.7058345777913928e-04" rms="4.9370735883712769e-01" purity="4.9008142948150635e-01" nType="-99"/>
          <Node pos="r" depth="2" NCoef="0" IVar="-1" Cut="0.0000000000000000e+00" cType="1" res="-1.2306413613259792e-02" rms="4.7146430611610413e-01" purity="3.6501213908195496e-01" nType="-99"/>
        </Node>
      </Node>
    </BinaryTree>
    <BinaryTree type="DecisionTree" boostWeight="1.0000000000000000e+00" itree="47">
      <Node pos="s" depth="0" NCoef="0" IVar="1" Cut="1.1025751495361328e+02" cType="0" res="6.3232691027224064e-03" rms="4.9182119965553284e-01" purity="5.0551080703735352e-01" nType="0">
        <Node pos="l" depth="1" NCoef="0" IVar="8" Cut="-1.2553300857543945e+00" cType="0" res="4.8874035477638245e-02" rms="4.8850709199905396e-01" purity="5.7530188560485840e-01" nType="0">
          <Node pos="l" depth="2" NCoef="0" IVar="-1" Cut="0.0000000000000000e+00" cType="1" res="6.7405775189399719e-03" rms="4.8606583476066589e-01" purity="5.9208035469055176e-01" nType="-99"/>
          <Node pos="r" depth="2" NCoef="0" IVar="-1" Cut="0.0000000000000000e+00" cType="1" res="-5.7345232926309109e-04" rms="4.9381428956985474e-01" purity="4.8202428221702576e-01" nType="-99"/>
        </Node>
        <Node pos="r" depth="1" NCoef="0" IVar="1" Cut="4.1235866546630859e+01" cType="0" res="-2.3777757305651903e-03" rms="4.9204319715499878e-01" purity="4.9123948812484741e-01" nType="0">
          <Node pos="l" depth="2" NCoef="0" IVar="-1" Cut="0.0000000000000000e+00" cType="1" res="-1.5561918553430587e-04" rms="4.9251222610473633e-01" purity="5.0675636529922485e-01" nType="-99"/>
          <Node pos="r" depth="2" NCoef="0" IVar="-1" Cut="0.0000000000000000e+00" cType="1" res="-3.7880826275795698e-03" rms="4.8904082179069519e-01" purity="4.4963705539703369e-01" nType="-99"/>
        </Node>
      </Node>
    </BinaryTree>
    <BinaryTree type="DecisionTree" boostWeight="1.0000000000000000e+00" itree="48">
      <Node pos="s" depth="0" NCoef="0" IVar="10" Cut="6.8466751098632812e+01" cType="0" res="2.2280367556959391e-03" rms="4.9096137285232544e-01" purity="5.0227314233779907e-01" nType="0">
        <Node pos="l" depth="1" NCoef="0" IVar="3" Cut="-1.4854924678802490e+00" cType="0" res="9.6610412001609802e-03" rms="4.9274057149887085e-01" purity="5.2060765027999878e-01" nType="0">
          <Node pos="l" depth="2" NCoef="0" IVar="-1" Cut="0.0000000000000000e+00" cType="1" res="1.4860611408948898e-03" rms="4.9265411496162415e-01" purity="5.2797281742095947e-01" nType="-99"/>
          <Node pos="r" depth="2" NCoef="0" IVar="-1" Cut="0.0000000000000000e+00" cType="1" res="-6.5779937431216240e-03" rms="4.8959240317344666e-01" purity="4.4170522689819336e-01" nType="-99"/>
        </Node>
        <Node pos="r" depth="1" NCoef="0" IVar="12" Cut="4.1762123107910156e+01" cType="0" res="-5.8470528572797775e-02" rms="4.7182148694992065e-01" purity="3.5255187749862671e-01" nType="0">
          <Node pos="l" depth="2" NCoef="0" IVar="-1" Cut="0.0000000000000000e+00" cType="1" res="-3.8728201761841774e-03" rms="4.8482212424278259e-01" purity="3.9319434762001038e-01" nType="-99"/>
          <Node pos="r" depth="2" NCoef="0" IVar="-1" Cut="0.0000000000000000e+00" cType="1" res="-1.2773428112268448e-02" rms="4.2754206061363220e-01" purity="2.4538205564022064e-01" nType="-99"/>
        </Node>
      </Node>
    </BinaryTree>
    <BinaryTree type="DecisionTree" boostWeight="1.0000000000000000e+00" itree="49">
      <Node pos="s" depth="0" NCoef="0" IVar="3" Cut="1.7134810686111450e+00" cType="1" res="6.0921013355255127e-03" rms="4.9210539460182190e-01" purity="5.0698834657669067e-01" nType="0">
        <Node pos="l" depth="1" NCoef="0" IVar="5" Cut="1.0291082859039307e+00" cType="1" res="1.1355942115187645e-02" rms="4.9229955673217773e-01" purity="5.1353895664215088e-01" nType="0">
          <Node pos="l" depth="2" NCoef="0" IVar="-1" Cut="0.0000000000000000e+00" cType="1" res="1.9474044675007463e-03" rms="4.9223041534423828e-01" purity="5.2539485692977905e-01" nType="-99"/>
          <Node pos="r" depth="2" NCoef="0" IVar="-1" Cut="0.0000000000000000e+00" cType="1" res="-5.3506144322454929e-03" rms="4.9054494500160217e-01" purity="4.6036311984062195e-01" nType="-99"/>
        </Node>
        <Node pos="r" depth="1" NCoef="0" IVar="5" Cut="1.1222839355468750e-01" cType="0" res="-8.0489128828048706e-02" rms="4.8069965839385986e-01" purity="3.9924183487892151e-01" nType="0">
          <Node pos="l" depth="2" NCoef="0" IVar="-1" Cut="0.0000000000000000e+00" cType="1" res="-2.0517499651759863e-03" rms="4.9111986160278320e-01" purity="4.5126852393150330e-01" nType="-99"/>
          <Node pos="r" depth="2" NCoef="0" IVar="-1" Cut="0.0000000000000000e+00" cType="1" res="-2.1976815536618233e-02" rms="4.5329508185386658e-01" purity="3.2203096151351929e-01" nType="-99"/>
        </Node>
      </Node>
    </BinaryTree>
    <BinaryTree type="DecisionTree" boostWeight="1.0000000000000000e+00" itree="50">
      <Node pos="s" depth="0" NCoef="0" IVar="3" Cut="-1.7140961885452271e+00" cType="0" res="2.4654609151184559e-03" rms="4.9187073111534119e-01" purity="5.0230902433395386e-01" nType="0">
        <Node pos="l" depth="1" NCoef="0" IVar="6" Cut="1.9403811693191528e+00" cType="1" res="8.0680297687649727e-03" rms="4.9209779500961304e-01" purity="5.0949287414550781e-01" nType="0">
          <Node pos="l" depth="2" NCoef="0" IVar="-1" Cut="0.0000000000000000e+00" cType="1" res="9.6795067656785250e-04" rms="4.9233493208885193e-01" purity="5.1463973522186279e-01" nType="-99"/>
          <Node pos="r" depth="2" NCoef="0" IVar="-1" Cut="0.0000000000000000e+00" cType="1" res="-9.6769900992512703e-03" rms="4.7717374563217163e-01" purity="3.8346078991889954e-01" nType="-99"/>
        </Node>
        <Node pos="r" depth="1" NCoef="0" IVar="11" Cut="1.0222297668457031e+02" cType="0" res="-8.9453347027301788e-02" rms="4.7886049747467041e-01" purity="3.8444700837135315e-01" nType="0">
          <Node pos="l" depth="2" NCoef="0" IVar="-1" Cut="0.0000000000000000e+00" cType="1" res="-2.5282604619860649e-03" rms="4.9873048067092896e-01" purity="5.3333044052124023e-01" nType="-99"/>
          <Node pos="r" depth="2" NCoef="0" IVar="-1" Cut="0.0000000000000000e+00" cType="1" res="-1.1495281942188740e-02" rms="4.6028363704681396e-01" purity="3.1348145008087158e-01" nType="-99"/>
        </Node>
      </Node>
    </BinaryTree>
    <BinaryTree type="DecisionTree" boostWeight="1.0000000000000000e+00" itree="51">
      <Node pos="s" depth="0" NCoef="0" IVar="5" Cut="1.2562720775604248e+00" cType="1" res="-5.0448360852897167e-03" rms="4.9190130829811096e-01" purity="4.9490740895271301e-01" nType="0">
        <Node pos="l" depth="1" NCoef="0" IVar="4" Cut="1.0288203954696655e+00" cType="1" res="2.9538092203438282e-03" rms="4.9223011732101440e-01" purity="5.0641191005706787e-01" nType="0">
          <Node pos="l" depth="2" NCoef="0" IVar="-1" Cut="0.0000000000000000e+00" cType="1" res="2.2243249695748091e-03" rms="4.9185368418693542e-01" purity="5.2032059431076050e-01" nType="-99"/>
          <Node pos="r" depth="2" NCoef="0" IVar="-1" Cut="0.0000000000000000e+00" cType="1" res="-5.8716819621622562e-03" rms="4.9109622836112976e-01" purity="4.3743693828582764e-01" nType="-99"/>
        </Node>
        <Node pos="r" depth="1" NCoef="0" IVar="7" Cut="3.4821790456771851e-01" cType="0" res="-5.2589643746614456e-02" rms="4.8723971843719482e-01" purity="4.2652302980422974e-01" nType="0">
          <Node pos="l" depth="2" NCoef="0" IVar="-1" Cut="0.0000000000000000e+00" cType="1" res="1.3103460660204291e-03" rms="4.9400058388710022e-01" purity="4.8059934377670288e-01" nType="-99"/>
          <Node pos="r" depth="2" NCoef="0" IVar="-1" Cut="0.0000000000000000e+00" cType="1" res="-1.3056858442723751e-02" rms="4.7322767972946167e-01" purity="3.6669316887855530e-01" nType="-99"/>
        </Node>
      </Node>
    </BinaryTree>
    <BinaryTree type="DecisionTree" boostWeight="1.0000000000000000e+00" itree="52">
      <Node pos="s" depth="0" NCoef="0" IVar="6" Cut="1.2562354803085327e+00" cType="1" res="-1.7708658706396818e-03" rms="4.9070322513580322e-01" purity="4.9758097529411316e-01" nType="0">
        <Node pos="l" depth="1" NCoef="0" IVar="3" Cut="7.9946047067642212e-01" cType="1" res="5.8584450744092464e-03" rms="4.9083054065704346e-01" purity="5.0823789834976196e-01" nType="0">
          <Node pos="l" depth="2" NCoef="0" IVar="-1" Cut="0.0000000000000000e+00" cType="1" res="2.0766984671354294e-03" rms="4.9054068326950073e-01" purity="5.2336239814758301e-01" nType="-99"/>
          <Node pos="r" depth="2" NCoef="0" IVar="-1" Cut="0.0000000000000000e+00" cType="1" res="-3.9161001332104206e-03" rms="4.8898571729660034e-01" purity="4.5627069473266602e-01" nType="-99"/>
        </Node>
        <Node pos="r" depth="1" NCoef="0" IVar="3" Cut="3.3401533961296082e-01" cType="0" res="-4.9809001386165619e-02" rms="4.8716384172439575e-01" purity="4.3047982454299927e-01" nType="0">
          <Node pos="l" depth="2" NCoef="0" IVar="-1" Cut="0.0000000000000000e+00" cType="1" res="2.7174938004463911e-03" rms="4.9216124415397644e-01" purity="4.9079927802085876e-01" nType="-99"/>
          <Node pos="r" depth="2" NCoef="0" IVar="-1" Cut="0.0000000000000000e+00" cType="1" res="-1.2654788792133331e-02" rms="4.7294586896896362e-01" purity="3.6717879772186279e-01" nType="-99"/>
        </Node>
      </Node>
    </BinaryTree>
    <BinaryTree type="DecisionTree" boostWeight="1.0000000000000000e+00" itree="53">
      <Node pos="s" depth="0" NCoef="0" IVar="8" Cut="-1.7138639688491821e+00" cType="0" res="-4.7819637693464756e-03" rms="4.9111661314964294e-01" purity="4.9594873189926147e-01" nType="0">
        <Node pos="l" depth="1" NCoef="0" IVar="7" Cut="-1.0278478860855103e+00" cType="0" res="4.7918132622726262e-04" rms="4.9130895733833313e-01" purity="5.0291550159454346e-01" nType="0">
          <Node pos="l" depth="2" NCoef="0" IVar="-1" Cut="0.0000000000000000e+00" cType="1" res="1.4394012978300452e-03" rms="4.9188303947448730e-01" purity="5.1615864038467407e-01" nType="-99"/>
          <Node pos="r" depth="2" NCoef="0" IVar="-1" Cut="0.0000000000000000e+00" cType="1" res="-3.0082887969911098e-03" rms="4.8673871159553528e-01" purity="4.4515627622604370e-01" nType="-99"/>
        </Node>
        <Node pos="r" depth="1" NCoef="0" IVar="17" Cut="-7.4367958307266235e-01" cType="1" res="-6.6910199820995331e-02" rms="4.8453822731971741e-01" purity="4.1367873549461365e-01" nType="0">
          <Node pos="l" depth="2" NCoef="0" IVar="-1" Cut="0.0000000000000000e+00" cType="1" res="-9.2792941723018885e-04" rms="4.9142622947692871e-01" purity="4.7716107964515686e-01" nType="-99"/>
          <Node pos="r" depth="2" NCoef="0" IVar="-1" Cut="0.0000000000000000e+00" cType="1" res="-9.6865864470601082e-03" rms="4.7464585304260254e-01" purity="3.6946746706962585e-01" nType="-99"/>
        </Node>
      </Node>
    </BinaryTree>
    <BinaryTree type="DecisionTree" boostWeight="1.0000000000000000e+00" itree="54">
      <Node pos="s" depth="0" NCoef="0" IVar="1" Cut="1.3904119873046875e+02" cType="0" res="-8.4833760047331452e-04" rms="4.9151864647865295e-01" purity="4.9959814548492432e-01" nType="0">
        <Node pos="l" depth="1" NCoef="0" IVar="22" Cut="1.4127343177795410e+01" cType="1" res="5.6713074445724487e-02" rms="4.8654201626777649e-01" purity="5.9232670068740845e-01" nType="0">
          <Node pos="l" depth="2" NCoef="0" IVar="-1" Cut="0.0000000000000000e+00" cType="1" res="1.2842871248722076e-02" rms="4.7356086969375610e-01" purity="6.3047695159912109e-01" nType="-99"/>
          <Node pos="r" depth="2" NCoef="0" IVar="-1" Cut="0.0000000000000000e+00" cType="1" res="2.7021549176424742e-03" rms="4.9193853139877319e-01" purity="5.6329470872879028e-01" nType="-99"/>
        </Node>
        <Node pos="r" depth="1" NCoef="0" IVar="1" Cut="4.1324577331542969e+01" cType="0" res="-6.9121755659580231e-03" rms="4.9164777994155884e-01" purity="4.8982959985733032e-01" nType="0">
          <Node pos="l" depth="2" NCoef="0" IVar="-1" Cut="0.0000000000000000e+00" cType="1" res="1.3959234638605267e-04" rms="4.9224296212196350e-01" purity="5.0215435028076172e-01" nType="-99"/>
          <Node pos="r" depth="2" NCoef="0" IVar="-1" Cut="0.0000000000000000e+00" cType="1" res="-3.3894686494022608e-03" rms="4.8870524764060974e-01" purity="4.5166209340095520e-01" nType="-99"/>
        </Node>
      </Node>
    </BinaryTree>
    <BinaryTree type="DecisionTree" boostWeight="1.0000000000000000e+00" itree="55">
      <Node pos="s" depth="0" NCoef="0" IVar="8" Cut="-1.4850380420684814e+00" cType="0" res="2.3433768656104803e-03" rms="4.9098882079124451e-01" purity="5.0245088338851929e-01" nType="0">
        <Node pos="l" depth="1" NCoef="0" IVar="8" Cut="1.6598788499832153e+00" cType="1" res="9.7849955782294273e-03" rms="4.9087908864021301e-01" purity="5.1228666305541992e-01" nType="0">
          <Node pos="l" depth="2" NCoef="0" IVar="-1" Cut="0.0000000000000000e+00" cType="1" res="1.4752479037269950e-03" rms="4.9059364199638367e-01" purity="5.2081990242004395e-01" nType="-99"/>
          <Node pos="r" depth="2" NCoef="0" IVar="-1" Cut="0.0000000000000000e+00" cType="1" res="-6.0366173274815083e-03" rms="4.8949363827705383e-01" purity="4.3808344006538391e-01" nType="-99"/>
        </Node>
        <Node pos="r" depth="1" NCoef="0" IVar="0" Cut="-6.9985938072204590e-01" cType="1" res="-5.5092714726924896e-02" rms="4.8803216218948364e-01" purity="4.2653617262840271e-01" nType="0">
          <Node pos="l" depth="2" NCoef="0" IVar="-1" Cut="0.0000000000000000e+00" cType="1" res="-2.6075241621583700e-03" rms="4.9232000112533569e-01" purity="4.9998554587364197e-01" nType="-99"/>
          <Node pos="r" depth="2" NCoef="0" IVar="-1" Cut="0.0000000000000000e+00" cType="1" res="-6.7081055603921413e-03" rms="4.8204940557479858e-01" purity="3.8783624768257141e-01" nType="-99"/>
        </Node>
      </Node>
    </BinaryTree>
    <BinaryTree type="DecisionTree" boostWeight="1.0000000000000000e+00" itree="56">
      <Node pos="s" depth="0" NCoef="0" IVar="14" Cut="5.6261497497558594e+01" cType="0" res="-7.6881744898855686e-03" rms="4.9004039168357849e-01" purity="4.9072048068046570e-01" nType="0">
        <Node pos="l" depth="1" NCoef="0" IVar="23" Cut="1.2212664604187012e+01" cType="1" res="4.4062871485948563e-02" rms="4.8611366748809814e-01" purity="6.0670500993728638e-01" nType="0">
          <Node pos="l" depth="2" NCoef="0" IVar="-1" Cut="0.0000000000000000e+00" cType="1" res="7.7695287764072418e-03" rms="4.7353902459144592e-01" purity="6.4848625659942627e-01" nType="-99"/>
          <Node pos="r" depth="2" NCoef="0" IVar="-1" Cut="0.0000000000000000e+00" cType="1" res="4.0078149177134037e-03" rms="4.9103280901908875e-01" purity="5.8370769023895264e-01" nType="-99"/>
        </Node>
        <Node pos="r" depth="1" NCoef="0" IVar="9" Cut="1.1264404296875000e+02" cType="0" res="-1.6939200460910797e-02" rms="4.9016368389129639e-01" purity="4.6998709440231323e-01" nType="0">
          <Node pos="l" depth="2" NCoef="0" IVar="-1" Cut="0.0000000000000000e+00" cType="1" res="2.5148576241917908e-04" rms="4.9331071972846985e-01" purity="5.0037497282028198e-01" nType="-99"/>
          <Node pos="r" depth="2" NCoef="0" IVar="-1" Cut="0.0000000000000000e+00" cType="1" res="-4.1711311787366867e-03" rms="4.8013132810592651e-01" purity="3.9037236571311951e-01" nType="-99"/>
        </Node>
      </Node>
    </BinaryTree>
    <BinaryTree type="DecisionTree" boostWeight="1.0000000000000000e+00" itree="57">
      <Node pos="s" depth="0" NCoef="0" IVar="1" Cut="1.8278807067871094e+02" cType="0" res="2.5875694118440151e-03" rms="4.9200132489204407e-01" purity="5.0289475917816162e-01" nType="0">
        <Node pos="l" depth="1" NCoef="0" IVar="8" Cut="3.3947309851646423e-01" cType="1" res="8.0827459692955017e-02" rms="4.7503265738487244e-01" purity="6.3295614719390869e-01" nType="0">
          <Node pos="l" depth="2" NCoef="0" IVar="-1" Cut="0.0000000000000000e+00" cType="1" res="1.1751986108720303e-02" rms="4.5540106296539307e-01" purity="6.7870622873306274e-01" nType="-99"/>
          <Node pos="r" depth="2" NCoef="0" IVar="-1" Cut="0.0000000000000000e+00" cType="1" res="-1.3445204822346568e-03" rms="4.9623996019363403e-01" purity="5.5755174160003662e-01" nType="-99"/>
        </Node>
        <Node pos="r" depth="1" NCoef="0" IVar="6" Cut="-1.2570537328720093e+00" cType="0" res="-8.0166541738435626e-04" rms="4.9244236946105957e-01" purity="4.9726068973541260e-01" nType="0">
          <Node pos="l" depth="2" NCoef="0" IVar="-1" Cut="0.0000000000000000e+00" cType="1" res="4.0390336653217673e-04" rms="4.9241602420806885e-01" purity="5.0483131408691406e-01" nType="-99"/>
          <Node pos="r" depth="2" NCoef="0" IVar="-1" Cut="0.0000000000000000e+00" cType="1" res="-4.2564617469906807e-03" rms="4.9061450362205505e-01" purity="4.5245873928070068e-01" nType="-99"/>
        </Node>
      </Node>
    </BinaryTree>
    <BinaryTree type="DecisionTree" boostWeight="1.0000000000000000e+00" itree="58">
      <Node pos="s" depth="0" NCoef="0" IVar="3" Cut="-1.4855910539627075e+00" cType="0" res="-5.5690594017505646e-03" rms="4.9082481861114502e-01" purity="4.9407380819320679e-01" nType="0">
        <Node pos="l" depth="1" NCoef="0" IVar="4" Cut="-1.2569308280944824e+00" cType="0" res="1.1180231376783922e-04" rms="4.9101221561431885e-01" purity="5.0240957736968994e-01" nType="0">
          <Node pos="l" depth="2" NCoef="0" IVar="-1" Cut="0.0000000000000000e+00" cType="1" res="1.4627779601141810e-03" rms="4.9068123102188110e-01" purity="5.0960928201675415e-01" nType="-99"/>
          <Node pos="r" depth="2" NCoef="0" IVar="-1" Cut="0.0000000000000000e+00" cType="1" res="-5.7333470322191715e-03" rms="4.9155622720718384e-01" purity="4.5011419057846069e-01" nType="-99"/>
        </Node>
        <Node pos="r" depth="1" NCoef="0" IVar="6" Cut="-3.3707913756370544e-01" cType="1" res="-6.1212390661239624e-02" rms="4.8548379540443420e-01" purity="4.1242605447769165e-01" nType="0">
          <Node pos="l" depth="2" NCoef="0" IVar="-1" Cut="0.0000000000000000e+00" cType="1" res="1.8082452006638050e-03" rms="4.9355247616767883e-01" purity="4.9016106128692627e-01" nType="-99"/>
          <Node pos="r" depth="2" NCoef="0" IVar="-1" Cut="0.0000000000000000e+00" cType="1" res="-1.4074904844164848e-02" rms="4.6448984742164612e-01" purity="3.3573365211486816e-01" nType="-99"/>
        </Node>
      </Node>
    </BinaryTree>
    <BinaryTree type="DecisionTree" boostWeight="1.0000000000000000e+00" itree="59">
      <Node pos="s" depth="0" NCoef="0" IVar="8" Cut="-1.4858930110931396e+00" cType="0" res="-2.9013173189014196e-03" rms="4.9117711186408997e-01" purity="4.9670904874801636e-01" nType="0">
        <Node pos="l" depth="1" NCoef="0" IVar="3" Cut="-1.7142248153686523e+00" cType="0" res="2.7938073035329580e-03" rms="4.9103033542633057e-01" purity="5.0530570745468140e-01" nType="0">
          <Node pos="l" depth="2" NCoef="0" IVar="-1" Cut="0.0000000000000000e+00" cType="1" res="1.2324500130489469e-03" rms="4.9142593145370483e-01" purity="5.1162815093994141e-01" nType="-99"/>
          <Node pos="r" depth="2" NCoef="0" IVar="-1" Cut="0.0000000000000000e+00" cType="1" res="-9.7918380051851273e-03" rms="4.7742846608161926e-01" purity="3.9322808384895325e-01" nType="-99"/>
        </Node>
        <Node pos="r" depth="1" NCoef="0" IVar="5" Cut="-3.4639486670494080e-01" cType="1" res="-4.6555221080780029e-02" rms="4.9010801315307617e-01" purity="4.3081456422805786e-01" nType="0">
          <Node pos="l" depth="2" NCoef="0" IVar="-1" Cut="0.0000000000000000e+00" cType="1" res="-1.9304454326629639e-03" rms="4.9915751814842224e-01" purity="4.9819597601890564e-01" nType="-99"/>
          <Node pos="r" depth="2" NCoef="0" IVar="-1" Cut="0.0000000000000000e+00" cType="1" res="-7.3829297907650471e-03" rms="4.7304376959800720e-01" purity="3.6377030611038208e-01" nType="-99"/>
        </Node>
      </Node>
    </BinaryTree>
    <BinaryTree type="DecisionTree" boostWeight="1.0000000000000000e+00" itree="60">
      <Node pos="s" depth="0" NCoef="0" IVar="6" Cut="2.1688597202301025e+00" cType="1" res="-1.6898937756195664e-03" rms="4.9120971560478210e-01" purity="4.9837321043014526e-01" nType="0">
        <Node pos="l" depth="1" NCoef="0" IVar="6" Cut="-1.3117916584014893e+00" cType="0" res="9.4236904988065362e-04" rms="4.9149906635284424e-01" purity="5.0170111656188965e-01" nType="0">
          <Node pos="l" depth="2" NCoef="0" IVar="-1" Cut="0.0000000000000000e+00" cType="1" res="8.7077723583206534e-04" rms="4.9171930551528931e-01" purity="5.1074272394180298e-01" nType="-99"/>
          <Node pos="r" depth="2" NCoef="0" IVar="-1" Cut="0.0000000000000000e+00" cType="1" res="-3.5624613519757986e-03" rms="4.8710054159164429e-01" purity="4.4388914108276367e-01" nType="-99"/>
        </Node>
