<?xml version="1.0"?>
<MethodSetup Method="BDT::BDTG">
  <GeneralInfo>
    <Info name="TMVA Release" value="4.2.0 [262656]"/>
    <Info name="ROOT Release" value="5.34/34 [336418]"/>
    <Info name="Creator" value="satoshi"/>
    <Info name="Date" value="Mon Apr 18 17:45:54 2016"/>
    <Info name="Host" value="Darwin macphsft14.cern.ch 13.4.0 Darwin Kernel Version 13.4.0: Wed Mar 18 16:20:14 PDT 2015; root:xnu-2422.115.14~1/RELEASE_X86_64 x86_64"/>
    <Info name="Dir" value="/Users/satoshi/work/TMVA/TMVA-v4.2.0/test"/>
    <Info name="Training events" value="29493"/>
    <Info name="TrainingTime" value="1.73609337e+02"/>
    <Info name="AnalysisType" value="Classification"/>
  </GeneralInfo>
  <Options>
    <Option name="V" modified="Yes">False</Option>
    <Option name="VerbosityLevel" modified="No">Default</Option>
    <Option name="VarTransform" modified="No">None</Option>
    <Option name="H" modified="Yes">False</Option>
    <Option name="CreateMVAPdfs" modified="No">False</Option>
    <Option name="IgnoreNegWeightsInTraining" modified="No">False</Option>
    <Option name="NTrees" modified="Yes">1000</Option>
    <Option name="MaxDepth" modified="Yes">2</Option>
    <Option name="MinNodeSize" modified="Yes">1.5%</Option>
    <Option name="nCuts" modified="Yes">20</Option>
    <Option name="BoostType" modified="Yes">Grad</Option>
    <Option name="AdaBoostR2Loss" modified="No">quadratic</Option>
    <Option name="UseBaggedBoost" modified="Yes">True</Option>
    <Option name="Shrinkage" modified="Yes">1.000000e-01</Option>
    <Option name="AdaBoostBeta" modified="No">5.000000e-01</Option>
    <Option name="UseRandomisedTrees" modified="No">False</Option>
    <Option name="UseNvars" modified="No">5</Option>
    <Option name="UsePoissonNvars" modified="No">True</Option>
    <Option name="BaggedSampleFraction" modified="Yes">5.000000e-01</Option>
    <Option name="UseYesNoLeaf" modified="No">True</Option>
    <Option name="NegWeightTreatment" modified="No">ignorenegweightsintraining</Option>
    <Option name="Css" modified="No">1.000000e+00</Option>
    <Option name="Cts_sb" modified="No">1.000000e+00</Option>
    <Option name="Ctb_ss" modified="No">1.000000e+00</Option>
    <Option name="Cbb" modified="No">1.000000e+00</Option>
    <Option name="NodePurityLimit" modified="No">5.000000e-01</Option>
    <Option name="SeparationType" modified="No">giniindex</Option>
    <Option name="DoBoostMonitor" modified="No">False</Option>
    <Option name="UseFisherCuts" modified="No">False</Option>
    <Option name="MinLinCorrForFisher" modified="No">8.000000e-01</Option>
    <Option name="UseExclusiveVars" modified="No">False</Option>
    <Option name="DoPreselection" modified="No">False</Option>
    <Option name="SigToBkgFraction" modified="No">1.000000e+00</Option>
    <Option name="PruneMethod" modified="No">nopruning</Option>
    <Option name="PruneStrength" modified="No">0.000000e+00</Option>
    <Option name="PruningValFraction" modified="No">5.000000e-01</Option>
    <Option name="nEventsMin" modified="No">0</Option>
    <Option name="UseBaggedGrad" modified="No">False</Option>
    <Option name="GradBaggingFraction" modified="No">5.000000e-01</Option>
    <Option name="UseNTrainEvents" modified="No">0</Option>
    <Option name="NNodesMax" modified="No">0</Option>
  </Options>
  <Variables NVar="27">
    <Variable VarIndex="0" Expression="lepton_eta" Label="lepton_eta" Title="Lepton Eta" Unit="" Internal="lepton_eta" Type="F" Min="-2.09978962e+00" Max="2.09932852e+00"/>
    <Variable VarIndex="1" Expression="lepton_pt" Label="lepton_pt" Title="Lepton PT" Unit="GeV" Internal="lepton_pt" Type="F" Min="3.00043964e+01" Max="7.19080261e+02"/>
    <Variable VarIndex="2" Expression="lepton_phi" Label="lepton_phi" Title="Lepton Phi" Unit="" Internal="lepton_phi" Type="F" Min="-3.14150405e+00" Max="3.14159203e+00"/>
    <Variable VarIndex="3" Expression="jet_1_eta" Label="jet_1_eta" Title="Jet 1 Eta" Unit="" Internal="jet_1_eta" Type="F" Min="-2.39984870e+00" Max="2.39719748e+00"/>
    <Variable VarIndex="4" Expression="jet_2_eta" Label="jet_2_eta" Title="Jet 2 Eta" Unit="" Internal="jet_2_eta" Type="F" Min="-2.39998746e+00" Max="2.39980054e+00"/>
    <Variable VarIndex="5" Expression="jet_3_eta" Label="jet_3_eta" Title="Jet 3 Eta" Unit="" Internal="jet_3_eta" Type="F" Min="-2.39894104e+00" Max="2.39934993e+00"/>
    <Variable VarIndex="6" Expression="jet_4_eta" Label="jet_4_eta" Title="Jet 4 Eta" Unit="" Internal="jet_4_eta" Type="F" Min="-2.39918852e+00" Max="2.39999938e+00"/>
    <Variable VarIndex="7" Expression="jet_5_eta" Label="jet_5_eta" Title="Jet 5 Eta" Unit="" Internal="jet_5_eta" Type="F" Min="-2.39788818e+00" Max="2.39971042e+00"/>
    <Variable VarIndex="8" Expression="jet_6_eta" Label="jet_6_eta" Title="Jet 6 Eta" Unit="" Internal="jet_6_eta" Type="F" Min="-2.39995241e+00" Max="2.39907169e+00"/>
    <Variable VarIndex="9" Expression="jet_1_pt" Label="jet_1_pt" Title="Jet 1 PT" Unit="GeV" Internal="jet_1_pt" Type="F" Min="4.42140312e+01" Max="1.55758521e+03"/>
    <Variable VarIndex="10" Expression="jet_2_pt" Label="jet_2_pt" Title="Jet 2 PT" Unit="GeV" Internal="jet_2_pt" Type="F" Min="3.49824715e+01" Max="9.13725281e+02"/>
    <Variable VarIndex="11" Expression="jet_3_pt" Label="jet_3_pt" Title="Jet 3 PT" Unit="GeV" Internal="jet_3_pt" Type="F" Min="3.38521156e+01" Max="6.12120361e+02"/>
    <Variable VarIndex="12" Expression="jet_4_pt" Label="jet_4_pt" Title="Jet 4 PT" Unit="GeV" Internal="jet_4_pt" Type="F" Min="3.08419895e+01" Max="4.03557068e+02"/>
    <Variable VarIndex="13" Expression="jet_5_pt" Label="jet_5_pt" Title="Jet 5 PT" Unit="GeV" Internal="jet_5_pt" Type="F" Min="3.00742931e+01" Max="3.17321777e+02"/>
    <Variable VarIndex="14" Expression="jet_6_pt" Label="jet_6_pt" Title="Jet 6 PT" Unit="GeV" Internal="jet_6_pt" Type="F" Min="3.00005817e+01" Max="2.03019104e+02"/>
    <Variable VarIndex="15" Expression="jet_1_phi" Label="jet_1_phi" Title="Jet 1 Phi" Unit="" Internal="jet_1_phi" Type="F" Min="-3.14121318e+00" Max="3.14156151e+00"/>
    <Variable VarIndex="16" Expression="jet_2_phi" Label="jet_2_phi" Title="Jet 2 Phi" Unit="" Internal="jet_2_phi" Type="F" Min="-3.14147663e+00" Max="3.14158750e+00"/>
    <Variable VarIndex="17" Expression="jet_3_phi" Label="jet_3_phi" Title="Jet 3 Phi" Unit="" Internal="jet_3_phi" Type="F" Min="-3.14157629e+00" Max="3.14155936e+00"/>
    <Variable VarIndex="18" Expression="jet_4_phi" Label="jet_4_phi" Title="Jet 4 Phi" Unit="" Internal="jet_4_phi" Type="F" Min="-3.14128041e+00" Max="3.14140081e+00"/>
    <Variable VarIndex="19" Expression="jet_5_phi" Label="jet_5_phi" Title="Jet 5 Phi" Unit="" Internal="jet_5_phi" Type="F" Min="-3.14142680e+00" Max="3.14151788e+00"/>
    <Variable VarIndex="20" Expression="jet_6_phi" Label="jet_6_phi" Title="Jet 6 Phi" Unit="" Internal="jet_6_phi" Type="F" Min="-3.14135385e+00" Max="3.14116836e+00"/>
    <Variable VarIndex="21" Expression="jet_1_m" Label="jet_1_m" Title="Jet 1 Mass" Unit="GeV" Internal="jet_1_m" Type="F" Min="2.27583367e-02" Max="1.98081696e+02"/>
    <Variable VarIndex="22" Expression="jet_2_m" Label="jet_2_m" Title="Jet 2 Mass" Unit="GeV" Internal="jet_2_m" Type="F" Min="8.54256283e-03" Max="1.69387726e+02"/>
    <Variable VarIndex="23" Expression="jet_3_m" Label="jet_3_m" Title="Jet 3 Mass" Unit="GeV" Internal="jet_3_m" Type="F" Min="3.15021910e-03" Max="9.52884369e+01"/>
    <Variable VarIndex="24" Expression="jet_4_m" Label="jet_4_m" Title="Jet 4 Mass" Unit="GeV" Internal="jet_4_m" Type="F" Min="1.84626633e-03" Max="8.02406693e+01"/>
    <Variable VarIndex="25" Expression="jet_5_m" Label="jet_5_m" Title="Jet 5 Mass" Unit="GeV" Internal="jet_5_m" Type="F" Min="2.58787931e-03" Max="6.64153214e+01"/>
    <Variable VarIndex="26" Expression="jet_6_m" Label="jet_6_m" Title="Jet 6 Mass" Unit="GeV" Internal="jet_6_m" Type="F" Min="5.38220629e-03" Max="4.08835487e+01"/>
  </Variables>
  <Spectators NSpec="0"/>
  <Classes NClass="2">
    <Class Name="Signal" Index="0"/>
    <Class Name="Background" Index="1"/>
  </Classes>
  <Transformations NTransformations="0"/>
  <MVAPdfs/>
  <Weights NTrees="1000" AnalysisType="1">
    <BinaryTree type="DecisionTree" boostWeight="1.0000000000000000e+00" itree="0">
      <Node pos="s" depth="0" NCoef="0" IVar="11" Cut="8.7924835205078125e+01" cType="0" res="-4.8180609010159969e-03" rms="4.9997678399085999e-01" purity="4.9518191814422607e-01" nType="0">
        <Node pos="l" depth="1" NCoef="0" IVar="23" Cut="2.7253763198852539e+01" cType="0" res="4.7978539019823074e-02" rms="4.9769273400306702e-01" purity="5.4797852039337158e-01" nType="0">
          <Node pos="l" depth="2" NCoef="0" IVar="-1" Cut="0.0000000000000000e+00" cType="1" res="1.3982453383505344e-02" rms="4.2414331436157227e-01" purity="7.6476866006851196e-01" nType="-99"/>
          <Node pos="r" depth="2" NCoef="0" IVar="-1" Cut="0.0000000000000000e+00" cType="1" res="3.0430562328547239e-03" rms="4.9839907884597778e-01" purity="5.3997933864593506e-01" nType="-99"/>
        </Node>
        <Node pos="r" depth="1" NCoef="0" IVar="11" Cut="7.7636276245117188e+01" cType="0" res="-4.8346925526857376e-02" rms="4.9765709042549133e-01" purity="4.5165306329727173e-01" nType="0">
          <Node pos="l" depth="2" NCoef="0" IVar="-1" Cut="0.0000000000000000e+00" cType="1" res="1.3397927395999432e-03" rms="4.9847301840782166e-01" purity="5.3904664516448975e-01" nType="-99"/>
          <Node pos="r" depth="2" NCoef="0" IVar="-1" Cut="0.0000000000000000e+00" cType="1" res="-3.5417736507952213e-03" rms="4.9468976259231567e-01" purity="4.2732241749763489e-01" nType="-99"/>
        </Node>
      </Node>
    </BinaryTree>
    <BinaryTree type="DecisionTree" boostWeight="1.0000000000000000e+00" itree="1">
      <Node pos="s" depth="0" NCoef="0" IVar="14" Cut="3.7234565734863281e+01" cType="0" res="-2.7096353005617857e-03" rms="4.9981948733329773e-01" purity="4.9739503860473633e-01" nType="0">
        <Node pos="l" depth="1" NCoef="0" IVar="5" Cut="-1.7121555805206299e+00" cType="0" res="3.4945346415042877e-02" rms="4.9860352277755737e-01" purity="5.3545093536376953e-01" nType="0">
          <Node pos="l" depth="2" NCoef="0" IVar="-1" Cut="0.0000000000000000e+00" cType="1" res="3.1703980639576912e-03" rms="4.9766924977302551e-01" purity="5.4692459106445312e-01" nType="-99"/>
          <Node pos="r" depth="2" NCoef="0" IVar="-1" Cut="0.0000000000000000e+00" cType="1" res="-4.5029087923467159e-03" rms="4.8492628335952759e-01" purity="3.7903770804405212e-01" nType="-99"/>
        </Node>
        <Node pos="r" depth="1" NCoef="0" IVar="14" Cut="3.3443202972412109e+01" cType="0" res="-6.1415474861860275e-02" rms="4.9603962898254395e-01" purity="4.3806415796279907e-01" nType="0">
          <Node pos="l" depth="2" NCoef="0" IVar="-1" Cut="0.0000000000000000e+00" cType="1" res="-2.4066879414021969e-03" rms="4.9974933266639709e-01" purity="4.8724767565727234e-01" nType="-99"/>
          <Node pos="r" depth="2" NCoef="0" IVar="-1" Cut="0.0000000000000000e+00" cType="1" res="-4.7094267792999744e-03" rms="4.8954382538795471e-01" purity="3.9880830049514771e-01" nType="-99"/>
        </Node>
      </Node>
    </BinaryTree>
    <BinaryTree type="DecisionTree" boostWeight="1.0000000000000000e+00" itree="2">
      <Node pos="s" depth="0" NCoef="0" IVar="14" Cut="4.4684032440185547e+01" cType="0" res="3.3566525671631098e-03" rms="4.9964663386344910e-01" purity="5.0362360477447510e-01" nType="0">
        <Node pos="l" depth="1" NCoef="0" IVar="7" Cut="1.0288554430007935e+00" cType="1" res="8.2227051258087158e-02" rms="4.9267214536666870e-01" purity="5.8459615707397461e-01" nType="0">
          <Node pos="l" depth="2" NCoef="0" IVar="-1" Cut="0.0000000000000000e+00" cType="1" res="5.7869688607752323e-03" rms="4.8843798041343689e-01" purity="6.0617125034332275e-01" nType="-99"/>
          <Node pos="r" depth="2" NCoef="0" IVar="-1" Cut="0.0000000000000000e+00" cType="1" res="9.3010184355080128e-04" rms="5.0003600120544434e-01" purity="5.0099211931228638e-01" nType="-99"/>
        </Node>
        <Node pos="r" depth="1" NCoef="0" IVar="10" Cut="7.2301658630371094e+01" cType="0" res="-3.9438739418983459e-02" rms="4.9819207191467285e-01" purity="4.5968756079673767e-01" nType="0">
          <Node pos="l" depth="2" NCoef="0" IVar="-1" Cut="0.0000000000000000e+00" cType="1" res="-1.3336339034140110e-03" rms="4.9930876493453979e-01" purity="4.7725769877433777e-01" nType="-99"/>
          <Node pos="r" depth="2" NCoef="0" IVar="-1" Cut="0.0000000000000000e+00" cType="1" res="-6.1025139875710011e-03" rms="4.8699852824211121e-01" purity="3.8637602329254150e-01" nType="-99"/>
        </Node>
      </Node>
    </BinaryTree>
    <BinaryTree type="DecisionTree" boostWeight="1.0000000000000000e+00" itree="3">
      <Node pos="s" depth="0" NCoef="0" IVar="14" Cut="5.2022975921630859e+01" cType="0" res="5.7558305561542511e-03" rms="4.9953222274780273e-01" purity="5.0630664825439453e-01" nType="0">
        <Node pos="l" depth="1" NCoef="0" IVar="15" Cut="-7.4741446971893311e-01" cType="1" res="8.3634927868843079e-02" rms="4.9199539422988892e-01" purity="5.8888453245162964e-01" nType="0">
          <Node pos="l" depth="2" NCoef="0" IVar="-1" Cut="0.0000000000000000e+00" cType="1" res="8.6649442091584206e-03" rms="4.7061192989349365e-01" purity="6.6808217763900757e-01" nType="-99"/>
          <Node pos="r" depth="2" NCoef="0" IVar="-1" Cut="0.0000000000000000e+00" cType="1" res="5.0668469630181789e-03" rms="4.9758908152580261e-01" purity="5.4971331357955933e-01" nType="-99"/>
        </Node>
        <Node pos="r" depth="1" NCoef="0" IVar="5" Cut="7.9783725738525391e-01" cType="1" res="-1.6736719757318497e-02" rms="4.9943277239799500e-01" purity="4.8245707154273987e-01" nType="0">
          <Node pos="l" depth="2" NCoef="0" IVar="-1" Cut="0.0000000000000000e+00" cType="1" res="-9.3356467550620437e-04" rms="4.9970668554306030e-01" purity="5.0232553482055664e-01" nType="-99"/>
          <Node pos="r" depth="2" NCoef="0" IVar="-1" Cut="0.0000000000000000e+00" cType="1" res="-3.2700379379093647e-03" rms="4.9428930878639221e-01" purity="4.2581093311309814e-01" nType="-99"/>
        </Node>
      </Node>
    </BinaryTree>
    <BinaryTree type="DecisionTree" boostWeight="1.0000000000000000e+00" itree="4">
      <Node pos="s" depth="0" NCoef="0" IVar="13" Cut="5.5267910003662109e+01" cType="0" res="-8.7391724810004234e-03" rms="4.9940782785415649e-01" purity="4.9198198318481445e-01" nType="0">
        <Node pos="l" depth="1" NCoef="0" IVar="6" Cut="-8.0008631944656372e-01" cType="0" res="4.7903746366500854e-02" rms="4.9706289172172546e-01" purity="5.5300331115722656e-01" nType="0">
          <Node pos="l" depth="2" NCoef="0" IVar="-1" Cut="0.0000000000000000e+00" cType="1" res="5.7556941173970699e-03" rms="4.9379014968872070e-01" purity="5.7892191410064697e-01" nType="-99"/>
          <Node pos="r" depth="2" NCoef="0" IVar="-1" Cut="0.0000000000000000e+00" cType="1" res="4.7137396177276969e-04" rms="4.9905145168304443e-01" purity="4.8046582937240601e-01" nType="-99"/>
        </Node>
        <Node pos="r" depth="1" NCoef="0" IVar="7" Cut="-1.0275565385818481e+00" cType="0" res="-4.9151565879583359e-02" rms="4.9714487791061401e-01" purity="4.4844573736190796e-01" nType="0">
          <Node pos="l" depth="2" NCoef="0" IVar="-1" Cut="0.0000000000000000e+00" cType="1" res="-1.6107220435515046e-03" rms="4.9913811683654785e-01" purity="4.7424915432929993e-01" nType="-99"/>
          <Node pos="r" depth="2" NCoef="0" IVar="-1" Cut="0.0000000000000000e+00" cType="1" res="-5.9069995768368244e-03" rms="4.8066174983978271e-01" purity="3.6282610893249512e-01" nType="-99"/>
        </Node>
      </Node>
    </BinaryTree>
    <BinaryTree type="DecisionTree" boostWeight="1.0000000000000000e+00" itree="5">
      <Node pos="s" depth="0" NCoef="0" IVar="14" Cut="4.6483665466308594e+01" cType="0" res="9.6356598660349846e-03" rms="4.9912464618682861e-01" purity="5.1046550273895264e-01" nType="0">
        <Node pos="l" depth="1" NCoef="0" IVar="4" Cut="1.2604794502258301e+00" cType="1" res="6.7410252988338470e-02" rms="4.9386081099510193e-01" purity="5.7600909471511841e-01" nType="0">
          <Node pos="l" depth="2" NCoef="0" IVar="-1" Cut="0.0000000000000000e+00" cType="1" res="6.5363473258912563e-03" rms="4.9097797274589539e-01" purity="5.9264725446701050e-01" nType="-99"/>
          <Node pos="r" depth="2" NCoef="0" IVar="-1" Cut="0.0000000000000000e+00" cType="1" res="3.9173776167444885e-04" rms="4.9911236763000488e-01" purity="4.7212514281272888e-01" nType="-99"/>
        </Node>
        <Node pos="r" depth="1" NCoef="0" IVar="4" Cut="-1.4801940917968750e+00" cType="0" res="-1.7624856904149055e-02" rms="4.9927306175231934e-01" purity="4.7953921556472778e-01" nType="0">
          <Node pos="l" depth="2" NCoef="0" IVar="-1" Cut="0.0000000000000000e+00" cType="1" res="-1.6457559540867805e-03" rms="4.9957704544067383e-01" purity="4.9063873291015625e-01" nType="-99"/>
          <Node pos="r" depth="2" NCoef="0" IVar="-1" Cut="0.0000000000000000e+00" cType="1" res="-7.3240799829363823e-03" rms="4.8441916704177856e-01" purity="3.7603944540023804e-01" nType="-99"/>
        </Node>
      </Node>
    </BinaryTree>
    <BinaryTree type="DecisionTree" boostWeight="1.0000000000000000e+00" itree="6">
      <Node pos="s" depth="0" NCoef="0" IVar="13" Cut="5.4232513427734375e+01" cType="0" res="-1.2213679961860180e-02" rms="4.9878588318824768e-01" purity="4.8864331841468811e-01" nType="0">
        <Node pos="l" depth="1" NCoef="0" IVar="1" Cut="1.7745846557617188e+02" cType="0" res="4.3123297393321991e-02" rms="4.9666926264762878e-01" purity="5.5121141672134399e-01" nType="0">
          <Node pos="l" depth="2" NCoef="0" IVar="-1" Cut="0.0000000000000000e+00" cType="1" res="9.1540161520242691e-03" rms="4.4971638917922974e-01" purity="7.1825700998306274e-01" nType="-99"/>
          <Node pos="r" depth="2" NCoef="0" IVar="-1" Cut="0.0000000000000000e+00" cType="1" res="3.4866118803620338e-03" rms="4.9750825762748718e-01" purity="5.4214590787887573e-01" nType="-99"/>
        </Node>
        <Node pos="r" depth="1" NCoef="0" IVar="7" Cut="-1.2559452056884766e+00" cType="0" res="-5.3660601377487183e-02" rms="4.9634066224098206e-01" purity="4.4178029894828796e-01" nType="0">
          <Node pos="l" depth="2" NCoef="0" IVar="-1" Cut="0.0000000000000000e+00" cType="1" res="-1.8332520266994834e-03" rms="4.9814805388450623e-01" purity="4.6047526597976685e-01" nType="-99"/>
          <Node pos="r" depth="2" NCoef="0" IVar="-1" Cut="0.0000000000000000e+00" cType="1" res="-5.9631941840052605e-03" rms="4.7975221276283264e-01" purity="3.5857570171356201e-01" nType="-99"/>
        </Node>
      </Node>
    </BinaryTree>
    <BinaryTree type="DecisionTree" boostWeight="1.0000000000000000e+00" itree="7">
      <Node pos="s" depth="0" NCoef="0" IVar="14" Cut="4.6478534698486328e+01" cType="0" res="-6.7577688023447990e-03" rms="4.9863341450691223e-01" purity="4.9417012929916382e-01" nType="0">
        <Node pos="l" depth="1" NCoef="0" IVar="5" Cut="-1.7123912572860718e+00" cType="0" res="6.6793210804462433e-02" rms="4.9324694275856018e-01" purity="5.7983148097991943e-01" nType="0">
          <Node pos="l" depth="2" NCoef="0" IVar="-1" Cut="0.0000000000000000e+00" cType="1" res="5.8823134750127792e-03" rms="4.9060809612274170e-01" purity="5.9531837701797485e-01" nType="-99"/>
          <Node pos="r" depth="2" NCoef="0" IVar="-1" Cut="0.0000000000000000e+00" cType="1" res="-1.9173179753124714e-03" rms="4.8731693625450134e-01" purity="3.8867864012718201e-01" nType="-99"/>
        </Node>
        <Node pos="r" depth="1" NCoef="0" IVar="13" Cut="3.8388744354248047e+01" cType="0" res="-3.9547991007566452e-02" rms="4.9752408266067505e-01" purity="4.5598086714744568e-01" nType="0">
          <Node pos="l" depth="2" NCoef="0" IVar="-1" Cut="0.0000000000000000e+00" cType="1" res="-1.2862553121522069e-03" rms="4.9896365404129028e-01" purity="4.7445032000541687e-01" nType="-99"/>
          <Node pos="r" depth="2" NCoef="0" IVar="-1" Cut="0.0000000000000000e+00" cType="1" res="-5.0616669468581676e-03" rms="4.8644110560417175e-01" purity="3.8585764169692993e-01" nType="-99"/>
        </Node>
      </Node>
    </BinaryTree>
    <BinaryTree type="DecisionTree" boostWeight="1.0000000000000000e+00" itree="8">
      <Node pos="s" depth="0" NCoef="0" IVar="13" Cut="5.4232513427734375e+01" cType="0" res="-1.1574272997677326e-02" rms="4.9823060631752014e-01" purity="4.8932060599327087e-01" nType="0">
        <Node pos="l" depth="1" NCoef="0" IVar="23" Cut="2.2690122604370117e+01" cType="0" res="4.5646131038665771e-02" rms="4.9590972065925598e-01" purity="5.5726695060729980e-01" nType="0">
          <Node pos="l" depth="2" NCoef="0" IVar="-1" Cut="0.0000000000000000e+00" cType="1" res="1.1707050725817680e-02" rms="4.5099011063575745e-01" purity="7.1718406677246094e-01" nType="-99"/>
          <Node pos="r" depth="2" NCoef="0" IVar="-1" Cut="0.0000000000000000e+00" cType="1" res="2.9649334028363228e-03" rms="4.9720010161399841e-01" purity="5.4537963867187500e-01" nType="-99"/>
        </Node>
        <Node pos="r" depth="1" NCoef="0" IVar="1" Cut="1.4192306518554688e+02" cType="0" res="-5.3606104105710983e-02" rms="4.9573868513107300e-01" purity="4.3940997123718262e-01" nType="0">
          <Node pos="l" depth="2" NCoef="0" IVar="-1" Cut="0.0000000000000000e+00" cType="1" res="1.6076720785349607e-03" rms="4.8567011952400208e-01" purity="6.1603969335556030e-01" nType="-99"/>
          <Node pos="r" depth="2" NCoef="0" IVar="-1" Cut="0.0000000000000000e+00" cType="1" res="-2.7578759472817183e-03" rms="4.9427750706672668e-01" purity="4.2828068137168884e-01" nType="-99"/>
        </Node>
      </Node>
    </BinaryTree>
    <BinaryTree type="DecisionTree" boostWeight="1.0000000000000000e+00" itree="9">
      <Node pos="s" depth="0" NCoef="0" IVar="4" Cut="1.0292769670486450e+00" cType="1" res="-5.1902276463806629e-03" rms="4.9857836961746216e-01" purity="4.9644184112548828e-01" nType="0">
        <Node pos="l" depth="1" NCoef="0" IVar="4" Cut="-9.2885196208953857e-01" cType="0" res="1.3031775131821632e-02" rms="4.9850854277610779e-01" purity="5.1491945981979370e-01" nType="0">
          <Node pos="l" depth="2" NCoef="0" IVar="-1" Cut="0.0000000000000000e+00" cType="1" res="1.8608010141178966e-03" rms="4.9734434485435486e-01" purity="5.3822726011276245e-01" nType="-99"/>
          <Node pos="r" depth="2" NCoef="0" IVar="-1" Cut="0.0000000000000000e+00" cType="1" res="-2.8250466566532850e-03" rms="4.9568408727645874e-01" purity="4.4521036744117737e-01" nType="-99"/>
        </Node>
        <Node pos="r" depth="1" NCoef="0" IVar="11" Cut="1.3701831054687500e+02" cType="0" res="-8.2948870956897736e-02" rms="4.9133905768394470e-01" purity="4.1759234666824341e-01" nType="0">
          <Node pos="l" depth="2" NCoef="0" IVar="-1" Cut="0.0000000000000000e+00" cType="1" res="4.6057221479713917e-03" rms="4.6524104475975037e-01" purity="6.8297910690307617e-01" nType="-99"/>
          <Node pos="r" depth="2" NCoef="0" IVar="-1" Cut="0.0000000000000000e+00" cType="1" res="-3.7637194618582726e-03" rms="4.8712062835693359e-01" purity="3.9283889532089233e-01" nType="-99"/>
        </Node>
      </Node>
    </BinaryTree>
    <BinaryTree type="DecisionTree" boostWeight="1.0000000000000000e+00" itree="10">
      <Node pos="s" depth="0" NCoef="0" IVar="14" Cut="4.6479602813720703e+01" cType="0" res="1.5565253561362624e-03" rms="4.9826791882514954e-01" purity="5.0297939777374268e-01" nType="0">
        <Node pos="l" depth="1" NCoef="0" IVar="4" Cut="1.4857206344604492e+00" cType="1" res="7.3951065540313721e-02" rms="4.9121087789535522e-01" purity="5.9142935276031494e-01" nType="0">
          <Node pos="l" depth="2" NCoef="0" IVar="-1" Cut="0.0000000000000000e+00" cType="1" res="5.6485128588974476e-03" rms="4.8769888281822205e-01" purity="6.0911929607391357e-01" nType="-99"/>
          <Node pos="r" depth="2" NCoef="0" IVar="-1" Cut="0.0000000000000000e+00" cType="1" res="-1.2092611286789179e-03" rms="4.9474102258682251e-01" purity="4.2847979068756104e-01" nType="-99"/>
        </Node>
        <Node pos="r" depth="1" NCoef="0" IVar="6" Cut="-1.2574814558029175e+00" cType="0" res="-3.1514480710029602e-02" rms="4.9796879291534424e-01" purity="4.6257409453392029e-01" nType="0">
          <Node pos="l" depth="2" NCoef="0" IVar="-1" Cut="0.0000000000000000e+00" cType="1" res="-1.5074972761794925e-03" rms="4.9888482689857483e-01" purity="4.7765001654624939e-01" nType="-99"/>
          <Node pos="r" depth="2" NCoef="0" IVar="-1" Cut="0.0000000000000000e+00" cType="1" res="-4.8185312189161777e-03" rms="4.8449152708053589e-01" purity="3.7798249721527100e-01" nType="-99"/>
        </Node>
      </Node>
    </BinaryTree>
    <BinaryTree type="DecisionTree" boostWeight="1.0000000000000000e+00" itree="11">
      <Node pos="s" depth="0" NCoef="0" IVar="14" Cut="4.2882080078125000e+01" cType="0" res="-3.0993581749498844e-03" rms="4.9774262309074402e-01" purity="4.9810829758644104e-01" nType="0">
        <Node pos="l" depth="1" NCoef="0" IVar="3" Cut="1.4795528650283813e+00" cType="1" res="5.9067200869321823e-02" rms="4.9320602416992188e-01" purity="5.7422840595245361e-01" nType="0">
          <Node pos="l" depth="2" NCoef="0" IVar="-1" Cut="0.0000000000000000e+00" cType="1" res="3.7061742041260004e-03" rms="4.9022433161735535e-01" purity="5.9133899211883545e-01" nType="-99"/>
          <Node pos="r" depth="2" NCoef="0" IVar="-1" Cut="0.0000000000000000e+00" cType="1" res="-2.2736776154488325e-03" rms="4.9461948871612549e-01" purity="4.3138027191162109e-01" nType="-99"/>
        </Node>
        <Node pos="r" depth="1" NCoef="0" IVar="6" Cut="-1.7140206098556519e+00" cType="0" res="-4.4833105057477951e-02" rms="4.9641668796539307e-01" purity="4.4700717926025391e-01" nType="0">
          <Node pos="l" depth="2" NCoef="0" IVar="-1" Cut="0.0000000000000000e+00" cType="1" res="-1.6904897056519985e-03" rms="4.9754649400711060e-01" purity="4.5927134156227112e-01" nType="-99"/>
          <Node pos="r" depth="2" NCoef="0" IVar="-1" Cut="0.0000000000000000e+00" cType="1" res="-6.3647460192441940e-03" rms="4.6147823333740234e-01" purity="3.0764129757881165e-01" nType="-99"/>
        </Node>
      </Node>
    </BinaryTree>
    <BinaryTree type="DecisionTree" boostWeight="1.0000000000000000e+00" itree="12">
      <Node pos="s" depth="0" NCoef="0" IVar="12" Cut="6.4781784057617188e+01" cType="0" res="-9.9971033632755280e-03" rms="4.9739933013916016e-01" purity="4.9107700586318970e-01" nType="0">
        <Node pos="l" depth="1" NCoef="0" IVar="14" Cut="3.8246646881103516e+01" cType="0" res="4.5953769236803055e-02" rms="4.9499455094337463e-01" purity="5.5663335323333740e-01" nType="0">
          <Node pos="l" depth="2" NCoef="0" IVar="-1" Cut="0.0000000000000000e+00" cType="1" res="4.1442182846367359e-03" rms="4.9130803346633911e-01" purity="5.8744984865188599e-01" nType="-99"/>
          <Node pos="r" depth="2" NCoef="0" IVar="-1" Cut="0.0000000000000000e+00" cType="1" res="-1.6288190381601453e-03" rms="4.9836838245391846e-01" purity="4.6833515167236328e-01" nType="-99"/>
        </Node>
        <Node pos="r" depth="1" NCoef="0" IVar="2" Cut="-2.8415520191192627e+00" cType="1" res="-6.4730197191238403e-02" rms="4.9364215135574341e-01" purity="4.2694753408432007e-01" nType="0">
          <Node pos="l" depth="2" NCoef="0" IVar="-1" Cut="0.0000000000000000e+00" cType="1" res="4.4605392031371593e-03" rms="4.8466211557388306e-01" purity="6.2214976549148560e-01" nType="-99"/>
          <Node pos="r" depth="2" NCoef="0" IVar="-1" Cut="0.0000000000000000e+00" cType="1" res="-2.7493729721754789e-03" rms="4.9239373207092285e-01" purity="4.1924518346786499e-01" nType="-99"/>
        </Node>
      </Node>
    </BinaryTree>
    <BinaryTree type="DecisionTree" boostWeight="1.0000000000000000e+00" itree="13">
      <Node pos="s" depth="0" NCoef="0" IVar="14" Cut="3.7371875762939453e+01" cType="0" res="-4.7302143648266792e-03" rms="4.9760454893112183e-01" purity="4.9659121036529541e-01" nType="0">
        <Node pos="l" depth="1" NCoef="0" IVar="4" Cut="-1.0284721851348877e+00" cType="0" res="2.9183747246861458e-02" rms="4.9648773670196533e-01" purity="5.3907525539398193e-01" nType="0">
          <Node pos="l" depth="2" NCoef="0" IVar="-1" Cut="0.0000000000000000e+00" cType="1" res="2.7937309350818396e-03" rms="4.9445512890815735e-01" purity="5.6141698360443115e-01" nType="-99"/>
          <Node pos="r" depth="2" NCoef="0" IVar="-1" Cut="0.0000000000000000e+00" cType="1" res="-1.6653280472382903e-03" rms="4.9443846940994263e-01" purity="4.4267171621322632e-01" nType="-99"/>
        </Node>
        <Node pos="r" depth="1" NCoef="0" IVar="16" Cut="-2.5426459312438965e+00" cType="1" res="-5.7151630520820618e-02" rms="4.9477320909500122e-01" purity="4.3092286586761475e-01" nType="0">
          <Node pos="l" depth="2" NCoef="0" IVar="-1" Cut="0.0000000000000000e+00" cType="1" res="-1.8598667811602354e-03" rms="4.9614733457565308e-01" purity="5.5583852529525757e-01" nType="-99"/>
          <Node pos="r" depth="2" NCoef="0" IVar="-1" Cut="0.0000000000000000e+00" cType="1" res="-2.9984780121594667e-03" rms="4.9342685937881470e-01" purity="4.2178407311439514e-01" nType="-99"/>
        </Node>
      </Node>
    </BinaryTree>
    <BinaryTree type="DecisionTree" boostWeight="1.0000000000000000e+00" itree="14">
      <Node pos="s" depth="0" NCoef="0" IVar="10" Cut="7.8821983337402344e+01" cType="0" res="9.2528508976101875e-03" rms="4.9760922789573669e-01" purity="5.1097637414932251e-01" nType="0">
        <Node pos="l" depth="1" NCoef="0" IVar="3" Cut="1.0278714895248413e+00" cType="1" res="3.4264486283063889e-02" rms="4.9673926830291748e-01" purity="5.3965502977371216e-01" nType="0">
          <Node pos="l" depth="2" NCoef="0" IVar="-1" Cut="0.0000000000000000e+00" cType="1" res="1.6546192346140742e-03" rms="4.9509790539741516e-01" purity="5.5740129947662354e-01" nType="-99"/>
          <Node pos="r" depth="2" NCoef="0" IVar="-1" Cut="0.0000000000000000e+00" cType="1" res="-1.9387059146538377e-03" rms="4.9664154648780823e-01" purity="4.6273237466812134e-01" nType="-99"/>
        </Node>
        <Node pos="r" depth="1" NCoef="0" IVar="10" Cut="7.4822242736816406e+01" cType="0" res="-8.7510764598846436e-02" rms="4.8905849456787109e-01" purity="4.0002608299255371e-01" nType="0">
          <Node pos="l" depth="2" NCoef="0" IVar="-1" Cut="0.0000000000000000e+00" cType="1" res="-1.2498989235609770e-03" rms="4.9786344170570374e-01" purity="5.5095291137695312e-01" nType="-99"/>
          <Node pos="r" depth="2" NCoef="0" IVar="-1" Cut="0.0000000000000000e+00" cType="1" res="-4.6774721704423428e-03" rms="4.8260444402694702e-01" purity="3.7182945013046265e-01" nType="-99"/>
        </Node>
      </Node>
    </BinaryTree>
    <BinaryTree type="DecisionTree" boostWeight="1.0000000000000000e+00" itree="15">
      <Node pos="s" depth="0" NCoef="0" IVar="14" Cut="5.0764461517333984e+01" cType="0" res="-1.9656636286526918e-03" rms="4.9740254878997803e-01" purity="4.9938553571701050e-01" nType="0">
        <Node pos="l" depth="1" NCoef="0" IVar="7" Cut="7.9639726877212524e-01" cType="1" res="7.7352918684482574e-02" rms="4.8856103420257568e-01" purity="6.0422939062118530e-01" nType="0">
          <Node pos="l" depth="2" NCoef="0" IVar="-1" Cut="0.0000000000000000e+00" cType="1" res="6.2902676872909069e-03" rms="4.7924426198005676e-01" purity="6.4111876487731934e-01" nType="-99"/>
          <Node pos="r" depth="2" NCoef="0" IVar="-1" Cut="0.0000000000000000e+00" cType="1" res="4.3747999006882310e-04" rms="4.9976351857185364e-01" purity="5.0903105735778809e-01" nType="-99"/>
        </Node>
        <Node pos="r" depth="1" NCoef="0" IVar="3" Cut="1.2551000118255615e+00" cType="1" res="-2.5502890348434448e-02" rms="4.9756926298141479e-01" purity="4.6827387809753418e-01" nType="0">
          <Node pos="l" depth="2" NCoef="0" IVar="-1" Cut="0.0000000000000000e+00" cType="1" res="-6.5887084929272532e-04" rms="4.9811246991157532e-01" purity="4.8265963792800903e-01" nType="-99"/>
          <Node pos="r" depth="2" NCoef="0" IVar="-1" Cut="0.0000000000000000e+00" cType="1" res="-5.4562757723033428e-03" rms="4.8455622792243958e-01" purity="3.7806326150894165e-01" nType="-99"/>
        </Node>
      </Node>
    </BinaryTree>
    <BinaryTree type="DecisionTree" boostWeight="1.0000000000000000e+00" itree="16">
      <Node pos="s" depth="0" NCoef="0" IVar="14" Cut="3.8239559173583984e+01" cType="0" res="-7.6273423619568348e-03" rms="4.9707785248756409e-01" purity="4.9393215775489807e-01" nType="0">
        <Node pos="l" depth="1" NCoef="0" IVar="13" Cut="6.8026512145996094e+01" cType="0" res="3.3807188272476196e-02" rms="4.9587839841842651e-01" purity="5.4707711935043335e-01" nType="0">
          <Node pos="l" depth="2" NCoef="0" IVar="-1" Cut="0.0000000000000000e+00" cType="1" res="5.1746484823524952e-03" rms="4.8623499274253845e-01" purity="6.1431682109832764e-01" nType="-99"/>
          <Node pos="r" depth="2" NCoef="0" IVar="-1" Cut="0.0000000000000000e+00" cType="1" res="7.7794154640287161e-04" rms="4.9848380684852600e-01" purity="5.1390200853347778e-01" nType="-99"/>
        </Node>
        <Node pos="r" depth="1" NCoef="0" IVar="4" Cut="1.2566986083984375e+00" cType="1" res="-6.1796534806489944e-02" rms="4.9342140555381775e-01" purity="4.2445343732833862e-01" nType="0">
          <Node pos="l" depth="2" NCoef="0" IVar="-1" Cut="0.0000000000000000e+00" cType="1" res="-2.0798593759536743e-03" rms="4.9595502018928528e-01" purity="4.4400081038475037e-01" nType="-99"/>
          <Node pos="r" depth="2" NCoef="0" IVar="-1" Cut="0.0000000000000000e+00" cType="1" res="-6.5026427619159222e-03" rms="4.6554133296012878e-01" purity="3.1798502802848816e-01" nType="-99"/>
        </Node>
      </Node>
    </BinaryTree>
    <BinaryTree type="DecisionTree" boostWeight="1.0000000000000000e+00" itree="17">
      <Node pos="s" depth="0" NCoef="0" IVar="12" Cut="6.6809165954589844e+01" cType="0" res="-4.7277431003749371e-03" rms="4.9681109189987183e-01" purity="4.9685010313987732e-01" nType="0">
        <Node pos="l" depth="1" NCoef="0" IVar="3" Cut="1.4803919792175293e+00" cType="1" res="4.3852400034666061e-02" rms="4.9487310647964478e-01" purity="5.5990201234817505e-01" nType="0">
          <Node pos="l" depth="2" NCoef="0" IVar="-1" Cut="0.0000000000000000e+00" cType="1" res="2.9403348453342915e-03" rms="4.9315029382705688e-01" purity="5.7574737071990967e-01" nType="-99"/>
          <Node pos="r" depth="2" NCoef="0" IVar="-1" Cut="0.0000000000000000e+00" cType="1" res="-3.0092771630734205e-03" rms="4.8927193880081177e-01" purity="4.1533985733985901e-01" nType="-99"/>
        </Node>
        <Node pos="r" depth="1" NCoef="0" IVar="4" Cut="-1.2558089494705200e+00" cType="0" res="-4.8107609152793884e-02" rms="4.9451813101768494e-01" purity="4.4054764509201050e-01" nType="0">
          <Node pos="l" depth="2" NCoef="0" IVar="-1" Cut="0.0000000000000000e+00" cType="1" res="-1.6153593314811587e-03" rms="4.9678221344947815e-01" purity="4.6385049819946289e-01" nType="-99"/>
          <Node pos="r" depth="2" NCoef="0" IVar="-1" Cut="0.0000000000000000e+00" cType="1" res="-5.1609580405056477e-03" rms="4.6207788586616516e-01" purity="3.1111162900924683e-01" nType="-99"/>
        </Node>
      </Node>
    </BinaryTree>
    <BinaryTree type="DecisionTree" boostWeight="1.0000000000000000e+00" itree="18">
      <Node pos="s" depth="0" NCoef="0" IVar="12" Cut="6.6338661193847656e+01" cType="0" res="-1.4208015985786915e-02" rms="4.9736705422401428e-01" purity="4.8781773447990417e-01" nType="0">
        <Node pos="l" depth="1" NCoef="0" IVar="6" Cut="-5.7115399837493896e-01" cType="0" res="2.1269034594297409e-02" rms="4.9726590514183044e-01" purity="5.3818011283874512e-01" nType="0">
          <Node pos="l" depth="2" NCoef="0" IVar="-1" Cut="0.0000000000000000e+00" cType="1" res="3.4127717372030020e-03" rms="4.9477115273475647e-01" purity="5.6625336408615112e-01" nType="-99"/>
          <Node pos="r" depth="2" NCoef="0" IVar="-1" Cut="0.0000000000000000e+00" cType="1" res="-1.2239922943990678e-04" rms="4.9778771400451660e-01" purity="4.8076996207237244e-01" nType="-99"/>
        </Node>
        <Node pos="r" depth="1" NCoef="0" IVar="3" Cut="1.0162048339843750e+00" cType="1" res="-4.7634091228246689e-02" rms="4.9514201283454895e-01" purity="4.4036683440208435e-01" nType="0">
          <Node pos="l" depth="2" NCoef="0" IVar="-1" Cut="0.0000000000000000e+00" cType="1" res="-1.5806821174919605e-03" rms="4.9717572331428528e-01" purity="4.5877715945243835e-01" nType="-99"/>
          <Node pos="r" depth="2" NCoef="0" IVar="-1" Cut="0.0000000000000000e+00" cType="1" res="-4.2578233405947685e-03" rms="4.7842118144035339e-01" purity="3.5987415909767151e-01" nType="-99"/>
        </Node>
      </Node>
    </BinaryTree>
    <BinaryTree type="DecisionTree" boostWeight="1.0000000000000000e+00" itree="19">
      <Node pos="s" depth="0" NCoef="0" IVar="4" Cut="-8.0004602670669556e-01" cType="0" res="3.7018219009041786e-03" rms="4.9706947803497314e-01" purity="5.0581055879592896e-01" nType="0">
        <Node pos="l" depth="1" NCoef="0" IVar="4" Cut="1.0277333259582520e+00" cType="1" res="2.4254491552710533e-02" rms="4.9633216857910156e-01" purity="5.2718961238861084e-01" nType="0">
          <Node pos="l" depth="2" NCoef="0" IVar="-1" Cut="0.0000000000000000e+00" cType="1" res="1.7877409700304270e-03" rms="4.9465474486351013e-01" purity="5.5501770973205566e-01" nType="-99"/>
          <Node pos="r" depth="2" NCoef="0" IVar="-1" Cut="0.0000000000000000e+00" cType="1" res="-2.8480631299316883e-03" rms="4.9321818351745605e-01" purity="4.4532591104507446e-01" nType="-99"/>
        </Node>
        <Node pos="r" depth="1" NCoef="0" IVar="7" Cut="1.2555882930755615e+00" cType="1" res="-5.7916104793548584e-02" rms="4.9417689442634583e-01" purity="4.4171521067619324e-01" nType="0">
          <Node pos="l" depth="2" NCoef="0" IVar="-1" Cut="0.0000000000000000e+00" cType="1" res="-1.2326758587732911e-03" rms="4.9620974063873291e-01" purity="4.6342432498931885e-01" nType="-99"/>
          <Node pos="r" depth="2" NCoef="0" IVar="-1" Cut="0.0000000000000000e+00" cType="1" res="-9.0706394985318184e-03" rms="4.4834122061729431e-01" purity="2.8162157535552979e-01" nType="-99"/>
        </Node>
      </Node>
    </BinaryTree>
    <BinaryTree type="DecisionTree" boostWeight="1.0000000000000000e+00" itree="20">
      <Node pos="s" depth="0" NCoef="0" IVar="1" Cut="9.4362632751464844e+01" cType="0" res="4.6240705996751785e-03" rms="4.9726390838623047e-01" purity="5.0677084922790527e-01" nType="0">
        <Node pos="l" depth="1" NCoef="0" IVar="7" Cut="-1.2546330690383911e+00" cType="0" res="7.2193607687950134e-02" rms="4.9061197042465210e-01" purity="5.7842344045639038e-01" nType="0">
          <Node pos="l" depth="2" NCoef="0" IVar="-1" Cut="0.0000000000000000e+00" cType="1" res="3.6454233340919018e-03" rms="4.8673802614212036e-01" purity="6.0223805904388428e-01" nType="-99"/>
          <Node pos="r" depth="2" NCoef="0" IVar="-1" Cut="0.0000000000000000e+00" cType="1" res="-2.3577432148158550e-03" rms="4.9401170015335083e-01" purity="4.6092051267623901e-01" nType="-99"/>
        </Node>
        <Node pos="r" depth="1" NCoef="0" IVar="13" Cut="3.9057998657226562e+01" cType="0" res="-1.7515055835247040e-02" rms="4.9743181467056274e-01" purity="4.8329389095306396e-01" nType="0">
          <Node pos="l" depth="2" NCoef="0" IVar="-1" Cut="0.0000000000000000e+00" cType="1" res="-1.8163584172725677e-04" rms="4.9827256798744202e-01" purity="5.0204038619995117e-01" nType="-99"/>
          <Node pos="r" depth="2" NCoef="0" IVar="-1" Cut="0.0000000000000000e+00" cType="1" res="-4.4751749373972416e-03" rms="4.8717668652534485e-01" purity="3.9095810055732727e-01" nType="-99"/>
        </Node>
      </Node>
    </BinaryTree>
    <BinaryTree type="DecisionTree" boostWeight="1.0000000000000000e+00" itree="21">
      <Node pos="s" depth="0" NCoef="0" IVar="13" Cut="6.0946331024169922e+01" cType="0" res="7.7506951056420803e-03" rms="4.9719557166099548e-01" purity="5.0986796617507935e-01" nType="0">
        <Node pos="l" depth="1" NCoef="0" IVar="4" Cut="-5.7145828008651733e-01" cType="1" res="5.9058059006929398e-02" rms="4.9177184700965881e-01" purity="5.8576077222824097e-01" nType="0">
          <Node pos="l" depth="2" NCoef="0" IVar="-1" Cut="0.0000000000000000e+00" cType="1" res="4.1483989916741848e-03" rms="4.7105273604393005e-01" purity="6.6322159767150879e-01" nType="-99"/>
          <Node pos="r" depth="2" NCoef="0" IVar="-1" Cut="0.0000000000000000e+00" cType="1" res="3.3164930064231157e-03" rms="4.9584883451461792e-01" purity="5.5772316455841064e-01" nType="-99"/>
        </Node>
        <Node pos="r" depth="1" NCoef="0" IVar="7" Cut="-1.9392563104629517e+00" cType="0" res="-1.5104923397302628e-02" rms="4.9789339303970337e-01" purity="4.7606045007705688e-01" nType="0">
          <Node pos="l" depth="2" NCoef="0" IVar="-1" Cut="0.0000000000000000e+00" cType="1" res="-1.2644245289266109e-03" rms="4.9817675352096558e-01" purity="4.8443311452865601e-01" nType="-99"/>
          <Node pos="r" depth="2" NCoef="0" IVar="-1" Cut="0.0000000000000000e+00" cType="1" res="-6.1385366134345531e-03" rms="4.7487083077430725e-01" purity="3.4278988838195801e-01" nType="-99"/>
        </Node>
      </Node>
    </BinaryTree>
    <BinaryTree type="DecisionTree" boostWeight="1.0000000000000000e+00" itree="22">
      <Node pos="s" depth="0" NCoef="0" IVar="10" Cut="7.1178344726562500e+01" cType="0" res="-9.0001011267304420e-03" rms="4.9705857038497925e-01" purity="4.9323368072509766e-01" nType="0">
        <Node pos="l" depth="1" NCoef="0" IVar="1" Cut="9.5630668640136719e+01" cType="0" res="5.6198979727923870e-03" rms="4.9757611751556396e-01" purity="5.1139837503433228e-01" nType="0">
          <Node pos="l" depth="2" NCoef="0" IVar="-1" Cut="0.0000000000000000e+00" cType="1" res="3.0819633975625038e-03" rms="4.9155268073081970e-01" purity="5.6990981101989746e-01" nType="-99"/>
          <Node pos="r" depth="2" NCoef="0" IVar="-1" Cut="0.0000000000000000e+00" cType="1" res="-2.0731530094053596e-04" rms="4.9822261929512024e-01" purity="4.9172440171241760e-01" nType="-99"/>
        </Node>
        <Node pos="r" depth="1" NCoef="0" IVar="1" Cut="6.1566558837890625e+01" cType="0" res="-1.0786458104848862e-01" rms="4.8204421997070312e-01" purity="3.7039905786514282e-01" nType="0">
          <Node pos="l" depth="2" NCoef="0" IVar="-1" Cut="0.0000000000000000e+00" cType="1" res="-2.7262966614216566e-03" rms="4.9605450034141541e-01" purity="4.5164945721626282e-01" nType="-99"/>
          <Node pos="r" depth="2" NCoef="0" IVar="-1" Cut="0.0000000000000000e+00" cType="1" res="-5.9311897493898869e-03" rms="4.6439898014068604e-01" purity="3.1569945812225342e-01" nType="-99"/>
        </Node>
      </Node>
    </BinaryTree>
    <BinaryTree type="DecisionTree" boostWeight="1.0000000000000000e+00" itree="23">
      <Node pos="s" depth="0" NCoef="0" IVar="11" Cut="8.1614753723144531e+01" cType="0" res="5.3727077320218086e-03" rms="4.9646633863449097e-01" purity="5.0731056928634644e-01" nType="0">
        <Node pos="l" depth="1" NCoef="0" IVar="3" Cut="1.4806687831878662e+00" cType="1" res="4.3263994157314301e-02" rms="4.9407771229743958e-01" purity="5.5831515789031982e-01" nType="0">
          <Node pos="l" depth="2" NCoef="0" IVar="-1" Cut="0.0000000000000000e+00" cType="1" res="2.4268447887152433e-03" rms="4.9223831295967102e-01" purity="5.7188445329666138e-01" nType="-99"/>
          <Node pos="r" depth="2" NCoef="0" IVar="-1" Cut="0.0000000000000000e+00" cType="1" res="-4.0081907063722610e-03" rms="4.9361199140548706e-01" purity="4.2406344413757324e-01" nType="-99"/>
        </Node>
        <Node pos="r" depth="1" NCoef="0" IVar="3" Cut="-8.0145424604415894e-01" cType="0" res="-3.6716572940349579e-02" rms="4.9572238326072693e-01" purity="4.5065510272979736e-01" nType="0">
          <Node pos="l" depth="2" NCoef="0" IVar="-1" Cut="0.0000000000000000e+00" cType="1" res="-1.2090210802853107e-03" rms="4.9696356058120728e-01" purity="4.7535887360572815e-01" nType="-99"/>
          <Node pos="r" depth="2" NCoef="0" IVar="-1" Cut="0.0000000000000000e+00" cType="1" res="-4.3730228208005428e-03" rms="4.8484802246093750e-01" purity="3.7890827655792236e-01" nType="-99"/>
        </Node>
      </Node>
    </BinaryTree>
    <BinaryTree type="DecisionTree" boostWeight="1.0000000000000000e+00" itree="24">
      <Node pos="s" depth="0" NCoef="0" IVar="11" Cut="6.0833015441894531e+01" cType="0" res="-4.6169632114470005e-03" rms="4.9652105569839478e-01" purity="4.9719563126564026e-01" nType="0">
        <Node pos="l" depth="1" NCoef="0" IVar="4" Cut="-5.7146626710891724e-01" cType="0" res="1.3681922107934952e-02" rms="4.9681907892227173e-01" purity="5.2105134725570679e-01" nType="0">
          <Node pos="l" depth="2" NCoef="0" IVar="-1" Cut="0.0000000000000000e+00" cType="1" res="1.3018703320994973e-03" rms="4.9523034691810608e-01" purity="5.4807829856872559e-01" nType="-99"/>
          <Node pos="r" depth="2" NCoef="0" IVar="-1" Cut="0.0000000000000000e+00" cType="1" res="-5.9506046818569303e-04" rms="4.9576056003570557e-01" purity="4.6372324228286743e-01" nType="-99"/>
        </Node>
        <Node pos="r" depth="1" NCoef="0" IVar="5" Cut="-7.8964596986770630e-01" cType="0" res="-8.5916727781295776e-02" rms="4.8695027828216553e-01" purity="3.9120736718177795e-01" nType="0">
          <Node pos="l" depth="2" NCoef="0" IVar="-1" Cut="0.0000000000000000e+00" cType="1" res="-2.6388927362859249e-03" rms="4.9383735656738281e-01" purity="4.3153047561645508e-01" nType="-99"/>
          <Node pos="r" depth="2" NCoef="0" IVar="-1" Cut="0.0000000000000000e+00" cType="1" res="-6.1007854528725147e-03" rms="4.5438390970230103e-01" purity="2.9165714979171753e-01" nType="-99"/>
        </Node>
      </Node>
    </BinaryTree>
    <BinaryTree type="DecisionTree" boostWeight="1.0000000000000000e+00" itree="25">
      <Node pos="s" depth="0" NCoef="0" IVar="14" Cut="4.4680778503417969e+01" cType="0" res="-3.4484465140849352e-03" rms="4.9614867568016052e-01" purity="4.9836620688438416e-01" nType="0">
        <Node pos="l" depth="1" NCoef="0" IVar="4" Cut="-1.4850389957427979e+00" cType="0" res="4.7727674245834351e-02" rms="4.9215254187583923e-01" purity="5.7616704702377319e-01" nType="0">
          <Node pos="l" depth="2" NCoef="0" IVar="-1" Cut="0.0000000000000000e+00" cType="1" res="3.1519623007625341e-03" rms="4.9019753932952881e-01" purity="5.8972102403640747e-01" nType="-99"/>
          <Node pos="r" depth="2" NCoef="0" IVar="-1" Cut="0.0000000000000000e+00" cType="1" res="-1.2729582376778126e-03" rms="4.9348753690719604e-01" purity="4.4279655814170837e-01" nType="-99"/>
        </Node>
        <Node pos="r" depth="1" NCoef="0" IVar="4" Cut="-1.0291718244552612e+00" cType="0" res="-3.2574456185102463e-02" rms="4.9605676531791687e-01" purity="4.5408719778060913e-01" nType="0">
          <Node pos="l" depth="2" NCoef="0" IVar="-1" Cut="0.0000000000000000e+00" cType="1" res="-9.3775225104764104e-04" rms="4.9758857488632202e-01" purity="4.7374165058135986e-01" nType="-99"/>
          <Node pos="r" depth="2" NCoef="0" IVar="-1" Cut="0.0000000000000000e+00" cType="1" res="-4.1152047924697399e-03" rms="4.8159334063529968e-01" purity="3.6986637115478516e-01" nType="-99"/>
        </Node>
      </Node>
    </BinaryTree>
    <BinaryTree type="DecisionTree" boostWeight="1.0000000000000000e+00" itree="26">
      <Node pos="s" depth="0" NCoef="0" IVar="25" Cut="7.3842926025390625e+00" cType="0" res="-7.4734212830662727e-04" rms="4.9669775366783142e-01" purity="5.0195735692977905e-01" nType="0">
        <Node pos="l" depth="1" NCoef="0" IVar="6" Cut="-1.4831789731979370e+00" cType="0" res="3.4829020500183105e-02" rms="4.9487838149070740e-01" purity="5.4814475774765015e-01" nType="0">
          <Node pos="l" depth="2" NCoef="0" IVar="-1" Cut="0.0000000000000000e+00" cType="1" res="1.7945360159501433e-03" rms="4.9300241470336914e-01" purity="5.6632989645004272e-01" nType="-99"/>
          <Node pos="r" depth="2" NCoef="0" IVar="-1" Cut="0.0000000000000000e+00" cType="1" res="-4.5026042498648167e-03" rms="4.8626372218132019e-01" purity="3.9340779185295105e-01" nType="-99"/>
        </Node>
        <Node pos="r" depth="1" NCoef="0" IVar="7" Cut="-1.0271457433700562e+00" cType="0" res="-4.0047366172075272e-02" rms="4.9574074149131775e-01" purity="4.5093563199043274e-01" nType="0">
          <Node pos="l" depth="2" NCoef="0" IVar="-1" Cut="0.0000000000000000e+00" cType="1" res="-2.8317319811321795e-04" rms="4.9732950329780579e-01" purity="4.7260162234306335e-01" nType="-99"/>
          <Node pos="r" depth="2" NCoef="0" IVar="-1" Cut="0.0000000000000000e+00" cType="1" res="-4.8958635888993740e-03" rms="4.8388248682022095e-01" purity="3.7738335132598877e-01" nType="-99"/>
        </Node>
      </Node>
    </BinaryTree>
    <BinaryTree type="DecisionTree" boostWeight="1.0000000000000000e+00" itree="27">
      <Node pos="s" depth="0" NCoef="0" IVar="11" Cut="1.1489989471435547e+02" cType="0" res="3.9909509941935539e-03" rms="4.9679446220397949e-01" purity="5.0631797313690186e-01" nType="0">
        <Node pos="l" depth="1" NCoef="0" IVar="10" Cut="1.5238304138183594e+02" cType="1" res="7.2269022464752197e-02" rms="4.8819628357887268e-01" purity="5.9736424684524536e-01" nType="0">
          <Node pos="l" depth="2" NCoef="0" IVar="-1" Cut="0.0000000000000000e+00" cType="1" res="5.8942842297255993e-03" rms="4.4792127609252930e-01" purity="7.1907961368560791e-01" nType="-99"/>
          <Node pos="r" depth="2" NCoef="0" IVar="-1" Cut="0.0000000000000000e+00" cType="1" res="1.8767572473734617e-03" rms="4.9322435259819031e-01" purity="5.6293350458145142e-01" nType="-99"/>
        </Node>
        <Node pos="r" depth="1" NCoef="0" IVar="7" Cut="-1.0271457433700562e+00" cType="0" res="-1.4873509295284748e-02" rms="4.9749448895454407e-01" purity="4.8116296529769897e-01" nType="0">
          <Node pos="l" depth="2" NCoef="0" IVar="-1" Cut="0.0000000000000000e+00" cType="1" res="-1.6975545804598369e-05" rms="4.9790242314338684e-01" purity="5.0218057632446289e-01" nType="-99"/>
          <Node pos="r" depth="2" NCoef="0" IVar="-1" Cut="0.0000000000000000e+00" cType="1" res="-3.8046916015446186e-03" rms="4.9002367258071899e-01" purity="4.0825250744819641e-01" nType="-99"/>
        </Node>
      </Node>
    </BinaryTree>
    <BinaryTree type="DecisionTree" boostWeight="1.0000000000000000e+00" itree="28">
      <Node pos="s" depth="0" NCoef="0" IVar="14" Cut="3.8239559173583984e+01" cType="0" res="5.1502771675586700e-03" rms="4.9639844894409180e-01" purity="5.0720435380935669e-01" nType="0">
        <Node pos="l" depth="1" NCoef="0" IVar="8" Cut="1.0280380249023438e+00" cType="1" res="4.4057276099920273e-02" rms="4.9444279074668884e-01" purity="5.6234467029571533e-01" nType="0">
          <Node pos="l" depth="2" NCoef="0" IVar="-1" Cut="0.0000000000000000e+00" cType="1" res="2.4378483649343252e-03" rms="4.9076387286186218e-01" purity="5.8284461498260498e-01" nType="-99"/>
          <Node pos="r" depth="2" NCoef="0" IVar="-1" Cut="0.0000000000000000e+00" cType="1" res="-4.3068744707852602e-04" rms="5.0018858909606934e-01" purity="4.8666539788246155e-01" nType="-99"/>
        </Node>
        <Node pos="r" depth="1" NCoef="0" IVar="6" Cut="-1.4842791557312012e+00" cType="0" res="-4.4393651187419891e-02" rms="4.9446609616279602e-01" purity="4.3698900938034058e-01" nType="0">
          <Node pos="l" depth="2" NCoef="0" IVar="-1" Cut="0.0000000000000000e+00" cType="1" res="-2.0466139540076256e-03" rms="4.9609073996543884e-01" purity="4.5316803455352783e-01" nType="-99"/>
          <Node pos="r" depth="2" NCoef="0" IVar="-1" Cut="0.0000000000000000e+00" cType="1" res="-5.2554532885551453e-03" rms="4.6884086728096008e-01" purity="3.2412049174308777e-01" nType="-99"/>
        </Node>
      </Node>
    </BinaryTree>
    <BinaryTree type="DecisionTree" boostWeight="1.0000000000000000e+00" itree="29">
      <Node pos="s" depth="0" NCoef="0" IVar="7" Cut="-1.0278972387313843e+00" cType="0" res="-1.3302966253831983e-03" rms="4.9714949727058411e-01" purity="5.0105094909667969e-01" nType="0">
        <Node pos="l" depth="1" NCoef="0" IVar="4" Cut="-5.7170426845550537e-01" cType="0" res="1.3855935074388981e-02" rms="4.9694490432739258e-01" purity="5.1801431179046631e-01" nType="0">
          <Node pos="l" depth="2" NCoef="0" IVar="-1" Cut="0.0000000000000000e+00" cType="1" res="1.4618278946727514e-03" rms="4.9617046117782593e-01" purity="5.4416346549987793e-01" nType="-99"/>
          <Node pos="r" depth="2" NCoef="0" IVar="-1" Cut="0.0000000000000000e+00" cType="1" res="-1.5021372819319367e-03" rms="4.9390363693237305e-01" purity="4.5468035340309143e-01" nType="-99"/>
        </Node>
        <Node pos="r" depth="1" NCoef="0" IVar="16" Cut="1.3425580263137817e+00" cType="1" res="-5.7280842214822769e-02" rms="4.9388948082923889e-01" purity="4.3855288624763489e-01" nType="0">
          <Node pos="l" depth="2" NCoef="0" IVar="-1" Cut="0.0000000000000000e+00" cType="1" res="-1.7636140109971166e-03" rms="4.9657329916954041e-01" purity="4.8422607779502869e-01" nType="-99"/>
          <Node pos="r" depth="2" NCoef="0" IVar="-1" Cut="0.0000000000000000e+00" cType="1" res="-4.7873817384243011e-03" rms="4.7629362344741821e-01" purity="3.5136175155639648e-01" nType="-99"/>
        </Node>
      </Node>
    </BinaryTree>
    <BinaryTree type="DecisionTree" boostWeight="1.0000000000000000e+00" itree="30">
      <Node pos="s" depth="0" NCoef="0" IVar="13" Cut="5.5234409332275391e+01" cType="0" res="-1.1016947682946920e-03" rms="4.9621191620826721e-01" purity="5.0085401535034180e-01" nType="0">
        <Node pos="l" depth="1" NCoef="0" IVar="5" Cut="1.4812062978744507e+00" cType="1" res="3.5469174385070801e-02" rms="4.9400183558464050e-01" purity="5.6318384408950806e-01" nType="0">
          <Node pos="l" depth="2" NCoef="0" IVar="-1" Cut="0.0000000000000000e+00" cType="1" res="3.0510399956256151e-03" rms="4.9223321676254272e-01" purity="5.7508867979049683e-01" nType="-99"/>
          <Node pos="r" depth="2" NCoef="0" IVar="-1" Cut="0.0000000000000000e+00" cType="1" res="-2.0180505234748125e-03" rms="4.9635159969329834e-01" purity="4.4713819026947021e-01" nType="-99"/>
        </Node>
        <Node pos="r" depth="1" NCoef="0" IVar="7" Cut="-1.0277923345565796e+00" cType="0" res="-2.6716614142060280e-02" rms="4.9615141749382019e-01" purity="4.5719704031944275e-01" nType="0">
          <Node pos="l" depth="2" NCoef="0" IVar="-1" Cut="0.0000000000000000e+00" cType="1" res="-8.5350003791972995e-04" rms="4.9812546372413635e-01" purity="4.8411348462104797e-01" nType="-99"/>
          <Node pos="r" depth="2" NCoef="0" IVar="-1" Cut="0.0000000000000000e+00" cType="1" res="-4.6317675150930882e-03" rms="4.8161727190017700e-01" purity="3.7077534198760986e-01" nType="-99"/>
        </Node>
      </Node>
    </BinaryTree>
    <BinaryTree type="DecisionTree" boostWeight="1.0000000000000000e+00" itree="31">
      <Node pos="s" depth="0" NCoef="0" IVar="12" Cut="4.9458885192871094e+01" cType="0" res="-1.0373618453741074e-02" rms="4.9566441774368286e-01" purity="4.9143639206886292e-01" nType="0">
        <Node pos="l" depth="1" NCoef="0" IVar="5" Cut="-1.4833726882934570e+00" cType="0" res="8.7660551071166992e-03" rms="4.9645340442657471e-01" purity="5.1766800880432129e-01" nType="0">
          <Node pos="l" depth="2" NCoef="0" IVar="-1" Cut="0.0000000000000000e+00" cType="1" res="1.3053074944764376e-03" rms="4.9587824940681458e-01" purity="5.3307235240936279e-01" nType="-99"/>
          <Node pos="r" depth="2" NCoef="0" IVar="-1" Cut="0.0000000000000000e+00" cType="1" res="-3.4727393649518490e-03" rms="4.8386362195014954e-01" purity="3.8836839795112610e-01" nType="-99"/>
        </Node>
        <Node pos="r" depth="1" NCoef="0" IVar="7" Cut="-1.2572563886642456e+00" cType="0" res="-8.9614592492580414e-02" rms="4.8440346121788025e-01" purity="3.8283374905586243e-01" nType="0">
          <Node pos="l" depth="2" NCoef="0" IVar="-1" Cut="0.0000000000000000e+00" cType="1" res="-2.6308826636523008e-03" rms="4.8991110920906067e-01" purity="4.0700465440750122e-01" nType="-99"/>
          <Node pos="r" depth="2" NCoef="0" IVar="-1" Cut="0.0000000000000000e+00" cType="1" res="-7.6768496073782444e-03" rms="4.5016360282897949e-01" purity="2.8337073326110840e-01" nType="-99"/>
        </Node>
      </Node>
    </BinaryTree>
    <BinaryTree type="DecisionTree" boostWeight="1.0000000000000000e+00" itree="32">
      <Node pos="s" depth="0" NCoef="0" IVar="7" Cut="-1.7107367515563965e+00" cType="0" res="5.4176044650375843e-03" rms="4.9597722291946411e-01" purity="5.0776159763336182e-01" nType="0">
        <Node pos="l" depth="1" NCoef="0" IVar="10" Cut="7.6491752624511719e+01" cType="0" res="1.5214972198009491e-02" rms="4.9599045515060425e-01" purity="5.1881736516952515e-01" nType="0">
          <Node pos="l" depth="2" NCoef="0" IVar="-1" Cut="0.0000000000000000e+00" cType="1" res="9.5294992206618190e-04" rms="4.9583911895751953e-01" purity="5.4051303863525391e-01" nType="-99"/>
          <Node pos="r" depth="2" NCoef="0" IVar="-1" Cut="0.0000000000000000e+00" cType="1" res="-3.4720187541097403e-03" rms="4.8979994654655457e-01" purity="4.1331857442855835e-01" nType="-99"/>
        </Node>
        <Node pos="r" depth="1" NCoef="0" IVar="6" Cut="3.3752107620239258e-01" cType="1" res="-1.0573195666074753e-01" rms="4.8208028078079224e-01" purity="3.8233512639999390e-01" nType="0">
          <Node pos="l" depth="2" NCoef="0" IVar="-1" Cut="0.0000000000000000e+00" cType="1" res="-1.0312104132026434e-03" rms="4.9537754058837891e-01" purity="4.5257613062858582e-01" nType="-99"/>
          <Node pos="r" depth="2" NCoef="0" IVar="-1" Cut="0.0000000000000000e+00" cType="1" res="-7.2552477940917015e-03" rms="4.3237113952636719e-01" purity="2.5978189706802368e-01" nType="-99"/>
        </Node>
      </Node>
    </BinaryTree>
    <BinaryTree type="DecisionTree" boostWeight="1.0000000000000000e+00" itree="33">
      <Node pos="s" depth="0" NCoef="0" IVar="13" Cut="5.0589015960693359e+01" cType="0" res="-2.2523549851030111e-03" rms="4.9576303362846375e-01" purity="4.9993720650672913e-01" nType="0">
        <Node pos="l" depth="1" NCoef="0" IVar="3" Cut="1.4814175367355347e+00" cType="1" res="3.3951923251152039e-02" rms="4.9420791864395142e-01" purity="5.5717623233795166e-01" nType="0">
          <Node pos="l" depth="2" NCoef="0" IVar="-1" Cut="0.0000000000000000e+00" cType="1" res="2.6209715288132429e-03" rms="4.9268522858619690e-01" purity="5.6931769847869873e-01" nType="-99"/>
          <Node pos="r" depth="2" NCoef="0" IVar="-1" Cut="0.0000000000000000e+00" cType="1" res="-3.6641417536884546e-03" rms="4.9450740218162537e-01" purity="4.3445363640785217e-01" nType="-99"/>
        </Node>
        <Node pos="r" depth="1" NCoef="0" IVar="4" Cut="1.2538033723831177e+00" cType="1" res="-4.1386306285858154e-02" rms="4.9446621537208557e-01" purity="4.3806636333465576e-01" nType="0">
          <Node pos="l" depth="2" NCoef="0" IVar="-1" Cut="0.0000000000000000e+00" cType="1" res="-1.5482433373108506e-03" rms="4.9628731608390808e-01" purity="4.5551434159278870e-01" nType="-99"/>
          <Node pos="r" depth="2" NCoef="0" IVar="-1" Cut="0.0000000000000000e+00" cType="1" res="-5.4379622451961040e-03" rms="4.6772715449333191e-01" purity="3.2549926638603210e-01" nType="-99"/>
        </Node>
      </Node>
    </BinaryTree>
    <BinaryTree type="DecisionTree" boostWeight="1.0000000000000000e+00" itree="34">
      <Node pos="s" depth="0" NCoef="0" IVar="13" Cut="4.3903644561767578e+01" cType="0" res="1.0383355431258678e-02" rms="4.9500897526741028e-01" purity="5.1234036684036255e-01" nType="0">
        <Node pos="l" depth="1" NCoef="0" IVar="5" Cut="-1.7129110097885132e+00" cType="0" res="3.9362177252769470e-02" rms="4.9377852678298950e-01" purity="5.5369621515274048e-01" nType="0">
          <Node pos="l" depth="2" NCoef="0" IVar="-1" Cut="0.0000000000000000e+00" cType="1" res="1.3178973458707333e-03" rms="4.9270877242088318e-01" purity="5.6480634212493896e-01" nType="-99"/>
          <Node pos="r" depth="2" NCoef="0" IVar="-1" Cut="0.0000000000000000e+00" cType="1" res="-4.9741137772798538e-03" rms="4.8685255646705627e-01" purity="4.0427449345588684e-01" nType="-99"/>
        </Node>
        <Node pos="r" depth="1" NCoef="0" IVar="0" Cut="-1.3001292943954468e+00" cType="1" res="-5.6212514638900757e-02" rms="4.9139091372489929e-01" purity="4.1730090975761414e-01" nType="0">
          <Node pos="l" depth="2" NCoef="0" IVar="-1" Cut="0.0000000000000000e+00" cType="1" res="-1.7289392417296767e-03" rms="4.9554949998855591e-01" purity="5.6694799661636353e-01" nType="-99"/>
          <Node pos="r" depth="2" NCoef="0" IVar="-1" Cut="0.0000000000000000e+00" cType="1" res="-2.3632869124412537e-03" rms="4.8917555809020996e-01" purity="4.0584537386894226e-01" nType="-99"/>
        </Node>
      </Node>
    </BinaryTree>
    <BinaryTree type="DecisionTree" boostWeight="1.0000000000000000e+00" itree="35">
      <Node pos="s" depth="0" NCoef="0" IVar="2" Cut="-2.8423151969909668e+00" cType="1" res="4.6074480633251369e-04" rms="4.9595275521278381e-01" purity="5.0291782617568970e-01" nType="0">
        <Node pos="l" depth="1" NCoef="0" IVar="17" Cut="1.5199902653694153e-01" cType="1" res="2.1501608192920685e-01" rms="4.4711712002754211e-01" purity="7.1939247846603394e-01" nType="0">
          <Node pos="l" depth="2" NCoef="0" IVar="-1" Cut="0.0000000000000000e+00" cType="1" res="5.5724610574543476e-03" rms="3.9954462647438049e-01" purity="7.9544377326965332e-01" nType="-99"/>
          <Node pos="r" depth="2" NCoef="0" IVar="-1" Cut="0.0000000000000000e+00" cType="1" res="2.8700348921120167e-03" rms="4.7403994202613831e-01" purity="6.5531837940216064e-01" nType="-99"/>
        </Node>
        <Node pos="r" depth="1" NCoef="0" IVar="12" Cut="4.8590328216552734e+01" cType="0" res="-7.8085856512188911e-03" rms="4.9588462710380554e-01" purity="4.9457451701164246e-01" nType="0">
          <Node pos="l" depth="2" NCoef="0" IVar="-1" Cut="0.0000000000000000e+00" cType="1" res="4.7519395593553782e-04" rms="4.9662053585052490e-01" purity="5.1965093612670898e-01" nType="-99"/>
          <Node pos="r" depth="2" NCoef="0" IVar="-1" Cut="0.0000000000000000e+00" cType="1" res="-3.6674498114734888e-03" rms="4.8449277877807617e-01" purity="3.8068583607673645e-01" nType="-99"/>
        </Node>
      </Node>
    </BinaryTree>
    <BinaryTree type="DecisionTree" boostWeight="1.0000000000000000e+00" itree="36">
      <Node pos="s" depth="0" NCoef="0" IVar="3" Cut="1.2529281377792358e+00" cType="1" res="5.5273114703595638e-03" rms="4.9595263600349426e-01" purity="5.0778323411941528e-01" nType="0">
        <Node pos="l" depth="1" NCoef="0" IVar="11" Cut="6.0833015441894531e+01" cType="0" res="2.0012278109788895e-02" rms="4.9552813172340393e-01" purity="5.2301132678985596e-01" nType="0">
          <Node pos="l" depth="2" NCoef="0" IVar="-1" Cut="0.0000000000000000e+00" cType="1" res="1.2008097255602479e-03" rms="4.9497154355049133e-01" purity="5.4560345411300659e-01" nType="-99"/>
          <Node pos="r" depth="2" NCoef="0" IVar="-1" Cut="0.0000000000000000e+00" cType="1" res="-2.6381914503872395e-03" rms="4.9240431189537048e-01" purity="4.2113754153251648e-01" nType="-99"/>
        </Node>
        <Node pos="r" depth="1" NCoef="0" IVar="0" Cut="-6.9349861145019531e-01" cType="0" res="-8.5198953747749329e-02" rms="4.8893740773200989e-01" purity="4.1240227222442627e-01" nType="0">
          <Node pos="l" depth="2" NCoef="0" IVar="-1" Cut="0.0000000000000000e+00" cType="1" res="-3.0047872569411993e-03" rms="4.9380376935005188e-01" purity="4.5237302780151367e-01" nType="-99"/>
          <Node pos="r" depth="2" NCoef="0" IVar="-1" Cut="0.0000000000000000e+00" cType="1" res="-6.8058879114687443e-03" rms="4.4325301051139832e-01" purity="2.7287358045578003e-01" nType="-99"/>
        </Node>
      </Node>
    </BinaryTree>
    <BinaryTree type="DecisionTree" boostWeight="1.0000000000000000e+00" itree="37">
      <Node pos="s" depth="0" NCoef="0" IVar="8" Cut="1.4850230216979980e+00" cType="1" res="-1.3399996794760227e-02" rms="4.9548354744911194e-01" purity="4.8830026388168335e-01" nType="0">
        <Node pos="l" depth="1" NCoef="0" IVar="14" Cut="4.9826530456542969e+01" cType="0" res="-6.4099708106368780e-04" rms="4.9533048272132874e-01" purity="5.0117790699005127e-01" nType="0">
          <Node pos="l" depth="2" NCoef="0" IVar="-1" Cut="0.0000000000000000e+00" cType="1" res="3.3666577655822039e-03" rms="4.8669314384460449e-01" purity="6.0736668109893799e-01" nType="-99"/>
          <Node pos="r" depth="2" NCoef="0" IVar="-1" Cut="0.0000000000000000e+00" cType="1" res="-7.6661870116367936e-04" rms="4.9622401595115662e-01" purity="4.6703144907951355e-01" nType="-99"/>
        </Node>
        <Node pos="r" depth="1" NCoef="0" IVar="0" Cut="6.9659066200256348e-01" cType="0" res="-9.8426677286624908e-02" rms="4.8805746436119080e-01" purity="4.0248286724090576e-01" nType="0">
          <Node pos="l" depth="2" NCoef="0" IVar="-1" Cut="0.0000000000000000e+00" cType="1" res="4.5738387852907181e-03" rms="4.9616506695747375e-01" purity="5.4572159051895142e-01" nType="-99"/>
          <Node pos="r" depth="2" NCoef="0" IVar="-1" Cut="0.0000000000000000e+00" cType="1" res="-4.7367974184453487e-03" rms="4.7457441687583923e-01" purity="3.5104799270629883e-01" nType="-99"/>
        </Node>
      </Node>
    </BinaryTree>
    <BinaryTree type="DecisionTree" boostWeight="1.0000000000000000e+00" itree="38">
      <Node pos="s" depth="0" NCoef="0" IVar="14" Cut="4.6480594635009766e+01" cType="0" res="-1.1606749147176743e-02" rms="4.9504274129867554e-01" purity="4.8999071121215820e-01" nType="0">
        <Node pos="l" depth="1" NCoef="0" IVar="24" Cut="1.3026516914367676e+01" cType="1" res="5.4788265377283096e-02" rms="4.8967286944389343e-01" purity="5.9417665004730225e-01" nType="0">
          <Node pos="l" depth="2" NCoef="0" IVar="-1" Cut="0.0000000000000000e+00" cType="1" res="4.9072969704866409e-03" rms="4.8226633667945862e-01" purity="6.2350010871887207e-01" nType="-99"/>
          <Node pos="r" depth="2" NCoef="0" IVar="-1" Cut="0.0000000000000000e+00" cType="1" res="8.9990309788845479e-05" rms="4.9727946519851685e-01" purity="5.4105645418167114e-01" nType="-99"/>
        </Node>
        <Node pos="r" depth="1" NCoef="0" IVar="3" Cut="-1.0276439189910889e+00" cType="0" res="-4.0521588176488876e-02" rms="4.9458494782447815e-01" purity="4.4461801648139954e-01" nType="0">
          <Node pos="l" depth="2" NCoef="0" IVar="-1" Cut="0.0000000000000000e+00" cType="1" res="-8.5876276716589928e-04" rms="4.9577933549880981e-01" purity="4.5946133136749268e-01" nType="-99"/>
          <Node pos="r" depth="2" NCoef="0" IVar="-1" Cut="0.0000000000000000e+00" cType="1" res="-3.8743277546018362e-03" rms="4.8434233665466309e-01" purity="3.8015508651733398e-01" nType="-99"/>
        </Node>
      </Node>
    </BinaryTree>
    <BinaryTree type="DecisionTree" boostWeight="1.0000000000000000e+00" itree="39">
      <Node pos="s" depth="0" NCoef="0" IVar="12" Cut="6.6010208129882812e+01" cType="0" res="4.5614466071128845e-03" rms="4.9511727690696716e-01" purity="5.0575447082519531e-01" nType="0">
        <Node pos="l" depth="1" NCoef="0" IVar="6" Cut="1.2503364086151123e+00" cType="1" res="4.0764290839433670e-02" rms="4.9352341890335083e-01" purity="5.6643736362457275e-01" nType="0">
          <Node pos="l" depth="2" NCoef="0" IVar="-1" Cut="0.0000000000000000e+00" cType="1" res="2.0030611194670200e-03" rms="4.9117901921272278e-01" purity="5.8069837093353271e-01" nType="-99"/>
          <Node pos="r" depth="2" NCoef="0" IVar="-1" Cut="0.0000000000000000e+00" cType="1" res="-1.5205350937321782e-03" rms="4.9884232878684998e-01" purity="4.8197013139724731e-01" nType="-99"/>
        </Node>
        <Node pos="r" depth="1" NCoef="0" IVar="26" Cut="8.8330793380737305e+00" cType="0" res="-2.8165131807327271e-02" rms="4.9427700042724609e-01" purity="4.5089849829673767e-01" nType="0">
          <Node pos="l" depth="2" NCoef="0" IVar="-1" Cut="0.0000000000000000e+00" cType="1" res="-1.0345199843868613e-03" rms="4.6461758017539978e-01" purity="6.7277640104293823e-01" nType="-99"/>
          <Node pos="r" depth="2" NCoef="0" IVar="-1" Cut="0.0000000000000000e+00" cType="1" res="-1.5892568044364452e-03" rms="4.9364864826202393e-01" purity="4.4005051255226135e-01" nType="-99"/>
        </Node>
      </Node>
    </BinaryTree>
    <BinaryTree type="DecisionTree" boostWeight="1.0000000000000000e+00" itree="40">
      <Node pos="s" depth="0" NCoef="0" IVar="4" Cut="1.4843450784683228e+00" cType="1" res="-3.9420207031071186e-03" rms="4.9578320980072021e-01" purity="4.9841943383216858e-01" nType="0">
        <Node pos="l" depth="1" NCoef="0" IVar="3" Cut="1.7106516361236572e+00" cType="1" res="5.3883963264524937e-03" rms="4.9576726555824280e-01" purity="5.0842517614364624e-01" nType="0">
          <Node pos="l" depth="2" NCoef="0" IVar="-1" Cut="0.0000000000000000e+00" cType="1" res="6.1322358669713140e-04" rms="4.9579700827598572e-01" purity="5.1589047908782959e-01" nType="-99"/>
          <Node pos="r" depth="2" NCoef="0" IVar="-1" Cut="0.0000000000000000e+00" cType="1" res="-5.2657932974398136e-03" rms="4.7627395391464233e-01" purity="3.6745268106460571e-01" nType="-99"/>
        </Node>
        <Node pos="r" depth="1" NCoef="0" IVar="8" Cut="-5.7188588380813599e-01" cType="0" res="-9.6451371908187866e-02" rms="4.8635011911392212e-01" purity="3.9921441674232483e-01" nType="0">
          <Node pos="l" depth="2" NCoef="0" IVar="-1" Cut="0.0000000000000000e+00" cType="1" res="-2.5459392927587032e-03" rms="4.9537640810012817e-01" purity="4.5303797721862793e-01" nType="-99"/>
          <Node pos="r" depth="2" NCoef="0" IVar="-1" Cut="0.0000000000000000e+00" cType="1" res="-8.0628395080566406e-03" rms="4.3724402785301208e-01" purity="2.6927825808525085e-01" nType="-99"/>
        </Node>
      </Node>
    </BinaryTree>
    <BinaryTree type="DecisionTree" boostWeight="1.0000000000000000e+00" itree="41">
      <Node pos="s" depth="0" NCoef="0" IVar="14" Cut="4.6478534698486328e+01" cType="0" res="-3.4850744996219873e-03" rms="4.9451845884323120e-01" purity="4.9787014722824097e-01" nType="0">
        <Node pos="l" depth="1" NCoef="0" IVar="24" Cut="1.8905395507812500e+01" cType="1" res="6.4051114022731781e-02" rms="4.8695802688598633e-01" purity="6.0537600517272949e-01" nType="0">
          <Node pos="l" depth="2" NCoef="0" IVar="-1" Cut="0.0000000000000000e+00" cType="1" res="3.7788532208651304e-03" rms="4.8250624537467957e-01" purity="6.2269276380538940e-01" nType="-99"/>
          <Node pos="r" depth="2" NCoef="0" IVar="-1" Cut="0.0000000000000000e+00" cType="1" res="-3.5449443385004997e-03" rms="4.9594819545745850e-01" purity="4.5186704397201538e-01" nType="-99"/>
        </Node>
        <Node pos="r" depth="1" NCoef="0" IVar="13" Cut="3.8284763336181641e+01" cType="0" res="-3.3444430679082870e-02" rms="4.9489322304725647e-01" purity="4.5018011331558228e-01" nType="0">
          <Node pos="l" depth="2" NCoef="0" IVar="-1" Cut="0.0000000000000000e+00" cType="1" res="-7.3198002064600587e-04" rms="4.9744081497192383e-01" purity="4.7321504354476929e-01" nType="-99"/>
          <Node pos="r" depth="2" NCoef="0" IVar="-1" Cut="0.0000000000000000e+00" cType="1" res="-3.5891488660126925e-03" rms="4.8000332713127136e-01" purity="3.6610364913940430e-01" nType="-99"/>
        </Node>
      </Node>
    </BinaryTree>
    <BinaryTree type="DecisionTree" boostWeight="1.0000000000000000e+00" itree="42">
      <Node pos="s" depth="0" NCoef="0" IVar="3" Cut="1.2550436258316040e+00" cType="1" res="-2.0427813287824392e-03" rms="4.9501854181289673e-01" purity="4.9990952014923096e-01" nType="0">
        <Node pos="l" depth="1" NCoef="0" IVar="11" Cut="5.7677303314208984e+01" cType="0" res="1.0958907194435596e-02" rms="4.9542039632797241e-01" purity="5.1448452472686768e-01" nType="0">
          <Node pos="l" depth="2" NCoef="0" IVar="-1" Cut="0.0000000000000000e+00" cType="1" res="1.1266128858551383e-03" rms="4.9572116136550903e-01" purity="5.3514128923416138e-01" nType="-99"/>
          <Node pos="r" depth="2" NCoef="0" IVar="-1" Cut="0.0000000000000000e+00" cType="1" res="-3.3775982446968555e-03" rms="4.8532208800315857e-01" purity="3.8880825042724609e-01" nType="-99"/>
        </Node>
        <Node pos="r" depth="1" NCoef="0" IVar="14" Cut="4.1423229217529297e+01" cType="0" res="-8.2252271473407745e-02" rms="4.8488292098045349e-01" purity="4.0999388694763184e-01" nType="0">
          <Node pos="l" depth="2" NCoef="0" IVar="-1" Cut="0.0000000000000000e+00" cType="1" res="-1.5776186482980847e-03" rms="4.9586525559425354e-01" purity="5.3867441415786743e-01" nType="-99"/>
          <Node pos="r" depth="2" NCoef="0" IVar="-1" Cut="0.0000000000000000e+00" cType="1" res="-5.1007461734116077e-03" rms="4.6491992473602295e-01" purity="3.2124575972557068e-01" nType="-99"/>
        </Node>
      </Node>
    </BinaryTree>
    <BinaryTree type="DecisionTree" boostWeight="1.0000000000000000e+00" itree="43">
      <Node pos="s" depth="0" NCoef="0" IVar="4" Cut="1.7143973112106323e+00" cType="1" res="-4.3284930288791656e-03" rms="4.9517759680747986e-01" purity="4.9792218208312988e-01" nType="0">
        <Node pos="l" depth="1" NCoef="0" IVar="3" Cut="1.7092338800430298e+00" cType="1" res="3.0450876802206039e-03" rms="4.9523445963859558e-01" purity="5.0588101148605347e-01" nType="0">
          <Node pos="l" depth="2" NCoef="0" IVar="-1" Cut="0.0000000000000000e+00" cType="1" res="4.4697092380374670e-04" rms="4.9518957734107971e-01" purity="5.1453787088394165e-01" nType="-99"/>
          <Node pos="r" depth="2" NCoef="0" IVar="-1" Cut="0.0000000000000000e+00" cType="1" res="-4.8922505229711533e-03" rms="4.7733935713768005e-01" purity="3.6473190784454346e-01" nType="-99"/>
        </Node>
        <Node pos="r" depth="1" NCoef="0" IVar="8" Cut="3.6837437748908997e-01" cType="0" res="-1.3146832585334778e-01" rms="4.7657901048660278e-01" purity="3.6069062352180481e-01" nType="0">
          <Node pos="l" depth="2" NCoef="0" IVar="-1" Cut="0.0000000000000000e+00" cType="1" res="-2.4117780849337578e-03" rms="4.9370184540748596e-01" purity="4.4045683741569519e-01" nType="-99"/>
          <Node pos="r" depth="2" NCoef="0" IVar="-1" Cut="0.0000000000000000e+00" cType="1" res="-6.4580910839140415e-03" rms="4.5272991061210632e-01" purity="2.9771515727043152e-01" nType="-99"/>
        </Node>
      </Node>
    </BinaryTree>
    <BinaryTree type="DecisionTree" boostWeight="1.0000000000000000e+00" itree="44">
      <Node pos="s" depth="0" NCoef="0" IVar="11" Cut="7.9237854003906250e+01" cType="0" res="7.5257563730701804e-04" rms="4.9479696154594421e-01" purity="5.0256890058517456e-01" nType="0">
        <Node pos="l" depth="1" NCoef="0" IVar="3" Cut="1.0268641710281372e+00" cType="1" res="3.5226095467805862e-02" rms="4.9371784925460815e-01" purity="5.5619108676910400e-01" nType="0">
          <Node pos="l" depth="2" NCoef="0" IVar="-1" Cut="0.0000000000000000e+00" cType="1" res="2.0797555334866047e-03" rms="4.9086195230484009e-01" purity="5.8117002248764038e-01" nType="-99"/>
          <Node pos="r" depth="2" NCoef="0" IVar="-1" Cut="0.0000000000000000e+00" cType="1" res="-1.3944490347057581e-03" rms="4.9536183476448059e-01" purity="4.6016174554824829e-01" nType="-99"/>
        </Node>
        <Node pos="r" depth="1" NCoef="0" IVar="14" Cut="4.7178020477294922e+01" cType="0" res="-4.1320804506540298e-02" rms="4.9285426735877991e-01" purity="4.3712550401687622e-01" nType="0">
          <Node pos="l" depth="2" NCoef="0" IVar="-1" Cut="0.0000000000000000e+00" cType="1" res="2.7890771161764860e-03" rms="4.8922511935234070e-01" purity="5.9300488233566284e-01" nType="-99"/>
          <Node pos="r" depth="2" NCoef="0" IVar="-1" Cut="0.0000000000000000e+00" cType="1" res="-2.3554021026939154e-03" rms="4.9166148900985718e-01" purity="4.1783994436264038e-01" nType="-99"/>
        </Node>
      </Node>
    </BinaryTree>
    <BinaryTree type="DecisionTree" boostWeight="1.0000000000000000e+00" itree="45">
      <Node pos="s" depth="0" NCoef="0" IVar="14" Cut="4.6480594635009766e+01" cType="0" res="1.3896791264414787e-02" rms="4.9435016512870789e-01" purity="5.1619899272918701e-01" nType="0">
        <Node pos="l" depth="1" NCoef="0" IVar="5" Cut="8.0040746927261353e-01" cType="1" res="7.1919761598110199e-02" rms="4.8461762070655823e-01" purity="6.1617439985275269e-01" nType="0">
          <Node pos="l" depth="2" NCoef="0" IVar="-1" Cut="0.0000000000000000e+00" cType="1" res="3.8241709116846323e-03" rms="4.7439873218536377e-01" purity="6.5171939134597778e-01" nType="-99"/>
          <Node pos="r" depth="2" NCoef="0" IVar="-1" Cut="0.0000000000000000e+00" cType="1" res="-4.7192574129439890e-05" rms="4.9897524714469910e-01" purity="5.1987785100936890e-01" nType="-99"/>
        </Node>
        <Node pos="r" depth="1" NCoef="0" IVar="21" Cut="2.1458915710449219e+01" cType="0" res="-1.2914668768644333e-02" rms="4.9649792909622192e-01" purity="4.7000202536582947e-01" nType="0">
          <Node pos="l" depth="2" NCoef="0" IVar="-1" Cut="0.0000000000000000e+00" cType="1" res="1.6173864423763007e-04" rms="4.9587959051132202e-01" purity="5.3662633895874023e-01" nType="-99"/>
          <Node pos="r" depth="2" NCoef="0" IVar="-1" Cut="0.0000000000000000e+00" cType="1" res="-1.8115495331585407e-03" rms="4.9505388736724854e-01" purity="4.4585487246513367e-01" nType="-99"/>
        </Node>
      </Node>
    </BinaryTree>
    <BinaryTree type="DecisionTree" boostWeight="1.0000000000000000e+00" itree="46">
      <Node pos="s" depth="0" NCoef="0" IVar="1" Cut="9.5641761779785156e+01" cType="0" res="-4.8193153925240040e-03" rms="4.9485573172569275e-01" purity="4.9659323692321777e-01" nType="0">
        <Node pos="l" depth="1" NCoef="0" IVar="24" Cut="1.5322527885437012e+01" cType="0" res="5.9192936867475510e-02" rms="4.8933884501457214e-01" purity="5.6981927156448364e-01" nType="0">
          <Node pos="l" depth="2" NCoef="0" IVar="-1" Cut="0.0000000000000000e+00" cType="1" res="5.1893186755478382e-03" rms="4.3133291602134705e-01" purity="7.5671267509460449e-01" nType="-99"/>
          <Node pos="r" depth="2" NCoef="0" IVar="-1" Cut="0.0000000000000000e+00" cType="1" res="2.0047903526574373e-03" rms="4.9231845140457153e-01" purity="5.4984474182128906e-01" nType="-99"/>
        </Node>
        <Node pos="r" depth="1" NCoef="0" IVar="5" Cut="1.4825664758682251e+00" cType="1" res="-2.4625919759273529e-02" rms="4.9487581849098206e-01" purity="4.7393569350242615e-01" nType="0">
          <Node pos="l" depth="2" NCoef="0" IVar="-1" Cut="0.0000000000000000e+00" cType="1" res="-5.4761249339208007e-04" rms="4.9516314268112183e-01" purity="4.8488008975982666e-01" nType="-99"/>
          <Node pos="r" depth="2" NCoef="0" IVar="-1" Cut="0.0000000000000000e+00" cType="1" res="-3.9704125374555588e-03" rms="4.8182985186576843e-01" purity="3.7496882677078247e-01" nType="-99"/>
        </Node>
      </Node>
    </BinaryTree>
    <BinaryTree type="DecisionTree" boostWeight="1.0000000000000000e+00" itree="47">
      <Node pos="s" depth="0" NCoef="0" IVar="5" Cut="-1.4837960004806519e+00" cType="0" res="-1.6822693869471550e-03" rms="4.9433037638664246e-01" purity="5.0028872489929199e-01" nType="0">
        <Node pos="l" depth="1" NCoef="0" IVar="6" Cut="-1.7125197649002075e+00" cType="0" res="1.0534020140767097e-02" rms="4.9414703249931335e-01" purity="5.1325201988220215e-01" nType="0">
          <Node pos="l" depth="2" NCoef="0" IVar="-1" Cut="0.0000000000000000e+00" cType="1" res="5.9316965052857995e-04" rms="4.9399924278259277e-01" purity="5.2557700872421265e-01" nType="-99"/>
          <Node pos="r" depth="2" NCoef="0" IVar="-1" Cut="0.0000000000000000e+00" cType="1" res="-4.7725937329232693e-03" rms="4.7216141223907471e-01" purity="3.5347822308540344e-01" nType="-99"/>
        </Node>
        <Node pos="r" depth="1" NCoef="0" IVar="19" Cut="1.3456194400787354e+00" cType="0" res="-1.0864497721195221e-01" rms="4.8290950059890747e-01" purity="3.8678544759750366e-01" nType="0">
          <Node pos="l" depth="2" NCoef="0" IVar="-1" Cut="0.0000000000000000e+00" cType="1" res="-2.2103197406977415e-03" rms="4.9179562926292419e-01" purity="5.6971436738967896e-01" nType="-99"/>
          <Node pos="r" depth="2" NCoef="0" IVar="-1" Cut="0.0000000000000000e+00" cType="1" res="-3.7421965971589088e-03" rms="4.7113841772079468e-01" purity="3.4387120604515076e-01" nType="-99"/>
        </Node>
      </Node>
    </BinaryTree>
    <BinaryTree type="DecisionTree" boostWeight="1.0000000000000000e+00" itree="48">
      <Node pos="s" depth="0" NCoef="0" IVar="14" Cut="3.8239559173583984e+01" cType="0" res="2.2586949635297060e-03" rms="4.9464151263237000e-01" purity="5.0408804416656494e-01" nType="0">
        <Node pos="l" depth="1" NCoef="0" IVar="5" Cut="-1.0282260179519653e+00" cType="0" res="3.1003879383206367e-02" rms="4.9378943443298340e-01" purity="5.5463594198226929e-01" nType="0">
          <Node pos="l" depth="2" NCoef="0" IVar="-1" Cut="0.0000000000000000e+00" cType="1" res="2.1180803887546062e-03" rms="4.9153432250022888e-01" purity="5.7550340890884399e-01" nType="-99"/>
          <Node pos="r" depth="2" NCoef="0" IVar="-1" Cut="0.0000000000000000e+00" cType="1" res="-1.5718316426500678e-03" rms="4.9524718523025513e-01" purity="4.7217220067977905e-01" nType="-99"/>
        </Node>
        <Node pos="r" depth="1" NCoef="0" IVar="1" Cut="9.3168174743652344e+01" cType="0" res="-3.5983033478260040e-02" rms="4.9318251013755798e-01" purity="4.3684068322181702e-01" nType="0">
          <Node pos="l" depth="2" NCoef="0" IVar="-1" Cut="0.0000000000000000e+00" cType="1" res="1.9338631318532862e-05" rms="4.9796861410140991e-01" purity="5.1509135961532593e-01" nType="-99"/>
          <Node pos="r" depth="2" NCoef="0" IVar="-1" Cut="0.0000000000000000e+00" cType="1" res="-2.4791909381747246e-03" rms="4.8982995748519897e-01" purity="4.1343316435813904e-01" nType="-99"/>
        </Node>
      </Node>
    </BinaryTree>
    <BinaryTree type="DecisionTree" boostWeight="1.0000000000000000e+00" itree="49">
      <Node pos="s" depth="0" NCoef="0" IVar="14" Cut="4.6479602813720703e+01" cType="0" res="5.2347604651004076e-04" rms="4.9526655673980713e-01" purity="5.0306969881057739e-01" nType="0">
        <Node pos="l" depth="1" NCoef="0" IVar="24" Cut="1.1470184326171875e+01" cType="1" res="4.3579958379268646e-02" rms="4.9050179123878479e-01" purity="5.9046447277069092e-01" nType="0">
          <Node pos="l" depth="2" NCoef="0" IVar="-1" Cut="0.0000000000000000e+00" cType="1" res="5.0007784739136696e-03" rms="4.8148944973945618e-01" purity="6.2789028882980347e-01" nType="-99"/>
          <Node pos="r" depth="2" NCoef="0" IVar="-1" Cut="0.0000000000000000e+00" cType="1" res="1.8285846454091370e-04" rms="4.9613502621650696e-01" purity="5.5056601762771606e-01" nType="-99"/>
        </Node>
        <Node pos="r" depth="1" NCoef="0" IVar="8" Cut="-1.4857672452926636e+00" cType="0" res="-1.9325371831655502e-02" rms="4.9619111418724060e-01" purity="4.6278116106987000e-01" nType="0">
          <Node pos="l" depth="2" NCoef="0" IVar="-1" Cut="0.0000000000000000e+00" cType="1" res="-7.9875456867739558e-04" rms="4.9702498316764832e-01" purity="4.7710511088371277e-01" nType="-99"/>
          <Node pos="r" depth="2" NCoef="0" IVar="-1" Cut="0.0000000000000000e+00" cType="1" res="-3.9811558090150356e-03" rms="4.8166182637214661e-01" purity="3.7254235148429871e-01" nType="-99"/>
        </Node>
      </Node>
    </BinaryTree>
    <BinaryTree type="DecisionTree" boostWeight="1.0000000000000000e+00" itree="50">
      <Node pos="s" depth="0" NCoef="0" IVar="5" Cut="7.9776650667190552e-01" cType="1" res="-4.7047617845237255e-03" rms="4.9563270807266235e-01" purity="4.9810680747032166e-01" nType="0">
        <Node pos="l" depth="1" NCoef="0" IVar="4" Cut="1.2577229738235474e+00" cType="1" res="1.1837484315037727e-02" rms="4.9457561969757080e-01" purity="5.1465761661529541e-01" nType="0">
          <Node pos="l" depth="2" NCoef="0" IVar="-1" Cut="0.0000000000000000e+00" cType="1" res="1.3301318977028131e-03" rms="4.9425065517425537e-01" purity="5.3012526035308838e-01" nType="-99"/>
          <Node pos="r" depth="2" NCoef="0" IVar="-1" Cut="0.0000000000000000e+00" cType="1" res="-5.1733888685703278e-03" rms="4.8279669880867004e-01" purity="3.9554041624069214e-01" nType="-99"/>
        </Node>
        <Node pos="r" depth="1" NCoef="0" IVar="15" Cut="2.5431568622589111e+00" cType="1" res="-5.2577491849660873e-02" rms="4.9557775259017944e-01" purity="4.5020914077758789e-01" nType="0">
          <Node pos="l" depth="2" NCoef="0" IVar="-1" Cut="0.0000000000000000e+00" cType="1" res="-1.6446411609649658e-03" rms="4.9720588326454163e-01" purity="4.7333061695098877e-01" nType="-99"/>
          <Node pos="r" depth="2" NCoef="0" IVar="-1" Cut="0.0000000000000000e+00" cType="1" res="-5.1390249282121658e-03" rms="4.5515915751457214e-01" purity="2.9558566212654114e-01" nType="-99"/>
        </Node>
      </Node>
    </BinaryTree>
    <BinaryTree type="DecisionTree" boostWeight="1.0000000000000000e+00" itree="51">
      <Node pos="s" depth="0" NCoef="0" IVar="18" Cut="2.5430781841278076e+00" cType="1" res="5.6238686665892601e-03" rms="4.9599128961563110e-01" purity="5.0894176959991455e-01" nType="0">
        <Node pos="l" depth="1" NCoef="0" IVar="2" Cut="-2.8415741920471191e+00" cType="1" res="1.4958507381379604e-02" rms="4.9606859683990479e-01" purity="5.1853752136230469e-01" nType="0">
          <Node pos="l" depth="2" NCoef="0" IVar="-1" Cut="0.0000000000000000e+00" cType="1" res="4.1823908686637878e-03" rms="4.7322031855583191e-01" purity="6.5564662218093872e-01" nType="-99"/>
          <Node pos="r" depth="2" NCoef="0" IVar="-1" Cut="0.0000000000000000e+00" cType="1" res="-7.4989664426539093e-05" rms="4.9625959992408752e-01" purity="5.1241910457611084e-01" nType="-99"/>
        </Node>
        <Node pos="r" depth="1" NCoef="0" IVar="18" Cut="2.7711496353149414e+00" cType="0" res="-7.2880923748016357e-02" rms="4.8833024501800537e-01" purity="4.2824101448059082e-01" nType="0">
          <Node pos="l" depth="2" NCoef="0" IVar="-1" Cut="0.0000000000000000e+00" cType="1" res="1.2952554970979691e-04" rms="4.9180260300636292e-01" purity="4.9557185173034668e-01" nType="-99"/>
          <Node pos="r" depth="2" NCoef="0" IVar="-1" Cut="0.0000000000000000e+00" cType="1" res="-5.3079444915056229e-03" rms="4.7122624516487122e-01" purity="3.4589174389839172e-01" nType="-99"/>
        </Node>
      </Node>
    </BinaryTree>
    <BinaryTree type="DecisionTree" boostWeight="1.0000000000000000e+00" itree="52">
      <Node pos="s" depth="0" NCoef="0" IVar="10" Cut="8.1091697692871094e+01" cType="0" res="1.8199275946244597e-03" rms="4.9453052878379822e-01" purity="5.0311845541000366e-01" nType="0">
        <Node pos="l" depth="1" NCoef="0" IVar="9" Cut="1.5250915527343750e+02" cType="1" res="2.7239236980676651e-02" rms="4.9518978595733643e-01" purity="5.3939342498779297e-01" nType="0">
          <Node pos="l" depth="2" NCoef="0" IVar="-1" Cut="0.0000000000000000e+00" cType="1" res="1.0022337082773447e-03" rms="4.9047610163688660e-01" purity="5.7052195072174072e-01" nType="-99"/>
          <Node pos="r" depth="2" NCoef="0" IVar="-1" Cut="0.0000000000000000e+00" cType="1" res="3.3017393434420228e-04" rms="4.9602472782135010e-01" purity="5.2457678318023682e-01" nType="-99"/>
        </Node>
        <Node pos="r" depth="1" NCoef="0" IVar="24" Cut="4.8131217956542969e+00" cType="0" res="-8.1088542938232422e-02" rms="4.8316767811775208e-01" purity="3.8480269908905029e-01" nType="0">
          <Node pos="l" depth="2" NCoef="0" IVar="-1" Cut="0.0000000000000000e+00" cType="1" res="-2.0945584401488304e-03" rms="4.8743835091590881e-01" purity="4.0235689282417297e-01" nType="-99"/>
          <Node pos="r" depth="2" NCoef="0" IVar="-1" Cut="0.0000000000000000e+00" cType="1" res="-5.6114364415407181e-03" rms="4.2909026145935059e-01" purity="2.4949772655963898e-01" nType="-99"/>
        </Node>
      </Node>
    </BinaryTree>
    <BinaryTree type="DecisionTree" boostWeight="1.0000000000000000e+00" itree="53">
      <Node pos="s" depth="0" NCoef="0" IVar="13" Cut="4.0437133789062500e+01" cType="0" res="-8.7349917739629745e-03" rms="4.9366861581802368e-01" purity="4.9224781990051270e-01" nType="0">
        <Node pos="l" depth="1" NCoef="0" IVar="6" Cut="-1.2550226449966431e+00" cType="0" res="1.1812856420874596e-02" rms="4.9450102448463440e-01" purity="5.2347081899642944e-01" nType="0">
          <Node pos="l" depth="2" NCoef="0" IVar="-1" Cut="0.0000000000000000e+00" cType="1" res="1.2856478570029140e-03" rms="4.9401834607124329e-01" purity="5.3971779346466064e-01" nType="-99"/>
          <Node pos="r" depth="2" NCoef="0" IVar="-1" Cut="0.0000000000000000e+00" cType="1" res="-2.9167693573981524e-03" rms="4.8967313766479492e-01" purity="4.3444448709487915e-01" nType="-99"/>
        </Node>
        <Node pos="r" depth="1" NCoef="0" IVar="23" Cut="6.2979488372802734e+00" cType="1" res="-8.4309056401252747e-02" rms="4.8313456773757935e-01" purity="3.7741097807884216e-01" nType="0">
          <Node pos="l" depth="2" NCoef="0" IVar="-1" Cut="0.0000000000000000e+00" cType="1" res="-1.0268393671140075e-03" rms="4.9916917085647583e-01" purity="4.5849820971488953e-01" nType="-99"/>
          <Node pos="r" depth="2" NCoef="0" IVar="-1" Cut="0.0000000000000000e+00" cType="1" res="-3.0670703854411840e-03" rms="4.7930693626403809e-01" purity="3.6542847752571106e-01" nType="-99"/>
        </Node>
      </Node>
    </BinaryTree>
    <BinaryTree type="DecisionTree" boostWeight="1.0000000000000000e+00" itree="54">
      <Node pos="s" depth="0" NCoef="0" IVar="8" Cut="-1.4848973751068115e+00" cType="0" res="-8.8724922388792038e-03" rms="4.9567314982414246e-01" purity="4.9355006217956543e-01" nType="0">
        <Node pos="l" depth="1" NCoef="0" IVar="23" Cut="2.5842821121215820e+01" cType="0" res="1.2159897014498711e-03" rms="4.9567121267318726e-01" purity="5.0437122583389282e-01" nType="0">
          <Node pos="l" depth="2" NCoef="0" IVar="-1" Cut="0.0000000000000000e+00" cType="1" res="1.1201003566384315e-02" rms="4.3805322051048279e-01" purity="7.4312907457351685e-01" nType="-99"/>
          <Node pos="r" depth="2" NCoef="0" IVar="-1" Cut="0.0000000000000000e+00" cType="1" res="3.8792379200458527e-05" rms="4.9603247642517090e-01" purity="4.9921977519989014e-01" nType="-99"/>
        </Node>
        <Node pos="r" depth="1" NCoef="0" IVar="3" Cut="3.3564051985740662e-01" cType="1" res="-8.1286936998367310e-02" rms="4.8962360620498657e-01" purity="4.1587650775909424e-01" nType="0">
          <Node pos="l" depth="2" NCoef="0" IVar="-1" Cut="0.0000000000000000e+00" cType="1" res="3.5073712933808565e-04" rms="4.9698650836944580e-01" purity="4.7583258152008057e-01" nType="-99"/>
          <Node pos="r" depth="2" NCoef="0" IVar="-1" Cut="0.0000000000000000e+00" cType="1" res="-8.2115149125456810e-03" rms="4.5286279916763306e-01" purity="3.0051377415657043e-01" nType="-99"/>
        </Node>
      </Node>
    </BinaryTree>
    <BinaryTree type="DecisionTree" boostWeight="1.0000000000000000e+00" itree="55">
      <Node pos="s" depth="0" NCoef="0" IVar="11" Cut="5.8864772796630859e+01" cType="0" res="-2.3454010952264071e-03" rms="4.9451971054077148e-01" purity="4.9981111288070679e-01" nType="0">
        <Node pos="l" depth="1" NCoef="0" IVar="3" Cut="-1.0305504798889160e+00" cType="0" res="1.1608872562646866e-02" rms="4.9514999985694885e-01" purity="5.2177733182907104e-01" nType="0">
          <Node pos="l" depth="2" NCoef="0" IVar="-1" Cut="0.0000000000000000e+00" cType="1" res="1.0249036131426692e-03" rms="4.9460208415985107e-01" purity="5.3942483663558960e-01" nType="-99"/>
          <Node pos="r" depth="2" NCoef="0" IVar="-1" Cut="0.0000000000000000e+00" cType="1" res="-1.7924645217135549e-03" rms="4.9108552932739258e-01" purity="4.4794765114784241e-01" nType="-99"/>
        </Node>
        <Node pos="r" depth="1" NCoef="0" IVar="18" Cut="-1.9443277120590210e+00" cType="0" res="-7.9648748040199280e-02" rms="4.8377647995948792e-01" purity="3.7812352180480957e-01" nType="0">
          <Node pos="l" depth="2" NCoef="0" IVar="-1" Cut="0.0000000000000000e+00" cType="1" res="-2.3593704681843519e-03" rms="4.8990401625633240e-01" purity="4.0895733237266541e-01" nType="-99"/>
          <Node pos="r" depth="2" NCoef="0" IVar="-1" Cut="0.0000000000000000e+00" cType="1" res="-6.1908839270472527e-03" rms="4.5080807805061340e-01" purity="2.8289750218391418e-01" nType="-99"/>
        </Node>
      </Node>
    </BinaryTree>
    <BinaryTree type="DecisionTree" boostWeight="1.0000000000000000e+00" itree="56">
      <Node pos="s" depth="0" NCoef="0" IVar="21" Cut="4.6028114318847656e+01" cType="0" res="-4.0811332291923463e-04" rms="4.9485874176025391e-01" purity="5.0152939558029175e-01" nType="0">
        <Node pos="l" depth="1" NCoef="0" IVar="7" Cut="5.3682476282119751e-01" cType="1" res="1.3640932738780975e-01" rms="4.6744522452354431e-01" purity="6.6820001602172852e-01" nType="0">
          <Node pos="l" depth="2" NCoef="0" IVar="-1" Cut="0.0000000000000000e+00" cType="1" res="3.1926594674587250e-03" rms="4.4649156928062439e-01" purity="7.2208058834075928e-01" nType="-99"/>
          <Node pos="r" depth="2" NCoef="0" IVar="-1" Cut="0.0000000000000000e+00" cType="1" res="-8.5674441652372479e-04" rms="4.8979640007019043e-01" purity="5.6864327192306519e-01" nType="-99"/>
        </Node>
        <Node pos="r" depth="1" NCoef="0" IVar="4" Cut="-1.2565190792083740e+00" cType="0" res="-7.4752103537321091e-03" rms="4.9520799517631531e-01" purity="4.9292030930519104e-01" nType="0">
          <Node pos="l" depth="2" NCoef="0" IVar="-1" Cut="0.0000000000000000e+00" cType="1" res="2.9249885119497776e-04" rms="4.9552828073501587e-01" purity="5.0693607330322266e-01" nType="-99"/>
          <Node pos="r" depth="2" NCoef="0" IVar="-1" Cut="0.0000000000000000e+00" cType="1" res="-3.5656469408422709e-03" rms="4.8591887950897217e-01" purity="4.0467566251754761e-01" nType="-99"/>
        </Node>
      </Node>
    </BinaryTree>
    <BinaryTree type="DecisionTree" boostWeight="1.0000000000000000e+00" itree="57">
      <Node pos="s" depth="0" NCoef="0" IVar="7" Cut="1.2573001384735107e+00" cType="1" res="-7.3388568125665188e-04" rms="4.9537181854248047e-01" purity="5.0191628932952881e-01" nType="0">
        <Node pos="l" depth="1" NCoef="0" IVar="1" Cut="1.9089057922363281e+02" cType="0" res="1.3585975393652916e-02" rms="4.9469798803329468e-01" purity="5.1648211479187012e-01" nType="0">
          <Node pos="l" depth="2" NCoef="0" IVar="-1" Cut="0.0000000000000000e+00" cType="1" res="9.5998365432024002e-03" rms="4.2575553059577942e-01" purity="7.4701148271560669e-01" nType="-99"/>
          <Node pos="r" depth="2" NCoef="0" IVar="-1" Cut="0.0000000000000000e+00" cType="1" res="-4.0556908061262220e-05" rms="4.9527269601821899e-01" purity="5.0990903377532959e-01" nType="-99"/>
        </Node>
        <Node pos="r" depth="1" NCoef="0" IVar="4" Cut="-9.8067194223403931e-02" cType="0" res="-7.6001286506652832e-02" rms="4.9209421873092651e-01" purity="4.2535594105720520e-01" nType="0">
          <Node pos="l" depth="2" NCoef="0" IVar="-1" Cut="0.0000000000000000e+00" cType="1" res="2.4581488687545061e-03" rms="4.9422705173492432e-01" purity="4.9673780798912048e-01" nType="-99"/>
          <Node pos="r" depth="2" NCoef="0" IVar="-1" Cut="0.0000000000000000e+00" cType="1" res="-7.6951612718403339e-03" rms="4.6651497483253479e-01" purity="3.1485271453857422e-01" nType="-99"/>
        </Node>
      </Node>
    </BinaryTree>
    <BinaryTree type="DecisionTree" boostWeight="1.0000000000000000e+00" itree="58">
      <Node pos="s" depth="0" NCoef="0" IVar="3" Cut="1.2552530765533447e+00" cType="1" res="-8.6279530078172684e-03" rms="4.9464634060859680e-01" purity="4.9375370144844055e-01" nType="0">
        <Node pos="l" depth="1" NCoef="0" IVar="7" Cut="7.9892009496688843e-01" cType="1" res="3.9326087571680546e-03" rms="4.9475830793380737e-01" purity="5.0785350799560547e-01" nType="0">
          <Node pos="l" depth="2" NCoef="0" IVar="-1" Cut="0.0000000000000000e+00" cType="1" res="1.0431999107822776e-03" rms="4.9407359957695007e-01" purity="5.2498459815979004e-01" nType="-99"/>
          <Node pos="r" depth="2" NCoef="0" IVar="-1" Cut="0.0000000000000000e+00" cType="1" res="-1.5253433957695961e-03" rms="4.9315327405929565e-01" purity="4.5599928498268127e-01" nType="-99"/>
        </Node>
        <Node pos="r" depth="1" NCoef="0" IVar="6" Cut="1.0510267317295074e-01" cType="0" res="-8.8165856897830963e-02" rms="4.8646497726440430e-01" purity="4.0446874499320984e-01" nType="0">
          <Node pos="l" depth="2" NCoef="0" IVar="-1" Cut="0.0000000000000000e+00" cType="1" res="-1.4985674060881138e-03" rms="4.9474218487739563e-01" purity="4.6580088138580322e-01" nType="-99"/>
          <Node pos="r" depth="2" NCoef="0" IVar="-1" Cut="0.0000000000000000e+00" cType="1" res="-5.6946040131151676e-03" rms="4.6561247110366821e-01" purity="3.3012294769287109e-01" nType="-99"/>
        </Node>
      </Node>
    </BinaryTree>
    <BinaryTree type="DecisionTree" boostWeight="1.0000000000000000e+00" itree="59">
      <Node pos="s" depth="0" NCoef="0" IVar="4" Cut="-1.0289998054504395e+00" cType="0" res="-5.8102803304791451e-03" rms="4.9544760584831238e-01" purity="4.9683454632759094e-01" nType="0">
        <Node pos="l" depth="1" NCoef="0" IVar="3" Cut="-1.4867880344390869e+00" cType="0" res="7.4710203334689140e-03" rms="4.9546685814857483e-01" purity="5.1231020689010620e-01" nType="0">
          <Node pos="l" depth="2" NCoef="0" IVar="-1" Cut="0.0000000000000000e+00" cType="1" res="7.3282408993691206e-04" rms="4.9547919631004333e-01" purity="5.2089709043502808e-01" nType="-99"/>
          <Node pos="r" depth="2" NCoef="0" IVar="-1" Cut="0.0000000000000000e+00" cType="1" res="-3.1010154634714127e-03" rms="4.8435187339782715e-01" purity="4.0924781560897827e-01" nType="-99"/>
        </Node>
        <Node pos="r" depth="1" NCoef="0" IVar="0" Cut="5.0107705593109131e-01" cType="1" res="-6.4136207103729248e-02" rms="4.9112927913665771e-01" purity="4.2887195944786072e-01" nType="0">
          <Node pos="l" depth="2" NCoef="0" IVar="-1" Cut="0.0000000000000000e+00" cType="1" res="-1.5780635876581073e-03" rms="4.9491438269615173e-01" purity="4.6774706244468689e-01" nType="-99"/>
          <Node pos="r" depth="2" NCoef="0" IVar="-1" Cut="0.0000000000000000e+00" cType="1" res="-6.1069368384778500e-03" rms="4.5632129907608032e-01" purity="3.0572092533111572e-01" nType="-99"/>
        </Node>
      </Node>
    </BinaryTree>
    <BinaryTree type="DecisionTree" boostWeight="1.0000000000000000e+00" itree="60">
      <Node pos="s" depth="0" NCoef="0" IVar="14" Cut="3.7234565734863281e+01" cType="0" res="1.6607223078608513e-03" rms="4.9402776360511780e-01" purity="5.0309222936630249e-01" nType="0">
        <Node pos="l" depth="1" NCoef="0" IVar="6" Cut="-1.2573999166488647e+00" cType="0" res="2.7787514030933380e-02" rms="4.9336162209510803e-01" purity="5.5001032352447510e-01" nType="0">
          <Node pos="l" depth="2" NCoef="0" IVar="-1" Cut="0.0000000000000000e+00" cType="1" res="1.5645113307982683e-03" rms="4.9151760339736938e-01" purity="5.6896066665649414e-01" nType="-99"/>
          <Node pos="r" depth="2" NCoef="0" IVar="-1" Cut="0.0000000000000000e+00" cType="1" res="-1.9765270408242941e-03" rms="4.9304431676864624e-01" purity="4.4730725884437561e-01" nType="-99"/>
        </Node>
