<?xml version="1.0"?>
<MethodSetup Method="BDT::BDTG">
  <GeneralInfo>
    <Info name="TMVA Release" value="4.2.0 [262656]"/>
    <Info name="ROOT Release" value="5.34/34 [336418]"/>
    <Info name="Creator" value="satoshi"/>
    <Info name="Date" value="Mon Apr 18 17:42:37 2016"/>
    <Info name="Host" value="Darwin macphsft14.cern.ch 13.4.0 Darwin Kernel Version 13.4.0: Wed Mar 18 16:20:14 PDT 2015; root:xnu-2422.115.14~1/RELEASE_X86_64 x86_64"/>
    <Info name="Dir" value="/Users/satoshi/work/TMVA/TMVA-v4.2.0/test"/>
    <Info name="Training events" value="1134"/>
    <Info name="TrainingTime" value="1.11677961e+01"/>
    <Info name="AnalysisType" value="Classification"/>
  </GeneralInfo>
  <Options>
    <Option name="V" modified="Yes">False</Option>
    <Option name="VerbosityLevel" modified="No">Default</Option>
    <Option name="VarTransform" modified="No">None</Option>
    <Option name="H" modified="Yes">False</Option>
    <Option name="CreateMVAPdfs" modified="No">False</Option>
    <Option name="IgnoreNegWeightsInTraining" modified="No">False</Option>
    <Option name="NTrees" modified="Yes">1000</Option>
    <Option name="MaxDepth" modified="Yes">2</Option>
    <Option name="MinNodeSize" modified="Yes">1.5%</Option>
    <Option name="nCuts" modified="Yes">20</Option>
    <Option name="BoostType" modified="Yes">Grad</Option>
    <Option name="AdaBoostR2Loss" modified="No">quadratic</Option>
    <Option name="UseBaggedBoost" modified="Yes">True</Option>
    <Option name="Shrinkage" modified="Yes">1.000000e-01</Option>
    <Option name="AdaBoostBeta" modified="No">5.000000e-01</Option>
    <Option name="UseRandomisedTrees" modified="No">False</Option>
    <Option name="UseNvars" modified="No">4</Option>
    <Option name="UsePoissonNvars" modified="No">True</Option>
    <Option name="BaggedSampleFraction" modified="Yes">5.000000e-01</Option>
    <Option name="UseYesNoLeaf" modified="No">True</Option>
    <Option name="NegWeightTreatment" modified="No">ignorenegweightsintraining</Option>
    <Option name="Css" modified="No">1.000000e+00</Option>
    <Option name="Cts_sb" modified="No">1.000000e+00</Option>
    <Option name="Ctb_ss" modified="No">1.000000e+00</Option>
    <Option name="Cbb" modified="No">1.000000e+00</Option>
    <Option name="NodePurityLimit" modified="No">5.000000e-01</Option>
    <Option name="SeparationType" modified="No">giniindex</Option>
    <Option name="DoBoostMonitor" modified="No">False</Option>
    <Option name="UseFisherCuts" modified="No">False</Option>
    <Option name="MinLinCorrForFisher" modified="No">8.000000e-01</Option>
    <Option name="UseExclusiveVars" modified="No">False</Option>
    <Option name="DoPreselection" modified="No">False</Option>
    <Option name="SigToBkgFraction" modified="No">1.000000e+00</Option>
    <Option name="PruneMethod" modified="No">nopruning</Option>
    <Option name="PruneStrength" modified="No">0.000000e+00</Option>
    <Option name="PruningValFraction" modified="No">5.000000e-01</Option>
    <Option name="nEventsMin" modified="No">0</Option>
    <Option name="UseBaggedGrad" modified="No">False</Option>
    <Option name="GradBaggingFraction" modified="No">5.000000e-01</Option>
    <Option name="UseNTrainEvents" modified="No">0</Option>
    <Option name="NNodesMax" modified="No">0</Option>
  </Options>
  <Variables NVar="19">
    <Variable VarIndex="0" Expression="lepton_eta" Label="lepton_eta" Title="Lepton Eta" Unit="" Internal="lepton_eta" Type="F" Min="-2.08456039e+00" Max="2.07906818e+00"/>
    <Variable VarIndex="1" Expression="lepton_pt" Label="lepton_pt" Title="Lepton PT" Unit="GeV" Internal="lepton_pt" Type="F" Min="3.00032539e+01" Max="3.43073120e+02"/>
    <Variable VarIndex="2" Expression="lepton_phi" Label="lepton_phi" Title="Lepton Phi" Unit="" Internal="lepton_phi" Type="F" Min="-3.14069700e+00" Max="3.14065838e+00"/>
    <Variable VarIndex="3" Expression="jet_1_eta" Label="jet_1_eta" Title="Jet 1 Eta" Unit="" Internal="jet_1_eta" Type="F" Min="-2.32681561e+00" Max="2.37296104e+00"/>
    <Variable VarIndex="4" Expression="jet_2_eta" Label="jet_2_eta" Title="Jet 2 Eta" Unit="" Internal="jet_2_eta" Type="F" Min="-2.33873153e+00" Max="2.35576940e+00"/>
    <Variable VarIndex="5" Expression="jet_3_eta" Label="jet_3_eta" Title="Jet 3 Eta" Unit="" Internal="jet_3_eta" Type="F" Min="-2.37088275e+00" Max="2.37322378e+00"/>
    <Variable VarIndex="6" Expression="jet_4_eta" Label="jet_4_eta" Title="Jet 4 Eta" Unit="" Internal="jet_4_eta" Type="F" Min="-2.36766744e+00" Max="2.39775443e+00"/>
    <Variable VarIndex="7" Expression="jet_1_pt" Label="jet_1_pt" Title="Jet 1 PT" Unit="GeV" Internal="jet_1_pt" Type="F" Min="4.30024452e+01" Max="7.23804504e+02"/>
    <Variable VarIndex="8" Expression="jet_2_pt" Label="jet_2_pt" Title="Jet 2 PT" Unit="GeV" Internal="jet_2_pt" Type="F" Min="3.47451973e+01" Max="4.64869568e+02"/>
    <Variable VarIndex="9" Expression="jet_3_pt" Label="jet_3_pt" Title="Jet 3 PT" Unit="GeV" Internal="jet_3_pt" Type="F" Min="3.20467606e+01" Max="2.27721649e+02"/>
    <Variable VarIndex="10" Expression="jet_4_pt" Label="jet_4_pt" Title="Jet 4 PT" Unit="GeV" Internal="jet_4_pt" Type="F" Min="3.00110531e+01" Max="1.71174149e+02"/>
    <Variable VarIndex="11" Expression="jet_1_phi" Label="jet_1_phi" Title="Jet 1 Phi" Unit="" Internal="jet_1_phi" Type="F" Min="-3.14027309e+00" Max="3.13117242e+00"/>
    <Variable VarIndex="12" Expression="jet_2_phi" Label="jet_2_phi" Title="Jet 2 Phi" Unit="" Internal="jet_2_phi" Type="F" Min="-3.14017200e+00" Max="3.13117886e+00"/>
    <Variable VarIndex="13" Expression="jet_3_phi" Label="jet_3_phi" Title="Jet 3 Phi" Unit="" Internal="jet_3_phi" Type="F" Min="-3.13826585e+00" Max="3.13748431e+00"/>
    <Variable VarIndex="14" Expression="jet_4_phi" Label="jet_4_phi" Title="Jet 4 Phi" Unit="" Internal="jet_4_phi" Type="F" Min="-3.13217354e+00" Max="3.11686444e+00"/>
    <Variable VarIndex="15" Expression="jet_1_m" Label="jet_1_m" Title="Jet 1 Mass" Unit="GeV" Internal="jet_1_m" Type="F" Min="3.91087127e+00" Max="1.60384628e+02"/>
    <Variable VarIndex="16" Expression="jet_2_m" Label="jet_2_m" Title="Jet 2 Mass" Unit="GeV" Internal="jet_2_m" Type="F" Min="3.71785045e+00" Max="1.08000092e+02"/>
    <Variable VarIndex="17" Expression="jet_3_m" Label="jet_3_m" Title="Jet 3 Mass" Unit="GeV" Internal="jet_3_m" Type="F" Min="2.07842445e+00" Max="3.88632088e+01"/>
    <Variable VarIndex="18" Expression="jet_4_m" Label="jet_4_m" Title="Jet 4 Mass" Unit="GeV" Internal="jet_4_m" Type="F" Min="9.53820825e-01" Max="2.04622231e+01"/>
  </Variables>
  <Spectators NSpec="0"/>
  <Classes NClass="2">
    <Class Name="Signal" Index="0"/>
    <Class Name="Background" Index="1"/>
  </Classes>
  <Transformations NTransformations="0"/>
  <MVAPdfs/>
  <Weights NTrees="1000" AnalysisType="1">
    <BinaryTree type="DecisionTree" boostWeight="1.0000000000000000e+00" itree="0">
      <Node pos="s" depth="0" NCoef="0" IVar="17" Cut="1.0421705245971680e+01" cType="0" res="-4.5496683567762375e-02" rms="4.9792575836181641e-01" purity="4.5450329780578613e-01" nType="0">
        <Node pos="l" depth="1" NCoef="0" IVar="4" Cut="6.7846351861953735e-01" cType="1" res="3.0884703993797302e-01" rms="3.9320924878120422e-01" purity="8.0884701013565063e-01" nType="0">
          <Node pos="l" depth="2" NCoef="0" IVar="-1" Cut="0.0000000000000000e+00" cType="1" res="4.1527533903717995e-03" rms="0.0000000000000000e+00" purity="1.0000000000000000e+00" nType="-99"/>
          <Node pos="r" depth="2" NCoef="0" IVar="-1" Cut="0.0000000000000000e+00" cType="1" res="-9.4735075253993273e-04" rms="4.9508771300315857e-01" purity="4.3008476495742798e-01" nType="-99"/>
        </Node>
        <Node pos="r" depth="1" NCoef="0" IVar="6" Cut="8.2120227813720703e-01" cType="0" res="-1.1453790217638016e-01" rms="4.8670428991317749e-01" purity="3.8546210527420044e-01" nType="0">
          <Node pos="l" depth="2" NCoef="0" IVar="-1" Cut="0.0000000000000000e+00" cType="1" res="1.4138160273432732e-02" rms="4.3527117371559143e-01" purity="7.4604672193527222e-01" nType="-99"/>
          <Node pos="r" depth="2" NCoef="0" IVar="-1" Cut="0.0000000000000000e+00" cType="1" res="-2.3593485821038485e-03" rms="4.6780788898468018e-01" purity="3.2349005341529846e-01" nType="-99"/>
        </Node>
      </Node>
    </BinaryTree>
    <BinaryTree type="DecisionTree" boostWeight="1.0000000000000000e+00" itree="1">
      <Node pos="s" depth="0" NCoef="0" IVar="11" Cut="1.6209123134613037e+00" cType="0" res="4.1770283132791519e-02" rms="4.9743083119392395e-01" purity="5.4206532239913940e-01" nType="0">
        <Node pos="l" depth="1" NCoef="0" IVar="6" Cut="8.5142344236373901e-01" cType="0" res="4.9884757399559021e-01" rms="2.9355033766478300e-03" purity="1.0000000000000000e+00" nType="0">
          <Node pos="l" depth="2" NCoef="0" IVar="-1" Cut="0.0000000000000000e+00" cType="1" res="1.8789671361446381e-01" rms="3.0447444878518581e-03" purity="1.0000000000000000e+00" nType="-99"/>
          <Node pos="r" depth="2" NCoef="0" IVar="-1" Cut="0.0000000000000000e+00" cType="1" res="5.6073983432725072e-04" rms="1.9380467711016536e-03" purity="1.0000000000000000e+00" nType="-99"/>
        </Node>
        <Node pos="r" depth="1" NCoef="0" IVar="13" Cut="1.9435939788818359e+00" cType="0" res="-1.8506357446312904e-02" rms="4.9888128042221069e-01" purity="4.8167562484741211e-01" nType="0">
          <Node pos="l" depth="2" NCoef="0" IVar="-1" Cut="0.0000000000000000e+00" cType="1" res="5.7813697494566441e-03" rms="3.2352225389331579e-03" purity="1.0000000000000000e+00" nType="-99"/>
          <Node pos="r" depth="2" NCoef="0" IVar="-1" Cut="0.0000000000000000e+00" cType="1" res="-1.7310684779658914e-03" rms="4.9332922697067261e-01" purity="4.2299443483352661e-01" nType="-99"/>
        </Node>
      </Node>
    </BinaryTree>
    <BinaryTree type="DecisionTree" boostWeight="1.0000000000000000e+00" itree="2">
      <Node pos="s" depth="0" NCoef="0" IVar="6" Cut="7.7025723457336426e-01" cType="0" res="2.2656938061118126e-02" rms="4.9626922607421875e-01" purity="5.2537888288497925e-01" nType="0">
        <Node pos="l" depth="1" NCoef="0" IVar="1" Cut="9.9406906127929688e+01" cType="1" res="2.9109150171279907e-01" rms="3.8627472519874573e-01" purity="8.0982679128646851e-01" nType="0">
          <Node pos="l" depth="2" NCoef="0" IVar="-1" Cut="0.0000000000000000e+00" cType="1" res="8.8347867131233215e-03" rms="3.6857768893241882e-02" purity="1.0000000000000000e+00" nType="-99"/>
          <Node pos="r" depth="2" NCoef="0" IVar="-1" Cut="0.0000000000000000e+00" cType="1" res="4.1631329804658890e-03" rms="4.7464710474014282e-01" purity="3.7222868204116821e-01" nType="-99"/>
        </Node>
        <Node pos="r" depth="1" NCoef="0" IVar="1" Cut="1.0467677307128906e+02" cType="0" res="-3.5577133297920227e-02" rms="4.9831646680831909e-01" purity="4.6367087960243225e-01" nType="0">
          <Node pos="l" depth="2" NCoef="0" IVar="-1" Cut="0.0000000000000000e+00" cType="1" res="2.8424202464520931e-03" rms="1.8927038181573153e-03" purity="1.0000000000000000e+00" nType="-99"/>
          <Node pos="r" depth="2" NCoef="0" IVar="-1" Cut="0.0000000000000000e+00" cType="1" res="-2.0228461362421513e-03" rms="4.9393430352210999e-01" purity="4.2464628815650940e-01" nType="-99"/>
        </Node>
      </Node>
    </BinaryTree>
    <BinaryTree type="DecisionTree" boostWeight="1.0000000000000000e+00" itree="3">
      <Node pos="s" depth="0" NCoef="0" IVar="7" Cut="1.0441399383544922e+02" cType="0" res="1.2993442825973034e-02" rms="4.9608650803565979e-01" purity="5.1588565111160278e-01" nType="0">
        <Node pos="l" depth="1" NCoef="0" IVar="4" Cut="-3.1954294443130493e-01" cType="1" res="1.5980280935764313e-01" rms="4.6908664703369141e-01" purity="6.6362392902374268e-01" nType="0">
          <Node pos="l" depth="2" NCoef="0" IVar="-1" Cut="0.0000000000000000e+00" cType="1" res="3.4269634634256363e-03" rms="9.3334056437015533e-03" purity="1.0000000000000000e+00" nType="-99"/>
          <Node pos="r" depth="2" NCoef="0" IVar="-1" Cut="0.0000000000000000e+00" cType="1" res="6.4650824060663581e-04" rms="4.9249207973480225e-01" purity="5.4918718338012695e-01" nType="-99"/>
        </Node>
        <Node pos="r" depth="1" NCoef="0" IVar="10" Cut="3.1745311737060547e+01" cType="0" res="-1.6902740299701691e-01" rms="4.6750149130821228e-01" purity="3.3271318674087524e-01" nType="0">
          <Node pos="l" depth="2" NCoef="0" IVar="-1" Cut="0.0000000000000000e+00" cType="1" res="-1.0313231032341719e-03" rms="4.9706667661666870e-01" purity="5.0784105062484741e-01" nType="-99"/>
          <Node pos="r" depth="2" NCoef="0" IVar="-1" Cut="0.0000000000000000e+00" cType="1" res="-7.5348638929426670e-03" rms="2.6068845391273499e-01" purity="7.7362805604934692e-02" nType="-99"/>
        </Node>
      </Node>
    </BinaryTree>
    <BinaryTree type="DecisionTree" boostWeight="1.0000000000000000e+00" itree="4">
      <Node pos="s" depth="0" NCoef="0" IVar="2" Cut="1.9352064132690430e+00" cType="1" res="5.3662523627281189e-02" rms="4.9372047185897827e-01" purity="5.5787980556488037e-01" nType="0">
        <Node pos="l" depth="1" NCoef="0" IVar="0" Cut="1.2933065891265869e+00" cType="1" res="1.7351140081882477e-01" rms="4.6373331546783447e-01" purity="6.7866647243499756e-01" nType="0">
          <Node pos="l" depth="2" NCoef="0" IVar="-1" Cut="0.0000000000000000e+00" cType="1" res="1.6468657413497567e-03" rms="3.9043793082237244e-01" purity="8.0943614244461060e-01" nType="-99"/>
          <Node pos="r" depth="2" NCoef="0" IVar="-1" Cut="0.0000000000000000e+00" cType="1" res="-3.3360898960381746e-03" rms="4.2963191866874695e-01" purity="2.4947685003280640e-01" nType="-99"/>
        </Node>
        <Node pos="r" depth="1" NCoef="0" IVar="0" Cut="-2.9147687554359436e-01" cType="0" res="-2.1055303514003754e-01" rms="4.5340961217880249e-01" purity="2.9159680008888245e-01" nType="0">
          <Node pos="l" depth="2" NCoef="0" IVar="-1" Cut="0.0000000000000000e+00" cType="1" res="2.7175415307283401e-03" rms="1.8482638522982597e-02" purity="1.0000000000000000e+00" nType="-99"/>
          <Node pos="r" depth="2" NCoef="0" IVar="-1" Cut="0.0000000000000000e+00" cType="1" res="-6.5026450902223587e-03" rms="3.3840444684028625e-01" purity="1.3187620043754578e-01" nType="-99"/>
        </Node>
      </Node>
    </BinaryTree>
    <BinaryTree type="DecisionTree" boostWeight="1.0000000000000000e+00" itree="5">
      <Node pos="s" depth="0" NCoef="0" IVar="2" Cut="1.4371109008789062e-01" cType="1" res="-6.0780119150876999e-02" rms="4.9183571338653564e-01" purity="4.4258069992065430e-01" nType="0">
        <Node pos="l" depth="1" NCoef="0" IVar="4" Cut="1.5562977790832520e+00" cType="1" res="1.2808811664581299e-01" rms="4.7553288936614990e-01" purity="6.3541901111602783e-01" nType="0">
          <Node pos="l" depth="2" NCoef="0" IVar="-1" Cut="0.0000000000000000e+00" cType="1" res="4.5704124495387077e-03" rms="4.2879205942153931e-01" purity="7.4981397390365601e-01" nType="-99"/>
          <Node pos="r" depth="2" NCoef="0" IVar="-1" Cut="0.0000000000000000e+00" cType="1" res="-4.5664529316127300e-03" rms="3.4237587451934814e-01" purity="1.4907078444957733e-01" nType="-99"/>
        </Node>
        <Node pos="r" depth="1" NCoef="0" IVar="13" Cut="2.2004659175872803e+00" cType="0" res="-1.7261065542697906e-01" rms="4.6649020910263062e-01" purity="3.2839941978454590e-01" nType="0">
          <Node pos="l" depth="2" NCoef="0" IVar="-1" Cut="0.0000000000000000e+00" cType="1" res="9.6416426822543144e-03" rms="1.6518402844667435e-02" purity="1.0000000000000000e+00" nType="-99"/>
          <Node pos="r" depth="2" NCoef="0" IVar="-1" Cut="0.0000000000000000e+00" cType="1" res="-3.3420354593545198e-03" rms="4.5203635096549988e-01" purity="2.9273673892021179e-01" nType="-99"/>
        </Node>
      </Node>
    </BinaryTree>
    <BinaryTree type="DecisionTree" boostWeight="1.0000000000000000e+00" itree="6">
      <Node pos="s" depth="0" NCoef="0" IVar="6" Cut="-5.9684509038925171e-01" cType="0" res="7.6043479144573212e-02" rms="4.9000772833824158e-01" purity="5.8135396242141724e-01" nType="0">
        <Node pos="l" depth="1" NCoef="0" IVar="2" Cut="-1.9463667869567871e+00" cType="0" res="1.9698821008205414e-01" rms="4.5318600535392761e-01" purity="7.0654547214508057e-01" nType="0">
          <Node pos="l" depth="2" NCoef="0" IVar="-1" Cut="0.0000000000000000e+00" cType="1" res="1.1490896577015519e-03" rms="3.5344824194908142e-01" purity="8.5340595245361328e-01" nType="-99"/>
          <Node pos="r" depth="2" NCoef="0" IVar="-1" Cut="0.0000000000000000e+00" cType="1" res="1.6911398852244020e-03" rms="4.8582494258880615e-01" purity="4.1202187538146973e-01" nType="-99"/>
        </Node>
        <Node pos="r" depth="1" NCoef="0" IVar="5" Cut="-1.8273758888244629e-01" cType="1" res="-1.1424814164638519e-01" rms="4.8530948162078857e-01" purity="3.8438063859939575e-01" nType="0">
          <Node pos="l" depth="2" NCoef="0" IVar="-1" Cut="0.0000000000000000e+00" cType="1" res="1.6155550256371498e-03" rms="4.7984835505485535e-01" purity="6.3779175281524658e-01" nType="-99"/>
          <Node pos="r" depth="2" NCoef="0" IVar="-1" Cut="0.0000000000000000e+00" cType="1" res="-5.4347035475075245e-03" rms="3.9730778336524963e-01" purity="1.9714806973934174e-01" nType="-99"/>
        </Node>
      </Node>
    </BinaryTree>
    <BinaryTree type="DecisionTree" boostWeight="1.0000000000000000e+00" itree="7">
      <Node pos="s" depth="0" NCoef="0" IVar="12" Cut="7.4950951337814331e-01" cType="0" res="-3.1647875439375639e-03" rms="4.9421286582946777e-01" purity="5.0092762708663940e-01" nType="0">
        <Node pos="l" depth="1" NCoef="0" IVar="2" Cut="1.9148859977722168e+00" cType="1" res="2.4616919457912445e-01" rms="4.3071007728576660e-01" purity="7.4862748384475708e-01" nType="0">
          <Node pos="l" depth="2" NCoef="0" IVar="-1" Cut="0.0000000000000000e+00" cType="1" res="9.5807807520031929e-03" rms="2.8414517641067505e-01" purity="9.1061633825302124e-01" nType="-99"/>
          <Node pos="r" depth="2" NCoef="0" IVar="-1" Cut="0.0000000000000000e+00" cType="1" res="-3.3091278746724129e-03" rms="4.7905293107032776e-01" purity="3.6506685614585876e-01" nType="-99"/>
        </Node>
        <Node pos="r" depth="1" NCoef="0" IVar="17" Cut="5.9232058525085449e+00" cType="1" res="-9.7193606197834015e-02" rms="4.8384973406791687e-01" purity="4.0751507878303528e-01" nType="0">
          <Node pos="l" depth="2" NCoef="0" IVar="-1" Cut="0.0000000000000000e+00" cType="1" res="1.2135270051658154e-02" rms="3.4450381994247437e-02" purity="1.0000000000000000e+00" nType="-99"/>
          <Node pos="r" depth="2" NCoef="0" IVar="-1" Cut="0.0000000000000000e+00" cType="1" res="-2.9578860849142075e-03" rms="4.7496688365936279e-01" purity="3.6795112490653992e-01" nType="-99"/>
        </Node>
      </Node>
    </BinaryTree>
    <BinaryTree type="DecisionTree" boostWeight="1.0000000000000000e+00" itree="8">
      <Node pos="s" depth="0" NCoef="0" IVar="12" Cut="1.4568164944648743e-01" cType="0" res="3.9489611983299255e-02" rms="4.9285888671875000e-01" purity="5.4565417766571045e-01" nType="0">
        <Node pos="l" depth="1" NCoef="0" IVar="12" Cut="1.9990972280502319e+00" cType="1" res="2.3083367943763733e-01" rms="4.3440234661102295e-01" purity="7.4011754989624023e-01" nType="0">
          <Node pos="l" depth="2" NCoef="0" IVar="-1" Cut="0.0000000000000000e+00" cType="1" res="5.7639395818114281e-03" rms="2.3328414186835289e-02" purity="1.0000000000000000e+00" nType="-99"/>
          <Node pos="r" depth="2" NCoef="0" IVar="-1" Cut="0.0000000000000000e+00" cType="1" res="2.3430341389030218e-03" rms="4.9506041407585144e-01" purity="5.0376635789871216e-01" nType="-99"/>
        </Node>
        <Node pos="r" depth="1" NCoef="0" IVar="5" Cut="6.4255839586257935e-01" cType="0" res="-9.8834484815597534e-02" rms="4.8630613088607788e-01" purity="4.0507507324218750e-01" nType="0">
          <Node pos="l" depth="2" NCoef="0" IVar="-1" Cut="0.0000000000000000e+00" cType="1" res="-7.0924521423876286e-04" rms="3.2154098153114319e-02" purity="1.0000000000000000e+00" nType="-99"/>
          <Node pos="r" depth="2" NCoef="0" IVar="-1" Cut="0.0000000000000000e+00" cType="1" res="-3.0915741808712482e-03" rms="4.6885436773300171e-01" purity="3.3679360151290894e-01" nType="-99"/>
        </Node>
      </Node>
    </BinaryTree>
    <BinaryTree type="DecisionTree" boostWeight="1.0000000000000000e+00" itree="9">
      <Node pos="s" depth="0" NCoef="0" IVar="1" Cut="6.0204547882080078e+01" cType="0" res="4.2232070118188858e-02" rms="4.9146017432212830e-01" purity="5.4736995697021484e-01" nType="0">
        <Node pos="l" depth="1" NCoef="0" IVar="8" Cut="9.3479545593261719e+01" cType="1" res="2.1428491175174713e-01" rms="4.4157564640045166e-01" purity="7.2332221269607544e-01" nType="0">
          <Node pos="l" depth="2" NCoef="0" IVar="-1" Cut="0.0000000000000000e+00" cType="1" res="4.9692429602146149e-03" rms="2.9782684519886971e-02" purity="1.0000000000000000e+00" nType="-99"/>
          <Node pos="r" depth="2" NCoef="0" IVar="-1" Cut="0.0000000000000000e+00" cType="1" res="2.5719901896081865e-04" rms="4.9091666936874390e-01" purity="5.5883562564849854e-01" nType="-99"/>
        </Node>
        <Node pos="r" depth="1" NCoef="0" IVar="2" Cut="1.2533214688301086e-01" cType="1" res="-8.5860617458820343e-02" rms="4.8758438229560852e-01" purity="4.1637417674064636e-01" nType="0">
          <Node pos="l" depth="2" NCoef="0" IVar="-1" Cut="0.0000000000000000e+00" cType="1" res="1.0247760656056926e-04" rms="4.6072971820831299e-01" purity="6.7765128612518311e-01" nType="-99"/>
          <Node pos="r" depth="2" NCoef="0" IVar="-1" Cut="0.0000000000000000e+00" cType="1" res="-3.6462077405303717e-03" rms="4.5258757472038269e-01" purity="2.9369843006134033e-01" nType="-99"/>
        </Node>
      </Node>
    </BinaryTree>
    <BinaryTree type="DecisionTree" boostWeight="1.0000000000000000e+00" itree="10">
      <Node pos="s" depth="0" NCoef="0" IVar="0" Cut="-4.9636596441268921e-01" cType="0" res="-2.2835152223706245e-02" rms="4.9355641007423401e-01" purity="4.8146995902061462e-01" nType="0">
        <Node pos="l" depth="1" NCoef="0" IVar="10" Cut="4.1111618041992188e+01" cType="0" res="1.0354939103126526e-01" rms="4.8100629448890686e-01" purity="6.1054468154907227e-01" nType="0">
          <Node pos="l" depth="2" NCoef="0" IVar="-1" Cut="0.0000000000000000e+00" cType="1" res="6.0757622122764587e-03" rms="3.6391621828079224e-01" purity="8.3945089578628540e-01" nType="-99"/>
          <Node pos="r" depth="2" NCoef="0" IVar="-1" Cut="0.0000000000000000e+00" cType="1" res="-1.5467535704374313e-03" rms="4.9056923389434814e-01" purity="4.5518985390663147e-01" nType="-99"/>
        </Node>
        <Node pos="r" depth="1" NCoef="0" IVar="10" Cut="4.1871299743652344e+01" cType="1" res="-1.5724694728851318e-01" rms="4.7069260478019714e-01" purity="3.4419709444046021e-01" nType="0">
          <Node pos="l" depth="2" NCoef="0" IVar="-1" Cut="0.0000000000000000e+00" cType="1" res="-1.1050564935430884e-03" rms="3.8058128952980042e-01" purity="8.2084578275680542e-01" nType="-99"/>
          <Node pos="r" depth="2" NCoef="0" IVar="-1" Cut="0.0000000000000000e+00" cType="1" res="-3.3332481980323792e-03" rms="4.1690152883529663e-01" purity="2.3045137524604797e-01" nType="-99"/>
        </Node>
      </Node>
    </BinaryTree>
    <BinaryTree type="DecisionTree" boostWeight="1.0000000000000000e+00" itree="11">
      <Node pos="s" depth="0" NCoef="0" IVar="7" Cut="8.3647232055664062e+01" cType="0" res="7.1080788969993591e-02" rms="4.8730328679084778e-01" purity="5.7742607593536377e-01" nType="0">
        <Node pos="l" depth="1" NCoef="0" IVar="3" Cut="-1.4328916072845459e+00" cType="0" res="1.5822514891624451e-01" rms="4.6552583575248718e-01" purity="6.6504096984863281e-01" nType="0">
          <Node pos="l" depth="2" NCoef="0" IVar="-1" Cut="0.0000000000000000e+00" cType="1" res="3.0490977223962545e-03" rms="4.2128652334213257e-01" purity="7.6166063547134399e-01" nType="-99"/>
          <Node pos="r" depth="2" NCoef="0" IVar="-1" Cut="0.0000000000000000e+00" cType="1" res="-4.7790878452360630e-03" rms="4.1089740395545959e-01" purity="2.2545349597930908e-01" nType="-99"/>
        </Node>
        <Node pos="r" depth="1" NCoef="0" IVar="14" Cut="-6.0264304280281067e-02" cType="1" res="-2.0030723512172699e-01" rms="4.5253077149391174e-01" purity="3.0457261204719543e-01" nType="0">
          <Node pos="l" depth="2" NCoef="0" IVar="-1" Cut="0.0000000000000000e+00" cType="1" res="1.3472073478624225e-03" rms="3.1266707926988602e-02" purity="1.0000000000000000e+00" nType="-99"/>
          <Node pos="r" depth="2" NCoef="0" IVar="-1" Cut="0.0000000000000000e+00" cType="1" res="-7.2974357753992081e-03" rms="3.6612793803215027e-01" purity="1.6814844310283661e-01" nType="-99"/>
        </Node>
      </Node>
    </BinaryTree>
    <BinaryTree type="DecisionTree" boostWeight="1.0000000000000000e+00" itree="12">
      <Node pos="s" depth="0" NCoef="0" IVar="9" Cut="8.0617385864257812e+01" cType="0" res="-5.2785463631153107e-02" rms="4.9071055650711060e-01" purity="4.5236453413963318e-01" nType="0">
        <Node pos="l" depth="1" NCoef="0" IVar="2" Cut="7.2601360082626343e-01" cType="1" res="2.3905232548713684e-01" rms="4.2842957377433777e-01" purity="7.5115627050399780e-01" nType="0">
          <Node pos="l" depth="2" NCoef="0" IVar="-1" Cut="0.0000000000000000e+00" cType="1" res="1.7563484609127045e-02" rms="2.4582087993621826e-02" purity="1.0000000000000000e+00" nType="-99"/>
          <Node pos="r" depth="2" NCoef="0" IVar="-1" Cut="0.0000000000000000e+00" cType="1" res="-2.3473589681088924e-03" rms="4.9766713380813599e-01" purity="4.9703955650329590e-01" nType="-99"/>
        </Node>
        <Node pos="r" depth="1" NCoef="0" IVar="0" Cut="-1.0954427719116211e+00" cType="1" res="-1.1617024987936020e-01" rms="4.8032727837562561e-01" purity="3.8746944069862366e-01" nType="0">
          <Node pos="l" depth="2" NCoef="0" IVar="-1" Cut="0.0000000000000000e+00" cType="1" res="-2.0352944266051054e-03" rms="8.1379832699894905e-03" purity="1.0000000000000000e+00" nType="-99"/>
          <Node pos="r" depth="2" NCoef="0" IVar="-1" Cut="0.0000000000000000e+00" cType="1" res="-9.5793191576376557e-04" rms="4.6835884451866150e-01" purity="3.4620058536529541e-01" nType="-99"/>
        </Node>
      </Node>
    </BinaryTree>
    <BinaryTree type="DecisionTree" boostWeight="1.0000000000000000e+00" itree="13">
      <Node pos="s" depth="0" NCoef="0" IVar="2" Cut="1.6379210948944092e+00" cType="1" res="6.3904211856424809e-03" rms="4.9170520901679993e-01" purity="5.1154345273971558e-01" nType="0">
        <Node pos="l" depth="1" NCoef="0" IVar="14" Cut="7.2845375537872314e-01" cType="1" res="1.8573921918869019e-01" rms="4.5356681942939758e-01" purity="6.9810897111892700e-01" nType="0">
          <Node pos="l" depth="2" NCoef="0" IVar="-1" Cut="0.0000000000000000e+00" cType="1" res="4.5160683803260326e-03" rms="2.4982683360576630e-01" purity="9.3218201398849487e-01" nType="-99"/>
          <Node pos="r" depth="2" NCoef="0" IVar="-1" Cut="0.0000000000000000e+00" cType="1" res="-7.0722837699577212e-04" rms="4.9399194121360779e-01" purity="5.1031553745269775e-01" nType="-99"/>
        </Node>
        <Node pos="r" depth="1" NCoef="0" IVar="3" Cut="-8.6426442861557007e-01" cType="0" res="-2.3911038041114807e-01" rms="4.3222859501838684e-01" purity="2.5616407394409180e-01" nType="0">
          <Node pos="l" depth="2" NCoef="0" IVar="-1" Cut="0.0000000000000000e+00" cType="1" res="-5.2764028077945113e-04" rms="4.9047386646270752e-01" purity="4.3008473515510559e-01" nType="-99"/>
          <Node pos="r" depth="2" NCoef="0" IVar="-1" Cut="0.0000000000000000e+00" cType="1" res="-8.0581326037645340e-03" rms="2.6455014944076538e-01" purity="7.6899081468582153e-02" nType="-99"/>
        </Node>
      </Node>
    </BinaryTree>
    <BinaryTree type="DecisionTree" boostWeight="1.0000000000000000e+00" itree="14">
      <Node pos="s" depth="0" NCoef="0" IVar="7" Cut="6.9085464477539062e+01" cType="0" res="5.3792286664247513e-02" rms="4.8842465877532959e-01" purity="5.6042629480361938e-01" nType="0">
        <Node pos="l" depth="1" NCoef="0" IVar="0" Cut="-2.8955608606338501e-01" cType="0" res="1.4615911245346069e-01" rms="4.6810021996498108e-01" purity="6.5486270189285278e-01" nType="0">
          <Node pos="l" depth="2" NCoef="0" IVar="-1" Cut="0.0000000000000000e+00" cType="1" res="3.3143323380500078e-03" rms="3.8469910621643066e-01" purity="8.1031292676925659e-01" nType="-99"/>
          <Node pos="r" depth="2" NCoef="0" IVar="-1" Cut="0.0000000000000000e+00" cType="1" res="-1.4850966399535537e-03" rms="4.9480083584785461e-01" purity="5.0834929943084717e-01" nType="-99"/>
        </Node>
        <Node pos="r" depth="1" NCoef="0" IVar="17" Cut="7.2407956123352051e+00" cType="1" res="-3.9916935563087463e-01" rms="2.9475826025009155e-01" purity="9.7315438091754913e-02" nType="0">
          <Node pos="l" depth="2" NCoef="0" IVar="-1" Cut="0.0000000000000000e+00" cType="1" res="-2.1105299238115549e-03" rms="4.9337860941886902e-01" purity="4.1202184557914734e-01" nType="-99"/>
          <Node pos="r" depth="2" NCoef="0" IVar="-1" Cut="0.0000000000000000e+00" cType="1" res="-9.1452999040484428e-03" rms="1.4854741096496582e-01" purity="2.2579805925488472e-02" nType="-99"/>
        </Node>
      </Node>
    </BinaryTree>
    <BinaryTree type="DecisionTree" boostWeight="1.0000000000000000e+00" itree="15">
      <Node pos="s" depth="0" NCoef="0" IVar="6" Cut="7.3052114248275757e-01" cType="0" res="5.7959775440394878e-03" rms="4.9199575185775757e-01" purity="5.1269751787185669e-01" nType="0">
        <Node pos="l" depth="1" NCoef="0" IVar="5" Cut="-3.8824003189802170e-02" cType="0" res="2.7958720922470093e-01" rms="3.8510048389434814e-01" purity="8.0685693025588989e-01" nType="0">
          <Node pos="l" depth="2" NCoef="0" IVar="-1" Cut="0.0000000000000000e+00" cType="1" res="1.3072082772850990e-02" rms="3.7123147398233414e-02" purity="1.0000000000000000e+00" nType="-99"/>
          <Node pos="r" depth="2" NCoef="0" IVar="-1" Cut="0.0000000000000000e+00" cType="1" res="2.2656760120298713e-04" rms="4.7876483201980591e-01" purity="5.9715461730957031e-01" nType="-99"/>
        </Node>
        <Node pos="r" depth="1" NCoef="0" IVar="6" Cut="-1.3642065227031708e-01" cType="1" res="-5.7133756577968597e-02" rms="4.9236145615577698e-01" purity="4.4508624076843262e-01" nType="0">
          <Node pos="l" depth="2" NCoef="0" IVar="-1" Cut="0.0000000000000000e+00" cType="1" res="-5.1971402717754245e-04" rms="4.7705319523811340e-01" purity="6.3610005378723145e-01" nType="-99"/>
          <Node pos="r" depth="2" NCoef="0" IVar="-1" Cut="0.0000000000000000e+00" cType="1" res="-2.6703823823481798e-03" rms="4.5442885160446167e-01" purity="3.0275756120681763e-01" nType="-99"/>
        </Node>
      </Node>
    </BinaryTree>
    <BinaryTree type="DecisionTree" boostWeight="1.0000000000000000e+00" itree="16">
      <Node pos="s" depth="0" NCoef="0" IVar="15" Cut="2.5997768402099609e+01" cType="0" res="-5.0819512456655502e-02" rms="4.8938268423080444e-01" purity="4.5496121048927307e-01" nType="0">
        <Node pos="l" depth="1" NCoef="0" IVar="6" Cut="5.3669202327728271e-01" cType="0" res="4.8496419191360474e-01" rms="2.1387346088886261e-02" purity="1.0000000000000000e+00" nType="0">
          <Node pos="l" depth="2" NCoef="0" IVar="-1" Cut="0.0000000000000000e+00" cType="1" res="1.7689320445060730e-01" rms="3.2720200717449188e-02" purity="1.0000000000000000e+00" nType="-99"/>
          <Node pos="r" depth="2" NCoef="0" IVar="-1" Cut="0.0000000000000000e+00" cType="1" res="1.6711117932572961e-03" rms="9.3189468607306480e-03" purity="1.0000000000000000e+00" nType="-99"/>
        </Node>
        <Node pos="r" depth="1" NCoef="0" IVar="0" Cut="-1.3006637096405029e+00" cType="1" res="-8.9906312525272369e-02" rms="4.8421481251716614e-01" purity="4.1519924998283386e-01" nType="0">
          <Node pos="l" depth="2" NCoef="0" IVar="-1" Cut="0.0000000000000000e+00" cType="1" res="-2.6910908054560423e-03" rms="1.0292406193912029e-02" purity="1.0000000000000000e+00" nType="-99"/>
          <Node pos="r" depth="2" NCoef="0" IVar="-1" Cut="0.0000000000000000e+00" cType="1" res="-5.5186386452987790e-04" rms="4.7769775986671448e-01" purity="3.8588476181030273e-01" nType="-99"/>
        </Node>
      </Node>
    </BinaryTree>
    <BinaryTree type="DecisionTree" boostWeight="1.0000000000000000e+00" itree="17">
      <Node pos="s" depth="0" NCoef="0" IVar="7" Cut="1.1612389373779297e+02" cType="0" res="2.2545777261257172e-02" rms="4.8893687129020691e-01" purity="5.3137344121932983e-01" nType="0">
        <Node pos="l" depth="1" NCoef="0" IVar="11" Cut="-1.3597934246063232e+00" cType="0" res="2.0123237371444702e-01" rms="4.4197046756744385e-01" purity="7.1316230297088623e-01" nType="0">
          <Node pos="l" depth="2" NCoef="0" IVar="-1" Cut="0.0000000000000000e+00" cType="1" res="3.1977216713130474e-03" rms="3.1653505563735962e-01" purity="8.7996429204940796e-01" nType="-99"/>
          <Node pos="r" depth="2" NCoef="0" IVar="-1" Cut="0.0000000000000000e+00" cType="1" res="3.4983808291144669e-04" rms="4.8905438184738159e-01" purity="4.6565136313438416e-01" nType="-99"/>
        </Node>
        <Node pos="r" depth="1" NCoef="0" IVar="5" Cut="-3.5090348124504089e-01" cType="1" res="-1.3388319313526154e-01" rms="4.7424975037574768e-01" purity="3.7222871184349060e-01" nType="0">
          <Node pos="l" depth="2" NCoef="0" IVar="-1" Cut="0.0000000000000000e+00" cType="1" res="3.9504836313426495e-03" rms="3.9815384149551392e-01" purity="7.9049849510192871e-01" nType="-99"/>
          <Node pos="r" depth="2" NCoef="0" IVar="-1" Cut="0.0000000000000000e+00" cType="1" res="-4.4502732343971729e-03" rms="4.4709807634353638e-01" purity="2.9851770401000977e-01" nType="-99"/>
        </Node>
      </Node>
    </BinaryTree>
    <BinaryTree type="DecisionTree" boostWeight="1.0000000000000000e+00" itree="18">
      <Node pos="s" depth="0" NCoef="0" IVar="12" Cut="7.4278110265731812e-01" cType="0" res="-2.5388199836015701e-02" rms="4.9159377813339233e-01" purity="4.8136764764785767e-01" nType="0">
        <Node pos="l" depth="1" NCoef="0" IVar="7" Cut="1.0784073638916016e+02" cType="0" res="2.7061009407043457e-01" rms="4.0648421645164490e-01" purity="7.8810554742813110e-01" nType="0">
          <Node pos="l" depth="2" NCoef="0" IVar="-1" Cut="0.0000000000000000e+00" cType="1" res="9.1123795136809349e-03" rms="1.9741339609026909e-02" purity="1.0000000000000000e+00" nType="-99"/>
          <Node pos="r" depth="2" NCoef="0" IVar="-1" Cut="0.0000000000000000e+00" cType="1" res="4.9931426474358886e-05" rms="4.9821183085441589e-01" purity="5.2290862798690796e-01" nType="-99"/>
        </Node>
        <Node pos="r" depth="1" NCoef="0" IVar="9" Cut="4.8200389862060547e+01" cType="1" res="-1.1353500932455063e-01" rms="4.8017209768295288e-01" purity="3.9002269506454468e-01" nType="0">
          <Node pos="l" depth="2" NCoef="0" IVar="-1" Cut="0.0000000000000000e+00" cType="1" res="4.3195442412979901e-04" rms="3.9106354117393494e-01" purity="8.0785715579986572e-01" nType="-99"/>
          <Node pos="r" depth="2" NCoef="0" IVar="-1" Cut="0.0000000000000000e+00" cType="1" res="-2.8705012518912554e-03" rms="4.6510738134384155e-01" purity="3.3866009116172791e-01" nType="-99"/>
        </Node>
      </Node>
    </BinaryTree>
    <BinaryTree type="DecisionTree" boostWeight="1.0000000000000000e+00" itree="19">
      <Node pos="s" depth="0" NCoef="0" IVar="3" Cut="-1.2094105482101440e+00" cType="0" res="-5.1107425242662430e-02" rms="4.8710179328918457e-01" purity="4.5397508144378662e-01" nType="0">
        <Node pos="l" depth="1" NCoef="0" IVar="10" Cut="4.9538169860839844e+01" cType="0" res="4.4217679649591446e-02" rms="4.8748639225959778e-01" purity="5.5406361818313599e-01" nType="0">
          <Node pos="l" depth="2" NCoef="0" IVar="-1" Cut="0.0000000000000000e+00" cType="1" res="5.8899740688502789e-03" rms="3.0289670825004578e-01" purity="8.9667755365371704e-01" nType="-99"/>
          <Node pos="r" depth="2" NCoef="0" IVar="-1" Cut="0.0000000000000000e+00" cType="1" res="-9.6184876747429371e-04" rms="4.8837229609489441e-01" purity="4.5978224277496338e-01" nType="-99"/>
        </Node>
        <Node pos="r" depth="1" NCoef="0" IVar="4" Cut="-2.7180328965187073e-01" cType="1" res="-3.2538592815399170e-01" rms="3.6717212200164795e-01" purity="1.6599094867706299e-01" nType="0">
          <Node pos="l" depth="2" NCoef="0" IVar="-1" Cut="0.0000000000000000e+00" cType="1" res="4.6175825409591198e-03" rms="1.2777624651789665e-02" purity="1.0000000000000000e+00" nType="-99"/>
          <Node pos="r" depth="2" NCoef="0" IVar="-1" Cut="0.0000000000000000e+00" cType="1" res="-7.7111837454140186e-03" rms="2.0208710432052612e-01" purity="4.3620947748422623e-02" nType="-99"/>
        </Node>
      </Node>
    </BinaryTree>
    <BinaryTree type="DecisionTree" boostWeight="1.0000000000000000e+00" itree="20">
      <Node pos="s" depth="0" NCoef="0" IVar="11" Cut="1.9207422733306885e+00" cType="0" res="-6.0145072638988495e-03" rms="4.9106663465499878e-01" purity="5.0499236583709717e-01" nType="0">
        <Node pos="l" depth="1" NCoef="0" IVar="6" Cut="8.1032228469848633e-01" cType="0" res="4.6313521265983582e-01" rms="4.5704830437898636e-02" purity="1.0000000000000000e+00" nType="0">
          <Node pos="l" depth="2" NCoef="0" IVar="-1" Cut="0.0000000000000000e+00" cType="1" res="1.5586742758750916e-01" rms="2.5724211707711220e-02" purity="1.0000000000000000e+00" nType="-99"/>
          <Node pos="r" depth="2" NCoef="0" IVar="-1" Cut="0.0000000000000000e+00" cType="1" res="1.2526162900030613e-03" rms="1.1634567752480507e-02" purity="1.0000000000000000e+00" nType="-99"/>
        </Node>
        <Node pos="r" depth="1" NCoef="0" IVar="4" Cut="6.5645806491374969e-02" cType="0" res="-6.0910258442163467e-02" rms="4.9025604128837585e-01" purity="4.4707089662551880e-01" nType="0">
          <Node pos="l" depth="2" NCoef="0" IVar="-1" Cut="0.0000000000000000e+00" cType="1" res="2.5505677331238985e-04" rms="4.6380841732025146e-01" purity="6.6724395751953125e-01" nType="-99"/>
          <Node pos="r" depth="2" NCoef="0" IVar="-1" Cut="0.0000000000000000e+00" cType="1" res="-1.8110965611413121e-03" rms="4.7060462832450867e-01" purity="3.4920549392700195e-01" nType="-99"/>
        </Node>
      </Node>
    </BinaryTree>
    <BinaryTree type="DecisionTree" boostWeight="1.0000000000000000e+00" itree="21">
      <Node pos="s" depth="0" NCoef="0" IVar="3" Cut="-1.1825445890426636e+00" cType="0" res="-1.8648536875844002e-02" rms="4.8635873198509216e-01" purity="4.9118736386299133e-01" nType="0">
        <Node pos="l" depth="1" NCoef="0" IVar="14" Cut="2.8089847564697266e+00" cType="1" res="5.5777020752429962e-02" rms="4.8341423273086548e-01" purity="5.7121711969375610e-01" nType="0">
          <Node pos="l" depth="2" NCoef="0" IVar="-1" Cut="0.0000000000000000e+00" cType="1" res="1.1074403300881386e-03" rms="4.7253689169883728e-01" purity="6.2418687343597412e-01" nType="-99"/>
          <Node pos="r" depth="2" NCoef="0" IVar="-1" Cut="0.0000000000000000e+00" cType="1" res="-5.0813802517950535e-03" rms="4.0495669841766357e-01" purity="2.1893146634101868e-01" nType="-99"/>
        </Node>
        <Node pos="r" depth="1" NCoef="0" IVar="2" Cut="1.0433641672134399e+00" cType="1" res="-2.4817088246345520e-01" rms="4.1903242468833923e-01" purity="2.4438202381134033e-01" nType="0">
          <Node pos="l" depth="2" NCoef="0" IVar="-1" Cut="0.0000000000000000e+00" cType="1" res="2.9799036681652069e-02" rms="2.6360228657722473e-02" purity="1.0000000000000000e+00" nType="-99"/>
          <Node pos="r" depth="2" NCoef="0" IVar="-1" Cut="0.0000000000000000e+00" cType="1" res="-8.0715352669358253e-03" rms="2.4216009676456451e-01" purity="6.7052021622657776e-02" nType="-99"/>
        </Node>
      </Node>
    </BinaryTree>
    <BinaryTree type="DecisionTree" boostWeight="1.0000000000000000e+00" itree="22">
      <Node pos="s" depth="0" NCoef="0" IVar="0" Cut="-8.9486211538314819e-01" cType="1" res="3.1988646835088730e-02" rms="4.8893803358078003e-01" purity="5.4495644569396973e-01" nType="0">
        <Node pos="l" depth="1" NCoef="0" IVar="6" Cut="6.3364499807357788e-01" cType="0" res="4.8701587319374084e-01" rms="3.0242566019296646e-02" purity="1.0000000000000000e+00" nType="0">
          <Node pos="l" depth="2" NCoef="0" IVar="-1" Cut="0.0000000000000000e+00" cType="1" res="-6.0810856521129608e-03" rms="6.6811561584472656e-02" purity="1.0000000000000000e+00" nType="-99"/>
          <Node pos="r" depth="2" NCoef="0" IVar="-1" Cut="0.0000000000000000e+00" cType="1" res="5.5564875947311521e-04" rms="1.2257972732186317e-02" purity="1.0000000000000000e+00" nType="-99"/>
        </Node>
        <Node pos="r" depth="1" NCoef="0" IVar="11" Cut="4.4341006875038147e-01" cType="0" res="-3.6068268120288849e-02" rms="4.8895767331123352e-01" purity="4.7689706087112427e-01" nType="0">
          <Node pos="l" depth="2" NCoef="0" IVar="-1" Cut="0.0000000000000000e+00" cType="1" res="1.6042010392993689e-03" rms="4.3869432806968689e-01" purity="7.1371561288833618e-01" nType="-99"/>
          <Node pos="r" depth="2" NCoef="0" IVar="-1" Cut="0.0000000000000000e+00" cType="1" res="-1.0791440727189183e-03" rms="4.7585403919219971e-01" purity="3.6658820509910583e-01" nType="-99"/>
        </Node>
      </Node>
    </BinaryTree>
    <BinaryTree type="DecisionTree" boostWeight="1.0000000000000000e+00" itree="23">
      <Node pos="s" depth="0" NCoef="0" IVar="3" Cut="-9.0745925903320312e-01" cType="0" res="-6.7192010581493378e-02" rms="4.8280391097068787e-01" purity="4.3985140323638916e-01" nType="0">
        <Node pos="l" depth="1" NCoef="0" IVar="0" Cut="1.8808062076568604e+00" cType="1" res="1.5334673225879669e-02" rms="4.8794579505920410e-01" purity="5.2823948860168457e-01" nType="0">
          <Node pos="l" depth="2" NCoef="0" IVar="-1" Cut="0.0000000000000000e+00" cType="1" res="1.3845746871083975e-03" rms="4.8385286331176758e-01" purity="5.7403010129928589e-01" nType="-99"/>
          <Node pos="r" depth="2" NCoef="0" IVar="-1" Cut="0.0000000000000000e+00" cType="1" res="-6.9416607730090618e-03" rms="2.7530074119567871e-01" purity="8.6199574172496796e-02" nType="-99"/>
        </Node>
        <Node pos="r" depth="1" NCoef="0" IVar="4" Cut="-3.7674513459205627e-01" cType="1" res="-2.6536503434181213e-01" rms="4.0680009126663208e-01" purity="2.2760337591171265e-01" nType="0">
          <Node pos="l" depth="2" NCoef="0" IVar="-1" Cut="0.0000000000000000e+00" cType="1" res="8.3217695355415344e-03" rms="2.6127606630325317e-02" purity="1.0000000000000000e+00" nType="-99"/>
          <Node pos="r" depth="2" NCoef="0" IVar="-1" Cut="0.0000000000000000e+00" cType="1" res="-6.7062824964523315e-03" rms="2.7728807926177979e-01" purity="8.8444605469703674e-02" nType="-99"/>
        </Node>
      </Node>
    </BinaryTree>
    <BinaryTree type="DecisionTree" boostWeight="1.0000000000000000e+00" itree="24">
      <Node pos="s" depth="0" NCoef="0" IVar="9" Cut="9.2848937988281250e+01" cType="0" res="5.6256607174873352e-02" rms="4.8152717947959900e-01" purity="5.7033044099807739e-01" nType="0">
        <Node pos="l" depth="1" NCoef="0" IVar="6" Cut="7.3781257867813110e-01" cType="0" res="4.6240809559822083e-01" rms="4.8358339816331863e-02" purity="1.0000000000000000e+00" nType="0">
          <Node pos="l" depth="2" NCoef="0" IVar="-1" Cut="0.0000000000000000e+00" cType="1" res="1.6483364999294281e-01" rms="6.9245643913745880e-02" purity="1.0000000000000000e+00" nType="-99"/>
          <Node pos="r" depth="2" NCoef="0" IVar="-1" Cut="0.0000000000000000e+00" cType="1" res="5.9855640865862370e-03" rms="1.1730602011084557e-02" purity="1.0000000000000000e+00" nType="-99"/>
        </Node>
        <Node pos="r" depth="1" NCoef="0" IVar="10" Cut="3.8328189849853516e+01" cType="0" res="1.1430474929511547e-02" rms="4.8681166768074036e-01" purity="5.2290862798690796e-01" nType="0">
          <Node pos="l" depth="2" NCoef="0" IVar="-1" Cut="0.0000000000000000e+00" cType="1" res="9.5832854276522994e-04" rms="4.6618151664733887e-01" purity="6.4994215965270996e-01" nType="-99"/>
          <Node pos="r" depth="2" NCoef="0" IVar="-1" Cut="0.0000000000000000e+00" cType="1" res="-3.6767392884939909e-03" rms="4.7524079680442810e-01" purity="3.9011487364768982e-01" nType="-99"/>
        </Node>
      </Node>
    </BinaryTree>
    <BinaryTree type="DecisionTree" boostWeight="1.0000000000000000e+00" itree="25">
      <Node pos="s" depth="0" NCoef="0" IVar="3" Cut="8.4209823608398438e-01" cType="0" res="3.8374502211809158e-02" rms="4.8284187912940979e-01" purity="5.5082446336746216e-01" nType="0">
        <Node pos="l" depth="1" NCoef="0" IVar="6" Cut="8.8527691364288330e-01" cType="0" res="4.6179893612861633e-01" rms="5.7791069149971008e-02" purity="1.0000000000000000e+00" nType="0">
          <Node pos="l" depth="2" NCoef="0" IVar="-1" Cut="0.0000000000000000e+00" cType="1" res="1.6742900013923645e-01" rms="7.4547559022903442e-02" purity="1.0000000000000000e+00" nType="-99"/>
          <Node pos="r" depth="2" NCoef="0" IVar="-1" Cut="0.0000000000000000e+00" cType="1" res="-2.2063539363443851e-03" rms="2.4310171604156494e-02" purity="1.0000000000000000e+00" nType="-99"/>
        </Node>
        <Node pos="r" depth="1" NCoef="0" IVar="12" Cut="2.2320806980133057e+00" cType="0" res="-1.3400517404079437e-02" rms="4.8644796013832092e-01" purity="4.9590069055557251e-01" nType="0">
          <Node pos="l" depth="2" NCoef="0" IVar="-1" Cut="0.0000000000000000e+00" cType="1" res="1.7203610623255372e-03" rms="4.3007060885429382e-02" purity="1.0000000000000000e+00" nType="-99"/>
          <Node pos="r" depth="2" NCoef="0" IVar="-1" Cut="0.0000000000000000e+00" cType="1" res="-1.3314808020368218e-03" rms="4.8467800021171570e-01" purity="4.5116043090820312e-01" nType="-99"/>
        </Node>
      </Node>
    </BinaryTree>
    <BinaryTree type="DecisionTree" boostWeight="1.0000000000000000e+00" itree="26">
      <Node pos="s" depth="0" NCoef="0" IVar="5" Cut="-1.1822324991226196e-01" cType="1" res="4.6186227351427078e-02" rms="4.8039451241493225e-01" purity="5.6223022937774658e-01" nType="0">
        <Node pos="l" depth="1" NCoef="0" IVar="4" Cut="-1.2499260902404785e+00" cType="0" res="3.0395594239234924e-01" rms="3.7415948510169983e-01" purity="8.2368361949920654e-01" nType="0">
          <Node pos="l" depth="2" NCoef="0" IVar="-1" Cut="0.0000000000000000e+00" cType="1" res="3.1897581648081541e-03" rms="4.5676831156015396e-02" purity="1.0000000000000000e+00" nType="-99"/>
          <Node pos="r" depth="2" NCoef="0" IVar="-1" Cut="0.0000000000000000e+00" cType="1" res="-3.7200190126895905e-03" rms="4.9387395381927490e-01" purity="4.6820428967475891e-01" nType="-99"/>
        </Node>
        <Node pos="r" depth="1" NCoef="0" IVar="4" Cut="2.5867065787315369e-01" cType="0" res="-7.7276721596717834e-02" rms="4.7664770483970642e-01" purity="4.3700292706489563e-01" nType="0">
          <Node pos="l" depth="2" NCoef="0" IVar="-1" Cut="0.0000000000000000e+00" cType="1" res="1.3836177531629801e-03" rms="4.2655748128890991e-01" purity="7.3453944921493530e-01" nType="-99"/>
          <Node pos="r" depth="2" NCoef="0" IVar="-1" Cut="0.0000000000000000e+00" cType="1" res="-3.5870177671313286e-03" rms="4.4212609529495239e-01" purity="2.9818907380104065e-01" nType="-99"/>
        </Node>
      </Node>
    </BinaryTree>
    <BinaryTree type="DecisionTree" boostWeight="1.0000000000000000e+00" itree="27">
      <Node pos="s" depth="0" NCoef="0" IVar="14" Cut="-2.5370271205902100e+00" cType="1" res="-4.6254549175500870e-02" rms="4.8144984245300293e-01" purity="4.6541807055473328e-01" nType="0">
        <Node pos="l" depth="1" NCoef="0" IVar="12" Cut="3.6861783266067505e-01" cType="0" res="4.7838732600212097e-01" rms="3.9332218468189240e-02" purity="1.0000000000000000e+00" nType="0">
          <Node pos="l" depth="2" NCoef="0" IVar="-1" Cut="0.0000000000000000e+00" cType="1" res="1.4872828498482704e-02" rms="4.9000639468431473e-02" purity="1.0000000000000000e+00" nType="-99"/>
          <Node pos="r" depth="2" NCoef="0" IVar="-1" Cut="0.0000000000000000e+00" cType="1" res="1.6496340977028012e-03" rms="9.5395725220441818e-03" purity="1.0000000000000000e+00" nType="-99"/>
        </Node>
        <Node pos="r" depth="1" NCoef="0" IVar="1" Cut="6.0173500061035156e+01" cType="0" res="-7.7309735119342804e-02" rms="4.7766694426536560e-01" purity="4.3377453088760376e-01" nType="0">
          <Node pos="l" depth="2" NCoef="0" IVar="-1" Cut="0.0000000000000000e+00" cType="1" res="1.7791010905057192e-03" rms="4.7266912460327148e-01" purity="6.0894846916198730e-01" nType="-99"/>
          <Node pos="r" depth="2" NCoef="0" IVar="-1" Cut="0.0000000000000000e+00" cType="1" res="-2.8267353773117065e-03" rms="4.4911807775497437e-01" purity="3.1945395469665527e-01" nType="-99"/>
        </Node>
      </Node>
    </BinaryTree>
    <BinaryTree type="DecisionTree" boostWeight="1.0000000000000000e+00" itree="28">
      <Node pos="s" depth="0" NCoef="0" IVar="9" Cut="6.9523567199707031e+01" cType="0" res="-2.2916402667760849e-03" rms="4.8198550939559937e-01" purity="5.0969922542572021e-01" nType="0">
        <Node pos="l" depth="1" NCoef="0" IVar="13" Cut="1.6432580947875977e+00" cType="1" res="2.6915436983108521e-01" rms="3.8133618235588074e-01" purity="8.0027222633361816e-01" nType="0">
          <Node pos="l" depth="2" NCoef="0" IVar="-1" Cut="0.0000000000000000e+00" cType="1" res="1.0036472231149673e-03" rms="6.7210458219051361e-02" purity="1.0000000000000000e+00" nType="-99"/>
          <Node pos="r" depth="2" NCoef="0" IVar="-1" Cut="0.0000000000000000e+00" cType="1" res="-9.5682800747454166e-04" rms="4.7381705045700073e-01" purity="5.4251694679260254e-01" nType="-99"/>
        </Node>
        <Node pos="r" depth="1" NCoef="0" IVar="13" Cut="2.2325406074523926e+00" cType="0" res="-9.9167287349700928e-02" rms="4.7711589932441711e-01" purity="4.0599742531776428e-01" nType="0">
          <Node pos="l" depth="2" NCoef="0" IVar="-1" Cut="0.0000000000000000e+00" cType="1" res="1.3853620737791061e-02" rms="3.7465792149305344e-02" purity="1.0000000000000000e+00" nType="-99"/>
          <Node pos="r" depth="2" NCoef="0" IVar="-1" Cut="0.0000000000000000e+00" cType="1" res="-1.9987693522125483e-03" rms="4.6767607331275940e-01" purity="3.6448687314987183e-01" nType="-99"/>
        </Node>
      </Node>
    </BinaryTree>
    <BinaryTree type="DecisionTree" boostWeight="1.0000000000000000e+00" itree="29">
      <Node pos="s" depth="0" NCoef="0" IVar="10" Cut="5.0177207946777344e+01" cType="0" res="-3.0986579135060310e-02" rms="4.8044791817665100e-01" purity="4.8426002264022827e-01" nType="0">
        <Node pos="l" depth="1" NCoef="0" IVar="18" Cut="1.0313365936279297e+01" cType="1" res="2.4346138536930084e-01" rms="4.0553519129753113e-01" purity="7.7707177400588989e-01" nType="0">
          <Node pos="l" depth="2" NCoef="0" IVar="-1" Cut="0.0000000000000000e+00" cType="1" res="6.5203313715755939e-03" rms="7.5350604951381683e-02" purity="1.0000000000000000e+00" nType="-99"/>
          <Node pos="r" depth="2" NCoef="0" IVar="-1" Cut="0.0000000000000000e+00" cType="1" res="-1.5368963358923793e-03" rms="4.8912078142166138e-01" purity="5.1458644866943359e-01" nType="-99"/>
        </Node>
        <Node pos="r" depth="1" NCoef="0" IVar="6" Cut="7.1768182516098022e-01" cType="0" res="-1.1015636473894119e-01" rms="4.7114804387092590e-01" purity="3.9979279041290283e-01" nType="0">
          <Node pos="l" depth="2" NCoef="0" IVar="-1" Cut="0.0000000000000000e+00" cType="1" res="3.7641222588717937e-03" rms="3.3247020840644836e-01" purity="8.4984648227691650e-01" nType="-99"/>
          <Node pos="r" depth="2" NCoef="0" IVar="-1" Cut="0.0000000000000000e+00" cType="1" res="-2.8767408803105354e-03" rms="4.6070364117622375e-01" purity="3.2484313845634460e-01" nType="-99"/>
        </Node>
      </Node>
    </BinaryTree>
    <BinaryTree type="DecisionTree" boostWeight="1.0000000000000000e+00" itree="30">
      <Node pos="s" depth="0" NCoef="0" IVar="8" Cut="1.3715576171875000e+02" cType="0" res="-6.5697908401489258e-02" rms="4.7805744409561157e-01" purity="4.4615384936332703e-01" nType="0">
        <Node pos="l" depth="1" NCoef="0" IVar="6" Cut="4.3185093998908997e-01" cType="0" res="4.3995347619056702e-01" rms="8.7787389755249023e-02" purity="1.0000000000000000e+00" nType="0">
          <Node pos="l" depth="2" NCoef="0" IVar="-1" Cut="0.0000000000000000e+00" cType="1" res="1.5747112035751343e-01" rms="1.0862816125154495e-01" purity="1.0000000000000000e+00" nType="-99"/>
          <Node pos="r" depth="2" NCoef="0" IVar="-1" Cut="0.0000000000000000e+00" cType="1" res="4.3497304432094097e-03" rms="1.5619561076164246e-02" purity="1.0000000000000000e+00" nType="-99"/>
        </Node>
        <Node pos="r" depth="1" NCoef="0" IVar="11" Cut="1.3407344818115234e+00" cType="0" res="-9.8756887018680573e-02" rms="4.7451817989349365e-01" purity="4.0994393825531006e-01" nType="0">
          <Node pos="l" depth="2" NCoef="0" IVar="-1" Cut="0.0000000000000000e+00" cType="1" res="-5.6601839605718851e-04" rms="4.3122595548629761e-01" purity="7.0341783761978149e-01" nType="-99"/>
          <Node pos="r" depth="2" NCoef="0" IVar="-1" Cut="0.0000000000000000e+00" cType="1" res="-1.4918560627847910e-03" rms="4.6419414877891541e-01" purity="3.5161784291267395e-01" nType="-99"/>
        </Node>
      </Node>
    </BinaryTree>
    <BinaryTree type="DecisionTree" boostWeight="1.0000000000000000e+00" itree="31">
      <Node pos="s" depth="0" NCoef="0" IVar="13" Cut="-1.0500603914260864e+00" cType="1" res="1.9336422905325890e-02" rms="4.8270264267921448e-01" purity="5.3535568714141846e-01" nType="0">
        <Node pos="l" depth="1" NCoef="0" IVar="14" Cut="-1.6141927242279053e+00" cType="0" res="2.9944965243339539e-01" rms="3.8180118799209595e-01" purity="8.1997662782669067e-01" nType="0">
          <Node pos="l" depth="2" NCoef="0" IVar="-1" Cut="0.0000000000000000e+00" cType="1" res="1.7210227670148015e-03" rms="4.4425185769796371e-02" purity="1.0000000000000000e+00" nType="-99"/>
          <Node pos="r" depth="2" NCoef="0" IVar="-1" Cut="0.0000000000000000e+00" cType="1" res="-3.4541743807494640e-03" rms="4.9174466729164124e-01" purity="5.0596874952316284e-01" nType="-99"/>
        </Node>
        <Node pos="r" depth="1" NCoef="0" IVar="5" Cut="6.3468748331069946e-01" cType="0" res="-5.7421173900365829e-02" rms="4.7907438874244690e-01" purity="4.5736294984817505e-01" nType="0">
          <Node pos="l" depth="2" NCoef="0" IVar="-1" Cut="0.0000000000000000e+00" cType="1" res="3.1750085763633251e-03" rms="3.4876275062561035e-01" purity="8.4482264518737793e-01" nType="-99"/>
          <Node pos="r" depth="2" NCoef="0" IVar="-1" Cut="0.0000000000000000e+00" cType="1" res="-1.7737997695803642e-03" rms="4.6895688772201538e-01" purity="3.8413739204406738e-01" nType="-99"/>
        </Node>
      </Node>
    </BinaryTree>
    <BinaryTree type="DecisionTree" boostWeight="1.0000000000000000e+00" itree="32">
      <Node pos="s" depth="0" NCoef="0" IVar="2" Cut="1.4262282848358154e-01" cType="1" res="6.7508317530155182e-02" rms="4.7193634510040283e-01" purity="5.8729672431945801e-01" nType="0">
        <Node pos="l" depth="1" NCoef="0" IVar="2" Cut="-8.0403280258178711e-01" cType="1" res="3.4615904092788696e-01" rms="3.0041414499282837e-01" purity="8.9122521877288818e-01" nType="0">
          <Node pos="l" depth="2" NCoef="0" IVar="-1" Cut="0.0000000000000000e+00" cType="1" res="1.7196192638948560e-03" rms="7.1756511926651001e-02" purity="1.0000000000000000e+00" nType="-99"/>
          <Node pos="r" depth="2" NCoef="0" IVar="-1" Cut="0.0000000000000000e+00" cType="1" res="5.2297436632215977e-03" rms="4.4739502668380737e-01" purity="6.6301286220550537e-01" nType="-99"/>
        </Node>
        <Node pos="r" depth="1" NCoef="0" IVar="8" Cut="7.0530166625976562e+01" cType="1" res="-1.0285095125436783e-01" rms="4.7667869925498962e-01" purity="4.0148332715034485e-01" nType="0">
          <Node pos="l" depth="2" NCoef="0" IVar="-1" Cut="0.0000000000000000e+00" cType="1" res="-8.5851375479251146e-04" rms="4.4948570430278778e-02" purity="1.0000000000000000e+00" nType="-99"/>
          <Node pos="r" depth="2" NCoef="0" IVar="-1" Cut="0.0000000000000000e+00" cType="1" res="-3.2405417878180742e-03" rms="4.5520937442779541e-01" purity="3.2665830850601196e-01" nType="-99"/>
        </Node>
      </Node>
    </BinaryTree>
    <BinaryTree type="DecisionTree" boostWeight="1.0000000000000000e+00" itree="33">
      <Node pos="s" depth="0" NCoef="0" IVar="16" Cut="1.3948969841003418e+01" cType="0" res="6.1070110648870468e-02" rms="4.7625136375427246e-01" purity="5.7680642604827881e-01" nType="0">
        <Node pos="l" depth="1" NCoef="0" IVar="6" Cut="5.8719950914382935e-01" cType="0" res="4.5774561166763306e-01" rms="7.1829624474048615e-02" purity="1.0000000000000000e+00" nType="0">
          <Node pos="l" depth="2" NCoef="0" IVar="-1" Cut="0.0000000000000000e+00" cType="1" res="1.5651541948318481e-01" rms="1.0199248045682907e-01" purity="1.0000000000000000e+00" nType="-99"/>
          <Node pos="r" depth="2" NCoef="0" IVar="-1" Cut="0.0000000000000000e+00" cType="1" res="-1.4065518043935299e-03" rms="2.1867342293262482e-02" purity="1.0000000000000000e+00" nType="-99"/>
        </Node>
        <Node pos="r" depth="1" NCoef="0" IVar="6" Cut="7.5616717338562012e-01" cType="0" res="-1.1879484169185162e-02" rms="4.8303154110908508e-01" purity="4.9898001551628113e-01" nType="0">
          <Node pos="l" depth="2" NCoef="0" IVar="-1" Cut="0.0000000000000000e+00" cType="1" res="2.1538625005632639e-03" rms="6.8578802049160004e-02" purity="1.0000000000000000e+00" nType="-99"/>
          <Node pos="r" depth="2" NCoef="0" IVar="-1" Cut="0.0000000000000000e+00" cType="1" res="-1.6898091416805983e-03" rms="4.8582988977432251e-01" purity="4.2076390981674194e-01" nType="-99"/>
        </Node>
      </Node>
    </BinaryTree>
    <BinaryTree type="DecisionTree" boostWeight="1.0000000000000000e+00" itree="34">
      <Node pos="s" depth="0" NCoef="0" IVar="13" Cut="1.9330903291702271e+00" cType="0" res="4.5714605599641800e-02" rms="4.7277745604515076e-01" purity="5.6401944160461426e-01" nType="0">
        <Node pos="l" depth="1" NCoef="0" IVar="6" Cut="8.1249147653579712e-01" cType="0" res="4.5472085475921631e-01" rms="6.6487260162830353e-02" purity="1.0000000000000000e+00" nType="0">
          <Node pos="l" depth="2" NCoef="0" IVar="-1" Cut="0.0000000000000000e+00" cType="1" res="1.1595142073929310e-02" rms="8.7267681956291199e-02" purity="1.0000000000000000e+00" nType="-99"/>
          <Node pos="r" depth="2" NCoef="0" IVar="-1" Cut="0.0000000000000000e+00" cType="1" res="6.2365136109292507e-03" rms="1.6600534319877625e-02" purity="1.0000000000000000e+00" nType="-99"/>
        </Node>
        <Node pos="r" depth="1" NCoef="0" IVar="12" Cut="-7.5108593702316284e-01" cType="0" res="-9.2592705041170120e-03" rms="4.7692802548408508e-01" purity="5.0541996955871582e-01" nType="0">
          <Node pos="l" depth="2" NCoef="0" IVar="-1" Cut="0.0000000000000000e+00" cType="1" res="-2.2191724565345794e-04" rms="4.5291572809219360e-01" purity="6.6377627849578857e-01" nType="-99"/>
          <Node pos="r" depth="2" NCoef="0" IVar="-1" Cut="0.0000000000000000e+00" cType="1" res="-3.2695021945983171e-03" rms="4.5670571923255920e-01" purity="3.5307380557060242e-01" nType="-99"/>
        </Node>
      </Node>
    </BinaryTree>
    <BinaryTree type="DecisionTree" boostWeight="1.0000000000000000e+00" itree="35">
      <Node pos="s" depth="0" NCoef="0" IVar="13" Cut="-7.4340480566024780e-01" cType="1" res="6.1757978051900864e-02" rms="4.7567909955978394e-01" purity="5.8154946565628052e-01" nType="0">
        <Node pos="l" depth="1" NCoef="0" IVar="15" Cut="2.3798606872558594e+01" cType="1" res="2.9031664133071899e-01" rms="3.7289875745773315e-01" purity="8.1731748580932617e-01" nType="0">
          <Node pos="l" depth="2" NCoef="0" IVar="-1" Cut="0.0000000000000000e+00" cType="1" res="1.8068673671223223e-04" rms="6.3279025256633759e-02" purity="1.0000000000000000e+00" nType="-99"/>
          <Node pos="r" depth="2" NCoef="0" IVar="-1" Cut="0.0000000000000000e+00" cType="1" res="-3.6188478115946054e-03" rms="4.5984056591987610e-01" purity="4.3586155772209167e-01" nType="-99"/>
        </Node>
        <Node pos="r" depth="1" NCoef="0" IVar="18" Cut="1.1866016387939453e+01" cType="1" res="-3.5624150186777115e-02" rms="4.8134234547615051e-01" purity="4.8109567165374756e-01" nType="0">
          <Node pos="l" depth="2" NCoef="0" IVar="-1" Cut="0.0000000000000000e+00" cType="1" res="-3.2563755667069927e-05" rms="4.8001149296760559e-01" purity="5.4326790571212769e-01" nType="-99"/>
          <Node pos="r" depth="2" NCoef="0" IVar="-1" Cut="0.0000000000000000e+00" cType="1" res="-6.5192850306630135e-03" rms="3.1321382522583008e-01" purity="1.2292142212390900e-01" nType="-99"/>
        </Node>
      </Node>
    </BinaryTree>
    <BinaryTree type="DecisionTree" boostWeight="1.0000000000000000e+00" itree="36">
      <Node pos="s" depth="0" NCoef="0" IVar="2" Cut="1.4371109008789062e-01" cType="1" res="-3.3565551042556763e-02" rms="4.7718119621276855e-01" purity="4.8136764764785767e-01" nType="0">
        <Node pos="l" depth="1" NCoef="0" IVar="14" Cut="1.4993335306644440e-01" cType="1" res="1.8566699326038361e-01" rms="4.3054991960525513e-01" purity="7.2064387798309326e-01" nType="0">
          <Node pos="l" depth="2" NCoef="0" IVar="-1" Cut="0.0000000000000000e+00" cType="1" res="1.4558839611709118e-02" rms="7.0977196097373962e-02" purity="1.0000000000000000e+00" nType="-99"/>
          <Node pos="r" depth="2" NCoef="0" IVar="-1" Cut="0.0000000000000000e+00" cType="1" res="-1.3888718094676733e-03" rms="4.7347417473793030e-01" purity="5.8359134197235107e-01" nType="-99"/>
        </Node>
        <Node pos="r" depth="1" NCoef="0" IVar="13" Cut="1.9379695653915405e+00" cType="0" res="-1.8348306417465210e-01" rms="4.4867065548896790e-01" purity="3.1774374842643738e-01" nType="0">
          <Node pos="l" depth="2" NCoef="0" IVar="-1" Cut="0.0000000000000000e+00" cType="1" res="1.1674353852868080e-02" rms="5.9664193540811539e-02" purity="1.0000000000000000e+00" nType="-99"/>
          <Node pos="r" depth="2" NCoef="0" IVar="-1" Cut="0.0000000000000000e+00" cType="1" res="-3.6312094889581203e-03" rms="4.3190190196037292e-01" purity="2.7622020244598389e-01" nType="-99"/>
        </Node>
      </Node>
    </BinaryTree>
    <BinaryTree type="DecisionTree" boostWeight="1.0000000000000000e+00" itree="37">
      <Node pos="s" depth="0" NCoef="0" IVar="12" Cut="-1.5478415787220001e-01" cType="0" res="3.6413632333278656e-02" rms="4.7679916024208069e-01" purity="5.5740034580230713e-01" nType="0">
        <Node pos="l" depth="1" NCoef="0" IVar="6" Cut="3.7669602036476135e-01" cType="1" res="1.9229939579963684e-01" rms="4.2898422479629517e-01" purity="7.2671854496002197e-01" nType="0">
          <Node pos="l" depth="2" NCoef="0" IVar="-1" Cut="0.0000000000000000e+00" cType="1" res="3.4509706310927868e-03" rms="2.8580948710441589e-01" purity="9.0749657154083252e-01" nType="-99"/>
          <Node pos="r" depth="2" NCoef="0" IVar="-1" Cut="0.0000000000000000e+00" cType="1" res="1.6331848455592990e-03" rms="4.5479306578636169e-01" purity="5.5136758089065552e-01" nType="-99"/>
        </Node>
        <Node pos="r" depth="1" NCoef="0" IVar="4" Cut="2.3884862661361694e-01" cType="0" res="-8.6916752159595490e-02" rms="4.7662004828453064e-01" purity="4.2344275116920471e-01" nType="0">
          <Node pos="l" depth="2" NCoef="0" IVar="-1" Cut="0.0000000000000000e+00" cType="1" res="-1.0737439151853323e-03" rms="9.3124367296695709e-02" purity="1.0000000000000000e+00" nType="-99"/>
          <Node pos="r" depth="2" NCoef="0" IVar="-1" Cut="0.0000000000000000e+00" cType="1" res="-3.8883567322045565e-03" rms="4.5257660746574402e-01" purity="3.1579366326332092e-01" nType="-99"/>
        </Node>
      </Node>
    </BinaryTree>
    <BinaryTree type="DecisionTree" boostWeight="1.0000000000000000e+00" itree="38">
      <Node pos="s" depth="0" NCoef="0" IVar="7" Cut="1.3410844421386719e+02" cType="0" res="-3.8871932774782181e-02" rms="4.7523441910743713e-01" purity="4.7817650437355042e-01" nType="0">
        <Node pos="l" depth="1" NCoef="0" IVar="18" Cut="1.2706289291381836e+01" cType="1" res="1.8145461380481720e-01" rms="4.2122295498847961e-01" purity="7.2698664665222168e-01" nType="0">
          <Node pos="l" depth="2" NCoef="0" IVar="-1" Cut="0.0000000000000000e+00" cType="1" res="3.3102892339229584e-03" rms="3.2633665204048157e-01" purity="8.6463701725006104e-01" nType="-99"/>
          <Node pos="r" depth="2" NCoef="0" IVar="-1" Cut="0.0000000000000000e+00" cType="1" res="-6.0641807503998280e-03" rms="3.5155302286148071e-01" purity="1.5231092274188995e-01" nType="-99"/>
        </Node>
        <Node pos="r" depth="1" NCoef="0" IVar="11" Cut="1.0422315597534180e+00" cType="0" res="-1.3706614077091217e-01" rms="4.6491938829421997e-01" purity="3.6728784441947937e-01" nType="0">
          <Node pos="l" depth="2" NCoef="0" IVar="-1" Cut="0.0000000000000000e+00" cType="1" res="2.0944466814398766e-03" rms="4.2027744650840759e-01" purity="7.2537010908126831e-01" nType="-99"/>
          <Node pos="r" depth="2" NCoef="0" IVar="-1" Cut="0.0000000000000000e+00" cType="1" res="-3.2354232389479876e-03" rms="4.4180440902709961e-01" purity="2.9015940427780151e-01" nType="-99"/>
        </Node>
      </Node>
    </BinaryTree>
    <BinaryTree type="DecisionTree" boostWeight="1.0000000000000000e+00" itree="39">
      <Node pos="s" depth="0" NCoef="0" IVar="10" Cut="4.9485492706298828e+01" cType="0" res="6.3720592297613621e-03" rms="4.7665628790855408e-01" purity="5.2753734588623047e-01" nType="0">
        <Node pos="l" depth="1" NCoef="0" IVar="7" Cut="1.4989164733886719e+02" cType="1" res="2.0800174772739410e-01" rms="4.2308577895164490e-01" purity="7.4072289466857910e-01" nType="0">
          <Node pos="l" depth="2" NCoef="0" IVar="-1" Cut="0.0000000000000000e+00" cType="1" res="9.0217553079128265e-03" rms="4.2961768805980682e-02" purity="1.0000000000000000e+00" nType="-99"/>
          <Node pos="r" depth="2" NCoef="0" IVar="-1" Cut="0.0000000000000000e+00" cType="1" res="-9.2719739768654108e-04" rms="4.6577680110931396e-01" purity="5.9273278713226318e-01" nType="-99"/>
        </Node>
        <Node pos="r" depth="1" NCoef="0" IVar="18" Cut="7.7601041793823242e+00" cType="1" res="-6.4588189125061035e-02" rms="4.7415316104888916e-01" purity="4.5251017808914185e-01" nType="0">
          <Node pos="l" depth="2" NCoef="0" IVar="-1" Cut="0.0000000000000000e+00" cType="1" res="-1.0009109973907471e-03" rms="4.6982866525650024e-01" purity="5.7176095247268677e-01" nType="-99"/>
          <Node pos="r" depth="2" NCoef="0" IVar="-1" Cut="0.0000000000000000e+00" cType="1" res="-4.8848316073417664e-03" rms="3.7129920721054077e-01" purity="1.8394924700260162e-01" nType="-99"/>
        </Node>
      </Node>
    </BinaryTree>
    <BinaryTree type="DecisionTree" boostWeight="1.0000000000000000e+00" itree="40">
      <Node pos="s" depth="0" NCoef="0" IVar="11" Cut="-1.6482596397399902e+00" cType="1" res="-7.5794592499732971e-02" rms="4.7160837054252625e-01" purity="4.3797755241394043e-01" nType="0">
        <Node pos="l" depth="1" NCoef="0" IVar="16" Cut="1.4107982635498047e+01" cType="1" res="1.6516646742820740e-01" rms="4.4889926910400391e-01" purity="6.8583941459655762e-01" nType="0">
          <Node pos="l" depth="2" NCoef="0" IVar="-1" Cut="0.0000000000000000e+00" cType="1" res="2.5088803377002478e-03" rms="3.2243472337722778e-01" purity="8.7758815288543701e-01" nType="-99"/>
          <Node pos="r" depth="2" NCoef="0" IVar="-1" Cut="0.0000000000000000e+00" cType="1" res="-3.7359846755862236e-03" rms="4.3632975220680237e-01" purity="3.4256619215011597e-01" nType="-99"/>
        </Node>
        <Node pos="r" depth="1" NCoef="0" IVar="12" Cut="2.5335934162139893e+00" cType="0" res="-1.3772088289260864e-01" rms="4.5719799399375916e-01" purity="3.7427777051925659e-01" nType="0">
          <Node pos="l" depth="2" NCoef="0" IVar="-1" Cut="0.0000000000000000e+00" cType="1" res="1.2457913719117641e-02" rms="5.3935591131448746e-02" purity="1.0000000000000000e+00" nType="-99"/>
          <Node pos="r" depth="2" NCoef="0" IVar="-1" Cut="0.0000000000000000e+00" cType="1" res="-1.6759370919317007e-03" rms="4.4854268431663513e-01" purity="3.4506183862686157e-01" nType="-99"/>
        </Node>
      </Node>
    </BinaryTree>
    <BinaryTree type="DecisionTree" boostWeight="1.0000000000000000e+00" itree="41">
      <Node pos="s" depth="0" NCoef="0" IVar="12" Cut="1.0413308143615723e+00" cType="0" res="-3.1448200345039368e-02" rms="4.7277358174324036e-01" purity="4.8227229714393616e-01" nType="0">
        <Node pos="l" depth="1" NCoef="0" IVar="18" Cut="1.2180071830749512e+01" cType="1" res="3.2129123806953430e-01" rms="3.2871660590171814e-01" purity="8.6056756973266602e-01" nType="0">
          <Node pos="l" depth="2" NCoef="0" IVar="-1" Cut="0.0000000000000000e+00" cType="1" res="3.7383949384093285e-03" rms="5.7678446173667908e-02" purity="1.0000000000000000e+00" nType="-99"/>
          <Node pos="r" depth="2" NCoef="0" IVar="-1" Cut="0.0000000000000000e+00" cType="1" res="-2.7566796634346247e-03" rms="3.4136733412742615e-01" purity="1.5871775150299072e-01" nType="-99"/>
        </Node>
        <Node pos="r" depth="1" NCoef="0" IVar="3" Cut="-6.3943588733673096e-01" cType="0" res="-1.3804633915424347e-01" rms="4.5764887332916260e-01" purity="3.6795115470886230e-01" nType="0">
          <Node pos="l" depth="2" NCoef="0" IVar="-1" Cut="0.0000000000000000e+00" cType="1" res="-9.2618609778583050e-04" rms="4.7433945536613464e-01" purity="5.4557323455810547e-01" nType="-99"/>
          <Node pos="r" depth="2" NCoef="0" IVar="-1" Cut="0.0000000000000000e+00" cType="1" res="-3.8014391902834177e-03" rms="3.7225106358528137e-01" purity="1.8308958411216736e-01" nType="-99"/>
        </Node>
      </Node>
    </BinaryTree>
    <BinaryTree type="DecisionTree" boostWeight="1.0000000000000000e+00" itree="42">
      <Node pos="s" depth="0" NCoef="0" IVar="12" Cut="1.4357395470142365e-01" cType="0" res="-5.7405002415180206e-02" rms="4.7503095865249634e-01" purity="4.5659795403480530e-01" nType="0">
        <Node pos="l" depth="1" NCoef="0" IVar="7" Cut="1.0967075347900391e+02" cType="0" res="1.6192762553691864e-01" rms="4.3925568461418152e-01" purity="6.9648611545562744e-01" nType="0">
          <Node pos="l" depth="2" NCoef="0" IVar="-1" Cut="0.0000000000000000e+00" cType="1" res="7.2450046427547932e-03" rms="2.7545022964477539e-01" purity="9.1061633825302124e-01" nType="-99"/>
          <Node pos="r" depth="2" NCoef="0" IVar="-1" Cut="0.0000000000000000e+00" cType="1" res="-1.0682995198294520e-03" rms="4.8418906331062317e-01" purity="4.9475657939910889e-01" nType="-99"/>
        </Node>
        <Node pos="r" depth="1" NCoef="0" IVar="6" Cut="4.8325407505035400e-01" cType="0" res="-1.8545050919055939e-01" rms="4.4751480221748352e-01" purity="3.1655219197273254e-01" nType="0">
          <Node pos="l" depth="2" NCoef="0" IVar="-1" Cut="0.0000000000000000e+00" cType="1" res="-1.7846323316916823e-04" rms="3.6892506480216980e-01" purity="8.2084578275680542e-01" nType="-99"/>
          <Node pos="r" depth="2" NCoef="0" IVar="-1" Cut="0.0000000000000000e+00" cType="1" res="-3.4600128419697285e-03" rms="4.1693881154060364e-01" purity="2.3357625305652618e-01" nType="-99"/>
        </Node>
      </Node>
    </BinaryTree>
    <BinaryTree type="DecisionTree" boostWeight="1.0000000000000000e+00" itree="43">
      <Node pos="s" depth="0" NCoef="0" IVar="14" Cut="2.8194022178649902e+00" cType="1" res="-1.7560154199600220e-02" rms="4.7687900066375732e-01" purity="4.9813428521156311e-01" nType="0">
        <Node pos="l" depth="1" NCoef="0" IVar="3" Cut="6.2390905618667603e-01" cType="0" res="2.0588550716638565e-02" rms="4.7453707456588745e-01" purity="5.3824692964553833e-01" nType="0">
          <Node pos="l" depth="2" NCoef="0" IVar="-1" Cut="0.0000000000000000e+00" cType="1" res="4.8833764158189297e-03" rms="3.0642068386077881e-01" purity="8.7918257713317871e-01" nType="-99"/>
          <Node pos="r" depth="2" NCoef="0" IVar="-1" Cut="0.0000000000000000e+00" cType="1" res="-1.1304992949590087e-03" rms="4.7946560382843018e-01" purity="4.7367078065872192e-01" nType="-99"/>
        </Node>
        <Node pos="r" depth="1" NCoef="0" IVar="10" Cut="4.9851314544677734e+01" cType="1" res="-3.5892087221145630e-01" rms="3.4322237968444824e-01" purity="1.3920000195503235e-01" nType="0">
          <Node pos="l" depth="2" NCoef="0" IVar="-1" Cut="0.0000000000000000e+00" cType="1" res="5.8428281918168068e-03" rms="4.6516141295433044e-01" purity="3.5024157166481018e-01" nType="-99"/>
          <Node pos="r" depth="2" NCoef="0" IVar="-1" Cut="0.0000000000000000e+00" cType="1" res="-8.8883219286799431e-03" rms="2.3806773126125336e-01" purity="6.3125818967819214e-02" nType="-99"/>
        </Node>
      </Node>
    </BinaryTree>
    <BinaryTree type="DecisionTree" boostWeight="1.0000000000000000e+00" itree="44">
      <Node pos="s" depth="0" NCoef="0" IVar="5" Cut="8.0399322509765625e-01" cType="0" res="-5.7328332215547562e-02" rms="4.7213011980056763e-01" purity="4.5518985390663147e-01" nType="0">
        <Node pos="l" depth="1" NCoef="0" IVar="6" Cut="7.3399227857589722e-01" cType="0" res="4.2567828297615051e-01" rms="8.8984668254852295e-02" purity="1.0000000000000000e+00" nType="0">
          <Node pos="l" depth="2" NCoef="0" IVar="-1" Cut="0.0000000000000000e+00" cType="1" res="1.3177739456295967e-03" rms="8.8838241994380951e-02" purity="1.0000000000000000e+00" nType="-99"/>
          <Node pos="r" depth="2" NCoef="0" IVar="-1" Cut="0.0000000000000000e+00" cType="1" res="2.9023233801126480e-03" rms="3.3568158745765686e-02" purity="1.0000000000000000e+00" nType="-99"/>
        </Node>
        <Node pos="r" depth="1" NCoef="0" IVar="15" Cut="2.4881160736083984e+01" cType="0" res="-1.1266148090362549e-01" rms="4.6663460135459900e-01" purity="3.9277651906013489e-01" nType="0">
          <Node pos="l" depth="2" NCoef="0" IVar="-1" Cut="0.0000000000000000e+00" cType="1" res="-8.1674248212948442e-04" rms="7.9485967755317688e-02" purity="1.0000000000000000e+00" nType="-99"/>
          <Node pos="r" depth="2" NCoef="0" IVar="-1" Cut="0.0000000000000000e+00" cType="1" res="-1.2917171698063612e-03" rms="4.5769739151000977e-01" purity="3.5525965690612793e-01" nType="-99"/>
        </Node>
      </Node>
    </BinaryTree>
    <BinaryTree type="DecisionTree" boostWeight="1.0000000000000000e+00" itree="45">
      <Node pos="s" depth="0" NCoef="0" IVar="1" Cut="5.8540168762207031e+01" cType="0" res="4.8311881721019745e-02" rms="4.6889883279800415e-01" purity="5.6656599044799805e-01" nType="0">
        <Node pos="l" depth="1" NCoef="0" IVar="2" Cut="-1.9498304128646851e+00" cType="0" res="2.4123083055019379e-01" rms="4.0203213691711426e-01" purity="7.7362614870071411e-01" nType="0">
          <Node pos="l" depth="2" NCoef="0" IVar="-1" Cut="0.0000000000000000e+00" cType="1" res="1.2212893925607204e-03" rms="3.1787201762199402e-01" purity="8.7636446952819824e-01" nType="-99"/>
          <Node pos="r" depth="2" NCoef="0" IVar="-1" Cut="0.0000000000000000e+00" cType="1" res="3.5190857015550137e-03" rms="4.7694939374923706e-01" purity="4.9245283007621765e-01" nType="-99"/>
        </Node>
        <Node pos="r" depth="1" NCoef="0" IVar="0" Cut="3.9581510424613953e-01" cType="0" res="-7.9708218574523926e-02" rms="4.6628832817077637e-01" purity="4.2916178703308105e-01" nType="0">
          <Node pos="l" depth="2" NCoef="0" IVar="-1" Cut="0.0000000000000000e+00" cType="1" res="5.9990556910634041e-03" rms="8.5499286651611328e-02" purity="1.0000000000000000e+00" nType="-99"/>
          <Node pos="r" depth="2" NCoef="0" IVar="-1" Cut="0.0000000000000000e+00" cType="1" res="-3.9708567783236504e-03" rms="4.5045161247253418e-01" purity="3.4541493654251099e-01" nType="-99"/>
        </Node>
      </Node>
    </BinaryTree>
    <BinaryTree type="DecisionTree" boostWeight="1.0000000000000000e+00" itree="46">
      <Node pos="s" depth="0" NCoef="0" IVar="6" Cut="5.4611974954605103e-01" cType="0" res="2.0198395475745201e-02" rms="4.7620430588722229e-01" purity="5.3989869356155396e-01" nType="0">
        <Node pos="l" depth="1" NCoef="0" IVar="0" Cut="-1.2188496589660645e+00" cType="0" res="3.1362092494964600e-01" rms="2.6753291487693787e-01" purity="9.0930545330047607e-01" nType="0">
          <Node pos="l" depth="2" NCoef="0" IVar="-1" Cut="0.0000000000000000e+00" cType="1" res="5.4321945644915104e-03" rms="9.4326578080654144e-02" purity="1.0000000000000000e+00" nType="-99"/>
          <Node pos="r" depth="2" NCoef="0" IVar="-1" Cut="0.0000000000000000e+00" cType="1" res="-7.3422701098024845e-03" rms="4.5401179790496826e-01" purity="3.5024157166481018e-01" nType="-99"/>
        </Node>
        <Node pos="r" depth="1" NCoef="0" IVar="10" Cut="7.0390563964843750e+01" cType="0" res="-5.0932887941598892e-02" rms="4.8832574486732483e-01" purity="4.5034736394882202e-01" nType="0">
          <Node pos="l" depth="2" NCoef="0" IVar="-1" Cut="0.0000000000000000e+00" cType="1" res="3.8445123936980963e-03" rms="2.4207044392824173e-02" purity="1.0000000000000000e+00" nType="-99"/>
          <Node pos="r" depth="2" NCoef="0" IVar="-1" Cut="0.0000000000000000e+00" cType="1" res="-1.8550344975665212e-03" rms="4.8405042290687561e-01" purity="4.1276630759239197e-01" nType="-99"/>
        </Node>
      </Node>
    </BinaryTree>
    <BinaryTree type="DecisionTree" boostWeight="1.0000000000000000e+00" itree="47">
      <Node pos="s" depth="0" NCoef="0" IVar="0" Cut="-1.1256037950515747e+00" cType="0" res="6.3572078943252563e-02" rms="4.6727767586708069e-01" purity="5.8102655410766602e-01" nType="0">
        <Node pos="l" depth="1" NCoef="0" IVar="14" Cut="2.8192911148071289e+00" cType="1" res="1.4501117169857025e-01" rms="4.4486528635025024e-01" purity="6.7105633020401001e-01" nType="0">
          <Node pos="l" depth="2" NCoef="0" IVar="-1" Cut="0.0000000000000000e+00" cType="1" res="5.2045169286429882e-04" rms="4.1663539409637451e-01" purity="7.3828440904617310e-01" nType="-99"/>
          <Node pos="r" depth="2" NCoef="0" IVar="-1" Cut="0.0000000000000000e+00" cType="1" res="-6.4321113750338554e-03" rms="3.9556634426116943e-01" purity="2.2057224810123444e-01" nType="-99"/>
        </Node>
        <Node pos="r" depth="1" NCoef="0" IVar="14" Cut="-1.9116787910461426e+00" cType="0" res="-1.8421813845634460e-01" rms="4.4606092572212219e-01" purity="3.0709788203239441e-01" nType="0">
          <Node pos="l" depth="2" NCoef="0" IVar="-1" Cut="0.0000000000000000e+00" cType="1" res="8.9011486852541566e-04" rms="4.6766009926795959e-01" purity="6.3301503658294678e-01" nType="-99"/>
          <Node pos="r" depth="2" NCoef="0" IVar="-1" Cut="0.0000000000000000e+00" cType="1" res="-6.9616353139281273e-03" rms="2.4523544311523438e-01" purity="7.1499012410640717e-02" nType="-99"/>
        </Node>
      </Node>
    </BinaryTree>
    <BinaryTree type="DecisionTree" boostWeight="1.0000000000000000e+00" itree="48">
      <Node pos="s" depth="0" NCoef="0" IVar="12" Cut="-1.5286806225776672e-01" cType="0" res="-2.8345543891191483e-02" rms="4.7617405652999878e-01" purity="4.8636350035667419e-01" nType="0">
        <Node pos="l" depth="1" NCoef="0" IVar="11" Cut="-1.0668572187423706e+00" cType="0" res="1.9654789566993713e-01" rms="4.2637190222740173e-01" purity="7.3133581876754761e-01" nType="0">
          <Node pos="l" depth="2" NCoef="0" IVar="-1" Cut="0.0000000000000000e+00" cType="1" res="9.1149983927607536e-03" rms="7.6271966099739075e-02" purity="1.0000000000000000e+00" nType="-99"/>
          <Node pos="r" depth="2" NCoef="0" IVar="-1" Cut="0.0000000000000000e+00" cType="1" res="-1.1384350946173072e-03" rms="4.7704672813415527e-01" purity="5.6740820407867432e-01" nType="-99"/>
        </Node>
        <Node pos="r" depth="1" NCoef="0" IVar="11" Cut="-2.8377542495727539e+00" cType="1" res="-1.6757136583328247e-01" rms="4.5152357220649719e-01" purity="3.3470734953880310e-01" nType="0">
          <Node pos="l" depth="2" NCoef="0" IVar="-1" Cut="0.0000000000000000e+00" cType="1" res="1.8257357180118561e-01" rms="7.1952573955059052e-02" purity="1.0000000000000000e+00" nType="-99"/>
          <Node pos="r" depth="2" NCoef="0" IVar="-1" Cut="0.0000000000000000e+00" cType="1" res="-3.2175716478377581e-03" rms="4.4264334440231323e-01" purity="3.1209376454353333e-01" nType="-99"/>
        </Node>
      </Node>
    </BinaryTree>
    <BinaryTree type="DecisionTree" boostWeight="1.0000000000000000e+00" itree="49">
      <Node pos="s" depth="0" NCoef="0" IVar="5" Cut="5.9229242801666260e-01" cType="0" res="-3.9138257503509521e-02" rms="4.7347187995910645e-01" purity="4.7639131546020508e-01" nType="0">
        <Node pos="l" depth="1" NCoef="0" IVar="2" Cut="1.8751652240753174e+00" cType="1" res="2.7863776683807373e-01" rms="3.5435721278190613e-01" purity="8.3443605899810791e-01" nType="0">
          <Node pos="l" depth="2" NCoef="0" IVar="-1" Cut="0.0000000000000000e+00" cType="1" res="8.3597851917147636e-03" rms="8.4081888198852539e-02" purity="1.0000000000000000e+00" nType="-99"/>
          <Node pos="r" depth="2" NCoef="0" IVar="-1" Cut="0.0000000000000000e+00" cType="1" res="-5.2252071909606457e-03" rms="4.7414737939834595e-01" purity="4.8541364073753357e-01" nType="-99"/>
        </Node>
        <Node pos="r" depth="1" NCoef="0" IVar="18" Cut="9.1395044326782227e+00" cType="1" res="-1.1448948085308075e-01" rms="4.6683472394943237e-01" purity="3.9149153232574463e-01" nType="0">
          <Node pos="l" depth="2" NCoef="0" IVar="-1" Cut="0.0000000000000000e+00" cType="1" res="-3.7497183075174689e-04" rms="4.7926878929138184e-01" purity="4.8141801357269287e-01" nType="-99"/>
          <Node pos="r" depth="2" NCoef="0" IVar="-1" Cut="0.0000000000000000e+00" cType="1" res="-4.1932417079806328e-03" rms="3.7710893154144287e-01" purity="1.9922143220901489e-01" nType="-99"/>
        </Node>
      </Node>
    </BinaryTree>
    <BinaryTree type="DecisionTree" boostWeight="1.0000000000000000e+00" itree="50">
      <Node pos="s" depth="0" NCoef="0" IVar="12" Cut="7.4802112579345703e-01" cType="0" res="-3.7880628369748592e-03" rms="4.7363442182540894e-01" purity="5.1337385177612305e-01" nType="0">
        <Node pos="l" depth="1" NCoef="0" IVar="5" Cut="-7.6434916257858276e-01" cType="0" res="2.1486860513687134e-01" rms="4.1336405277252197e-01" purity="7.5844657421112061e-01" nType="0">
          <Node pos="l" depth="2" NCoef="0" IVar="-1" Cut="0.0000000000000000e+00" cType="1" res="6.0442732647061348e-03" rms="2.7942907810211182e-01" purity="9.0974664688110352e-01" nType="-99"/>
          <Node pos="r" depth="2" NCoef="0" IVar="-1" Cut="0.0000000000000000e+00" cType="1" res="-5.0150719471275806e-04" rms="4.8316359519958496e-01" purity="4.5251017808914185e-01" nType="-99"/>
        </Node>
        <Node pos="r" depth="1" NCoef="0" IVar="17" Cut="8.6929893493652344e+00" cType="1" res="-9.2145308852195740e-02" rms="4.6776625514030457e-01" purity="4.1434207558631897e-01" nType="0">
          <Node pos="l" depth="2" NCoef="0" IVar="-1" Cut="0.0000000000000000e+00" cType="1" res="2.1302497771102935e-04" rms="4.4310235977172852e-01" purity="6.7310732603073120e-01" nType="-99"/>
          <Node pos="r" depth="2" NCoef="0" IVar="-1" Cut="0.0000000000000000e+00" cType="1" res="-4.2478232644498348e-03" rms="4.1363999247550964e-01" purity="2.6024028658866882e-01" nType="-99"/>
        </Node>
      </Node>
    </BinaryTree>
    <BinaryTree type="DecisionTree" boostWeight="1.0000000000000000e+00" itree="51">
      <Node pos="s" depth="0" NCoef="0" IVar="11" Cut="-2.2403898239135742e+00" cType="1" res="-4.1721921414136887e-02" rms="4.6944910287857056e-01" purity="4.7291573882102966e-01" nType="0">
        <Node pos="l" depth="1" NCoef="0" IVar="6" Cut="6.7821621894836426e-01" cType="0" res="4.4617238640785217e-01" rms="7.5324214994907379e-02" purity="1.0000000000000000e+00" nType="0">
          <Node pos="l" depth="2" NCoef="0" IVar="-1" Cut="0.0000000000000000e+00" cType="1" res="1.0604262351989746e-02" rms="8.1032939255237579e-02" purity="1.0000000000000000e+00" nType="-99"/>
          <Node pos="r" depth="2" NCoef="0" IVar="-1" Cut="0.0000000000000000e+00" cType="1" res="-7.1562640368938446e-04" rms="3.6695916205644608e-02" purity="1.0000000000000000e+00" nType="-99"/>
        </Node>
        <Node pos="r" depth="1" NCoef="0" IVar="3" Cut="-4.7261291742324829e-01" cType="0" res="-8.4523789584636688e-02" rms="4.6529945731163025e-01" purity="4.2667582631111145e-01" nType="0">
          <Node pos="l" depth="2" NCoef="0" IVar="-1" Cut="0.0000000000000000e+00" cType="1" res="1.1460289824754000e-03" rms="4.6828162670135498e-01" purity="5.6243741512298584e-01" nType="-99"/>
          <Node pos="r" depth="2" NCoef="0" IVar="-1" Cut="0.0000000000000000e+00" cType="1" res="-3.4344061277806759e-03" rms="4.1805851459503174e-01" purity="2.6110178232192993e-01" nType="-99"/>
        </Node>
      </Node>
    </BinaryTree>
    <BinaryTree type="DecisionTree" boostWeight="1.0000000000000000e+00" itree="52">
      <Node pos="s" depth="0" NCoef="0" IVar="1" Cut="1.0474240112304688e+02" cType="0" res="-1.3599265366792679e-02" rms="4.6686357259750366e-01" purity="5.0912404060363770e-01" nType="0">
        <Node pos="l" depth="1" NCoef="0" IVar="6" Cut="8.0317538976669312e-01" cType="0" res="4.3498659133911133e-01" rms="8.0892287194728851e-02" purity="1.0000000000000000e+00" nType="0">
          <Node pos="l" depth="2" NCoef="0" IVar="-1" Cut="0.0000000000000000e+00" cType="1" res="-1.1375017929822206e-03" rms="8.8553428649902344e-02" purity="1.0000000000000000e+00" nType="-99"/>
          <Node pos="r" depth="2" NCoef="0" IVar="-1" Cut="0.0000000000000000e+00" cType="1" res="2.5063112843781710e-03" rms="3.6588545888662338e-02" purity="1.0000000000000000e+00" nType="-99"/>
        </Node>
        <Node pos="r" depth="1" NCoef="0" IVar="13" Cut="-1.0330234766006470e+00" cType="1" res="-5.3731199353933334e-02" rms="4.6611431241035461e-01" purity="4.6520873904228210e-01" nType="0">
          <Node pos="l" depth="2" NCoef="0" IVar="-1" Cut="0.0000000000000000e+00" cType="1" res="4.7095902846194804e-04" rms="4.3616294860839844e-01" purity="6.8583941459655762e-01" nType="-99"/>
          <Node pos="r" depth="2" NCoef="0" IVar="-1" Cut="0.0000000000000000e+00" cType="1" res="-1.6470588743686676e-03" rms="4.5505219697952271e-01" purity="3.9750942587852478e-01" nType="-99"/>
        </Node>
      </Node>
    </BinaryTree>
    <BinaryTree type="DecisionTree" boostWeight="1.0000000000000000e+00" itree="53">
      <Node pos="s" depth="0" NCoef="0" IVar="0" Cut="-5.2212905883789062e-01" cType="0" res="-6.3175149261951447e-02" rms="4.6648105978965759e-01" purity="4.5139911770820618e-01" nType="0">
        <Node pos="l" depth="1" NCoef="0" IVar="17" Cut="8.6226482391357422e+00" cType="0" res="1.0696961730718613e-01" rms="4.4833829998970032e-01" purity="6.4202755689620972e-01" nType="0">
          <Node pos="l" depth="2" NCoef="0" IVar="-1" Cut="0.0000000000000000e+00" cType="1" res="-6.0286268126219511e-04" rms="2.7381846308708191e-01" purity="9.1188991069793701e-01" nType="-99"/>
          <Node pos="r" depth="2" NCoef="0" IVar="-1" Cut="0.0000000000000000e+00" cType="1" res="1.0575788328424096e-03" rms="4.6787548065185547e-01" purity="4.8398235440254211e-01" nType="-99"/>
        </Node>
        <Node pos="r" depth="1" NCoef="0" IVar="2" Cut="1.3029801845550537e+00" cType="1" res="-2.3049613833427429e-01" rms="4.2126160860061646e-01" purity="2.6393431425094604e-01" nType="0">
          <Node pos="l" depth="2" NCoef="0" IVar="-1" Cut="0.0000000000000000e+00" cType="1" res="2.5859971065074205e-03" rms="4.7679787874221802e-01" purity="4.6965211629867554e-01" nType="-99"/>
          <Node pos="r" depth="2" NCoef="0" IVar="-1" Cut="0.0000000000000000e+00" cType="1" res="-5.9983148239552975e-03" rms="3.0758762359619141e-01" purity="1.1349125206470490e-01" nType="-99"/>
        </Node>
      </Node>
    </BinaryTree>
    <BinaryTree type="DecisionTree" boostWeight="1.0000000000000000e+00" itree="54">
      <Node pos="s" depth="0" NCoef="0" IVar="5" Cut="7.9185491800308228e-01" cType="0" res="2.3817727342247963e-02" rms="4.7038283944129944e-01" purity="5.4251694679260254e-01" nType="0">
        <Node pos="l" depth="1" NCoef="0" IVar="6" Cut="7.1482288837432861e-01" cType="0" res="4.2900899052619934e-01" rms="8.1803008913993835e-02" purity="1.0000000000000000e+00" nType="0">
          <Node pos="l" depth="2" NCoef="0" IVar="-1" Cut="0.0000000000000000e+00" cType="1" res="1.4140807325020432e-03" rms="8.5495650768280029e-02" purity="1.0000000000000000e+00" nType="-99"/>
          <Node pos="r" depth="2" NCoef="0" IVar="-1" Cut="0.0000000000000000e+00" cType="1" res="2.5239607784897089e-03" rms="3.3458143472671509e-02" purity="1.0000000000000000e+00" nType="-99"/>
        </Node>
        <Node pos="r" depth="1" NCoef="0" IVar="2" Cut="-2.5434894561767578e+00" cType="1" res="-3.5345327109098434e-02" rms="4.7446504235267639e-01" purity="4.7571870684623718e-01" nType="0">
          <Node pos="l" depth="2" NCoef="0" IVar="-1" Cut="0.0000000000000000e+00" cType="1" res="2.6609672233462334e-02" rms="6.5494783222675323e-02" purity="1.0000000000000000e+00" nType="-99"/>
          <Node pos="r" depth="2" NCoef="0" IVar="-1" Cut="0.0000000000000000e+00" cType="1" res="-1.8865755992010236e-03" rms="4.7149419784545898e-01" purity="4.3226483464241028e-01" nType="-99"/>
        </Node>
      </Node>
    </BinaryTree>
    <BinaryTree type="DecisionTree" boostWeight="1.0000000000000000e+00" itree="55">
      <Node pos="s" depth="0" NCoef="0" IVar="2" Cut="1.0419374704360962e+00" cType="1" res="-2.2872628644108772e-02" rms="4.7146570682525635e-01" purity="4.9101230502128601e-01" nType="0">
        <Node pos="l" depth="1" NCoef="0" IVar="2" Cut="-7.5197589397430420e-01" cType="0" res="1.3965269923210144e-01" rms="4.4177541136741638e-01" purity="6.7702782154083252e-01" nType="0">
          <Node pos="l" depth="2" NCoef="0" IVar="-1" Cut="0.0000000000000000e+00" cType="1" res="3.4224141854792833e-03" rms="6.9225475192070007e-02" purity="1.0000000000000000e+00" nType="-99"/>
          <Node pos="r" depth="2" NCoef="0" IVar="-1" Cut="0.0000000000000000e+00" cType="1" res="9.6866133389994502e-04" rms="4.6382182836532593e-01" purity="5.4869979619979858e-01" nType="-99"/>
        </Node>
        <Node pos="r" depth="1" NCoef="0" IVar="10" Cut="3.6574684143066406e+01" cType="0" res="-1.7845527827739716e-01" rms="4.4580712914466858e-01" purity="3.1294298171997070e-01" nType="0">
          <Node pos="l" depth="2" NCoef="0" IVar="-1" Cut="0.0000000000000000e+00" cType="1" res="-1.3973949244245887e-03" rms="4.8230016231536865e-01" purity="4.8000484704971313e-01" nType="-99"/>
          <Node pos="r" depth="2" NCoef="0" IVar="-1" Cut="0.0000000000000000e+00" cType="1" res="-6.3692433759570122e-03" rms="3.2436132431030273e-01" purity="1.2567713856697083e-01" nType="-99"/>
        </Node>
      </Node>
    </BinaryTree>
    <BinaryTree type="DecisionTree" boostWeight="1.0000000000000000e+00" itree="56">
      <Node pos="s" depth="0" NCoef="0" IVar="3" Cut="-5.4613810777664185e-01" cType="0" res="-2.1569630131125450e-02" rms="4.6937790513038635e-01" purity="4.9393618106842041e-01" nType="0">
        <Node pos="l" depth="1" NCoef="0" IVar="18" Cut="8.4123640060424805e+00" cType="1" res="1.2606334686279297e-01" rms="4.4608363509178162e-01" purity="6.6301286220550537e-01" nType="0">
          <Node pos="l" depth="2" NCoef="0" IVar="-1" Cut="0.0000000000000000e+00" cType="1" res="2.6939888484776020e-03" rms="3.6422222852706909e-01" purity="8.2588994503021240e-01" nType="-99"/>
          <Node pos="r" depth="2" NCoef="0" IVar="-1" Cut="0.0000000000000000e+00" cType="1" res="-1.9993849564343691e-03" rms="4.6341669559478760e-01" purity="4.3749067187309265e-01" nType="-99"/>
        </Node>
        <Node pos="r" depth="1" NCoef="0" IVar="0" Cut="-6.6473501920700073e-01" cType="1" res="-1.9233912229537964e-01" rms="4.3658813834190369e-01" purity="2.9836255311965942e-01" nType="0">
          <Node pos="l" depth="2" NCoef="0" IVar="-1" Cut="0.0000000000000000e+00" cType="1" res="1.6783477040007710e-03" rms="3.7495318055152893e-01" purity="8.1550067663192749e-01" nType="-99"/>
          <Node pos="r" depth="2" NCoef="0" IVar="-1" Cut="0.0000000000000000e+00" cType="1" res="-5.0916750915348530e-03" rms="3.4544250369071960e-01" purity="1.5983833372592926e-01" nType="-99"/>
        </Node>
      </Node>
    </BinaryTree>
    <BinaryTree type="DecisionTree" boostWeight="1.0000000000000000e+00" itree="57">
      <Node pos="s" depth="0" NCoef="0" IVar="6" Cut="5.7457178831100464e-01" cType="0" res="-2.0294735208153725e-02" rms="4.7128516435623169e-01" purity="4.9288642406463623e-01" nType="0">
        <Node pos="l" depth="1" NCoef="0" IVar="0" Cut="-1.2086994647979736e+00" cType="0" res="3.1584760546684265e-01" rms="2.6645311713218689e-01" purity="9.0930545330047607e-01" nType="0">
          <Node pos="l" depth="2" NCoef="0" IVar="-1" Cut="0.0000000000000000e+00" cType="1" res="6.3780038617551327e-03" rms="9.2830158770084381e-02" purity="1.0000000000000000e+00" nType="-99"/>
          <Node pos="r" depth="2" NCoef="0" IVar="-1" Cut="0.0000000000000000e+00" cType="1" res="-7.1026748046278954e-03" rms="4.4557547569274902e-01" purity="3.2665833830833435e-01" nType="-99"/>
        </Node>
        <Node pos="r" depth="1" NCoef="0" IVar="1" Cut="6.0157466888427734e+01" cType="0" res="-9.1465674340724945e-02" rms="4.7446355223655701e-01" purity="4.0471854805946350e-01" nType="0">
          <Node pos="l" depth="2" NCoef="0" IVar="-1" Cut="0.0000000000000000e+00" cType="1" res="1.2173785362392664e-03" rms="4.7189685702323914e-01" purity="6.2307327985763550e-01" nType="-99"/>
          <Node pos="r" depth="2" NCoef="0" IVar="-1" Cut="0.0000000000000000e+00" cType="1" res="-3.3026554156094790e-03" rms="4.4691568613052368e-01" purity="3.0858996510505676e-01" nType="-99"/>
        </Node>
      </Node>
    </BinaryTree>
    <BinaryTree type="DecisionTree" boostWeight="1.0000000000000000e+00" itree="58">
      <Node pos="s" depth="0" NCoef="0" IVar="18" Cut="5.1063537597656250e+00" cType="1" res="-4.6453490853309631e-02" rms="4.6790942549705505e-01" purity="4.6715605258941650e-01" nType="0">
        <Node pos="l" depth="1" NCoef="0" IVar="6" Cut="8.4624409675598145e-01" cType="0" res="4.5654568076133728e-01" rms="7.2371713817119598e-02" purity="1.0000000000000000e+00" nType="0">
          <Node pos="l" depth="2" NCoef="0" IVar="-1" Cut="0.0000000000000000e+00" cType="1" res="1.5357872843742371e-01" rms="8.4181800484657288e-02" purity="1.0000000000000000e+00" nType="-99"/>
          <Node pos="r" depth="2" NCoef="0" IVar="-1" Cut="0.0000000000000000e+00" cType="1" res="-1.0036564199253917e-03" rms="2.6779295876622200e-02" purity="1.0000000000000000e+00" nType="-99"/>
        </Node>
        <Node pos="r" depth="1" NCoef="0" IVar="10" Cut="6.9457206726074219e+01" cType="0" res="-8.9841008186340332e-02" rms="4.6224048733711243e-01" purity="4.2119419574737549e-01" nType="0">
          <Node pos="l" depth="2" NCoef="0" IVar="-1" Cut="0.0000000000000000e+00" cType="1" res="3.2646972686052322e-03" rms="8.2573205232620239e-02" purity="1.0000000000000000e+00" nType="-99"/>
          <Node pos="r" depth="2" NCoef="0" IVar="-1" Cut="0.0000000000000000e+00" cType="1" res="-1.3239249819889665e-03" rms="4.5563122630119324e-01" purity="3.8448077440261841e-01" nType="-99"/>
        </Node>
      </Node>
    </BinaryTree>
    <BinaryTree type="DecisionTree" boostWeight="1.0000000000000000e+00" itree="59">
      <Node pos="s" depth="0" NCoef="0" IVar="3" Cut="-1.1322249174118042e+00" cType="1" res="-1.0358672589063644e-02" rms="4.7314673662185669e-01" purity="5.1074600219726562e-01" nType="0">
        <Node pos="l" depth="1" NCoef="0" IVar="11" Cut="1.3249589204788208e+00" cType="0" res="4.7061869502067566e-01" rms="6.7824818193912506e-02" purity="1.0000000000000000e+00" nType="0">
          <Node pos="l" depth="2" NCoef="0" IVar="-1" Cut="0.0000000000000000e+00" cType="1" res="2.1617241145577282e-04" rms="1.0916961729526520e-01" purity="1.0000000000000000e+00" nType="-99"/>
          <Node pos="r" depth="2" NCoef="0" IVar="-1" Cut="0.0000000000000000e+00" cType="1" res="-4.1348184458911419e-03" rms="2.7791742235422134e-02" purity="1.0000000000000000e+00" nType="-99"/>
        </Node>
        <Node pos="r" depth="1" NCoef="0" IVar="1" Cut="4.4911342620849609e+01" cType="0" res="-4.3340954929590225e-02" rms="4.7111803293228149e-01" purity="4.7719615697860718e-01" nType="0">
          <Node pos="l" depth="2" NCoef="0" IVar="-1" Cut="0.0000000000000000e+00" cType="1" res="1.1366641847416759e-03" rms="4.6818992495536804e-01" purity="5.6273496150970459e-01" nType="-99"/>
          <Node pos="r" depth="2" NCoef="0" IVar="-1" Cut="0.0000000000000000e+00" cType="1" res="-2.4597842711955309e-03" rms="4.4344100356101990e-01" purity="3.2665830850601196e-01" nType="-99"/>
        </Node>
      </Node>
    </BinaryTree>
    <BinaryTree type="DecisionTree" boostWeight="1.0000000000000000e+00" itree="60">
      <Node pos="s" depth="0" NCoef="0" IVar="3" Cut="5.6678539514541626e-01" cType="0" res="-6.3174620270729065e-02" rms="4.6545574069023132e-01" purity="4.4894796609878540e-01" nType="0">
        <Node pos="l" depth="1" NCoef="0" IVar="11" Cut="-2.5457072257995605e+00" cType="0" res="3.0378544330596924e-01" rms="3.0984660983085632e-01" purity="8.8224995136260986e-01" nType="0">
          <Node pos="l" depth="2" NCoef="0" IVar="-1" Cut="0.0000000000000000e+00" cType="1" res="2.3634103126823902e-03" rms="1.0352259874343872e-01" purity="1.0000000000000000e+00" nType="-99"/>
          <Node pos="r" depth="2" NCoef="0" IVar="-1" Cut="0.0000000000000000e+00" cType="1" res="-2.6199666317552328e-03" rms="4.3409603834152222e-01" purity="3.5024157166481018e-01" nType="-99"/>
        </Node>
        <Node pos="r" depth="1" NCoef="0" IVar="10" Cut="6.8493453979492188e+01" cType="0" res="-1.1981405317783356e-01" rms="4.5964959263801575e-01" purity="3.8206878304481506e-01" nType="0">
          <Node pos="l" depth="2" NCoef="0" IVar="-1" Cut="0.0000000000000000e+00" cType="1" res="1.4954212820157409e-03" rms="6.2121067196130753e-02" purity="1.0000000000000000e+00" nType="-99"/>
          <Node pos="r" depth="2" NCoef="0" IVar="-1" Cut="0.0000000000000000e+00" cType="1" res="-1.4743751380592585e-03" rms="4.5052996277809143e-01" purity="3.4620058536529541e-01" nType="-99"/>
        </Node>
      </Node>
    </BinaryTree>
    <BinaryTree type="DecisionTree" boostWeight="1.0000000000000000e+00" itree="61">
      <Node pos="s" depth="0" NCoef="0" IVar="7" Cut="9.8501899719238281e+01" cType="0" res="4.1404232382774353e-02" rms="4.6637526154518127e-01" purity="5.6725531816482544e-01" nType="0">
        <Node pos="l" depth="1" NCoef="0" IVar="16" Cut="9.5980520248413086e+00" cType="1" res="1.6679137945175171e-01" rms="4.2899528145790100e-01" purity="7.0446771383285522e-01" nType="0">
          <Node pos="l" depth="2" NCoef="0" IVar="-1" Cut="0.0000000000000000e+00" cType="1" res="1.8781455000862479e-03" rms="5.4127499461174011e-02" purity="1.0000000000000000e+00" nType="-99"/>
          <Node pos="r" depth="2" NCoef="0" IVar="-1" Cut="0.0000000000000000e+00" cType="1" res="2.8553034644573927e-04" rms="4.5200419425964355e-01" purity="6.1963868141174316e-01" nType="-99"/>
